<?xml version="1.0"?>
<MethodSetup Method="BDT::BoostedDecisionTrees">
  <GeneralInfo>
    <Info name="TMVA Release" value="4.2.0 [262656]"/>
    <Info name="ROOT Release" value="5.34/13 [336397]"/>
    <Info name="Creator" value="tkeck"/>
    <Info name="Date" value="Thu Mar  6 15:34:04 2014"/>
    <Info name="Host" value="Linux ekpbelle 2.6.18-371.4.1.el5.centos.plus #1 SMP Thu Jan 30 06:16:27 EST 2014 x86_64 x86_64 x86_64 GNU/Linux"/>
    <Info name="Dir" value="/portal/ekpbelle/home/tkeck/gitsvn/mystuff/TestBDTPlugins"/>
    <Info name="Training events" value="495"/>
    <Info name="TrainingTime" value="1.94721222e-02"/>
    <Info name="AnalysisType" value="Classification"/>
  </GeneralInfo>
  <Options>
    <Option name="V" modified="Yes">False</Option>
    <Option name="VerbosityLevel" modified="No">Default</Option>
    <Option name="VarTransform" modified="No">None</Option>
    <Option name="H" modified="Yes">False</Option>
    <Option name="CreateMVAPdfs" modified="Yes">True</Option>
    <Option name="IgnoreNegWeightsInTraining" modified="No">False</Option>
    <Option name="NTrees" modified="Yes">3</Option>
    <Option name="MaxDepth" modified="Yes">2</Option>
    <Option name="MinNodeSize" modified="No">5%</Option>
    <Option name="nCuts" modified="Yes">100</Option>
    <Option name="BoostType" modified="Yes">Grad</Option>
    <Option name="AdaBoostR2Loss" modified="No">quadratic</Option>
    <Option name="UseBaggedBoost" modified="No">True</Option>
    <Option name="Shrinkage" modified="Yes">1.000000e-01</Option>
    <Option name="AdaBoostBeta" modified="No">5.000000e-01</Option>
    <Option name="UseRandomisedTrees" modified="No">False</Option>
    <Option name="UseNvars" modified="No">2</Option>
    <Option name="UsePoissonNvars" modified="No">True</Option>
    <Option name="BaggedSampleFraction" modified="No">5.000000e-01</Option>
    <Option name="UseYesNoLeaf" modified="No">True</Option>
    <Option name="NegWeightTreatment" modified="No">ignorenegweightsintraining</Option>
    <Option name="Css" modified="No">1.000000e+00</Option>
    <Option name="Cts_sb" modified="No">1.000000e+00</Option>
    <Option name="Ctb_ss" modified="No">1.000000e+00</Option>
    <Option name="Cbb" modified="No">1.000000e+00</Option>
    <Option name="NodePurityLimit" modified="No">5.000000e-01</Option>
    <Option name="SeparationType" modified="No">giniindex</Option>
    <Option name="DoBoostMonitor" modified="No">False</Option>
    <Option name="UseFisherCuts" modified="No">False</Option>
    <Option name="MinLinCorrForFisher" modified="No">8.000000e-01</Option>
    <Option name="UseExclusiveVars" modified="No">False</Option>
    <Option name="DoPreselection" modified="No">False</Option>
    <Option name="SigToBkgFraction" modified="No">1.000000e+00</Option>
    <Option name="PruneMethod" modified="No">nopruning</Option>
    <Option name="PruneStrength" modified="No">0.000000e+00</Option>
    <Option name="PruningValFraction" modified="No">5.000000e-01</Option>
    <Option name="nEventsMin" modified="No">0</Option>
    <Option name="UseBaggedGrad" modified="Yes">True</Option>
    <Option name="GradBaggingFraction" modified="Yes">5.000000e-01</Option>
    <Option name="UseNTrainEvents" modified="No">0</Option>
    <Option name="NNodesMax" modified="No">0</Option>
  </Options>
  <Variables NVar="3">
    <Variable VarIndex="0" Expression="p" Label="p" Title="p" Unit="" Internal="p" Type="F" Min="6.50728494e-02" Max="2.90793371e+00"/>
    <Variable VarIndex="1" Expression="pt" Label="pt" Title="pt" Unit="" Internal="pt" Type="F" Min="3.27111036e-02" Max="2.46398163e+00"/>
    <Variable VarIndex="2" Expression="eid" Label="eid" Title="eid" Unit="" Internal="eid" Type="F" Min="0.00000000e+00" Max="1.00000000e+00"/>
  </Variables>
  <Spectators NSpec="0"/>
  <Classes NClass="2">
    <Class Name="Signal" Index="0"/>
    <Class Name="Background" Index="1"/>
  </Classes>
  <Transformations NTransformations="0"/>
  <MVAPdfs>
    <PDF Name="BoostedDecisionTrees_PDFSig" MinNSmooth="0" MaxNSmooth="0" InterpolMethod="2" KDE_type="1" KDE_iter="1" KDE_border="1" KDE_finefactor="1.0000000000000000e+00">
      <Histogram Name="BDT_tr_S_original" NBins="9" XMin="-1.6407191753387451e-01" XMax="6.3944578170776367e-02" HasEquidistantBins="1">
        1.06677915e+00 0.00000000e+00 6.40067489e+00 0.00000000e+00 4.26711660e+00 1.06677915e+01 1.28013498e+01 1.06677915e+00 3.20033745e+00 
      </Histogram>
    </PDF>
    <PDF Name="BoostedDecisionTrees_PDFBkg" MinNSmooth="0" MaxNSmooth="0" InterpolMethod="2" KDE_type="1" KDE_iter="1" KDE_border="1" KDE_finefactor="1.0000000000000000e+00">
      <Histogram Name="BDT_tr_B_original" NBins="9" XMin="-1.6407191753387451e-01" XMax="6.3944578170776367e-02" HasEquidistantBins="1">
        1.10242713e+01 0.00000000e+00 1.37803391e+01 0.00000000e+00 4.03567075e+00 4.42939472e+00 5.90585963e+00 0.00000000e+00 2.95292981e-01 
      </Histogram>
    </PDF>
  </MVAPdfs>
  <Weights NTrees="3" AnalysisType="1">
    <BinaryTree type="DecisionTree" boostWeight="1.0000000000000000e+00" itree="0">
      <Node pos="s" depth="0" NCoef="0" IVar="2" Cut="3.9603959769010544e-02" cType="0" res="-1.7365269362926483e-02" rms="4.9969837069511414e-01" purity="4.8263472318649292e-01" nType="0">
        <Node pos="l" depth="1" NCoef="0" IVar="1" Cut="2.8410196304321289e-01" cType="0" res="2.3190347850322723e-01" rms="4.4296813011169434e-01" purity="7.3190349340438843e-01" nType="0">
          <Node pos="l" depth="2" NCoef="0" IVar="-1" Cut="0.0000000000000000e+00" cType="1" res="2.2198284044861794e-02" rms="3.3355095982551575e-01" purity="8.7248319387435913e-01" nType="-99"/>
          <Node pos="r" depth="2" NCoef="0" IVar="-1" Cut="0.0000000000000000e+00" cType="1" res="-5.3369653417251943e-17" rms="3.7853518128395081e-01" purity="1.7333333194255829e-01" nType="-99"/>
        </Node>
        <Node pos="r" depth="1" NCoef="0" IVar="0" Cut="1.0270004272460938e+00" cType="0" res="-2.1861471235752106e-01" rms="4.4967499375343323e-01" purity="2.8138530254364014e-01" nType="0">
          <Node pos="l" depth="2" NCoef="0" IVar="-1" Cut="0.0000000000000000e+00" cType="1" res="5.5026453919708729e-03" rms="4.4790321588516235e-01" purity="7.2222220897674561e-01" nType="-99"/>
          <Node pos="r" depth="2" NCoef="0" IVar="-1" Cut="0.0000000000000000e+00" cType="1" res="-2.7610618621110916e-02" rms="3.5399886965751648e-01" purity="1.4689265191555023e-01" nType="-99"/>
        </Node>
      </Node>
    </BinaryTree>
    <BinaryTree type="DecisionTree" boostWeight="1.0000000000000000e+00" itree="1">
      <Node pos="s" depth="0" NCoef="0" IVar="1" Cut="2.7316167950630188e-01" cType="0" res="-4.4413708150386810e-02" rms="4.9186906218528748e-01" purity="4.5258101820945740e-01" nType="0">
        <Node pos="l" depth="1" NCoef="0" IVar="2" Cut="9.9009899422526360e-03" cType="0" res="7.8379079699516296e-02" rms="4.8870912194252014e-01" purity="5.7733535766601562e-01" nType="0">
          <Node pos="l" depth="2" NCoef="0" IVar="-1" Cut="0.0000000000000000e+00" cType="1" res="2.1667473018169403e-02" rms="3.4017959237098694e-01" purity="8.6666667461395264e-01" nType="-99"/>
          <Node pos="r" depth="2" NCoef="0" IVar="-1" Cut="0.0000000000000000e+00" cType="1" res="-8.6507722735404968e-03" rms="4.8936444520950317e-01" purity="4.0920096635818481e-01" nType="-99"/>
        </Node>
        <Node pos="r" depth="1" NCoef="0" IVar="2" Cut="3.7111885845661163e-02" cType="0" res="-4.8987868428230286e-01" rms="6.1033912934362888e-03" purity="0.0000000000000000e+00" nType="0">
          <Node pos="l" depth="2" NCoef="0" IVar="-1" Cut="0.0000000000000000e+00" cType="1" res="-1.0989433154463768e-02" rms="0.0000000000000000e+00" purity="0.0000000000000000e+00" nType="-99"/>
          <Node pos="r" depth="2" NCoef="0" IVar="-1" Cut="0.0000000000000000e+00" cType="1" res="-8.4775835275650024e-02" rms="5.2683559736976804e-09" purity="0.0000000000000000e+00" nType="-99"/>
        </Node>
      </Node>
    </BinaryTree>
    <BinaryTree type="DecisionTree" boostWeight="1.0000000000000000e+00" itree="2">
      <Node pos="s" depth="0" NCoef="0" IVar="2" Cut="1.9801979884505272e-02" cType="0" res="3.2241389155387878e-02" rms="4.8738861083984375e-01" purity="5.2330511808395386e-01" nType="0">
        <Node pos="l" depth="1" NCoef="0" IVar="1" Cut="2.1680390834808350e-01" cType="0" res="2.5861284136772156e-01" rms="4.1596803069114685e-01" purity="7.6847290992736816e-01" nType="0">
          <Node pos="l" depth="2" NCoef="0" IVar="-1" Cut="0.0000000000000000e+00" cType="1" res="2.0166192203760147e-02" rms="3.3944466710090637e-01" purity="8.6666661500930786e-01" nType="-99"/>
          <Node pos="r" depth="2" NCoef="0" IVar="-1" Cut="0.0000000000000000e+00" cType="1" res="-3.7178292870521545e-02" rms="4.0640640258789062e-01" purity="2.1311476826667786e-01" nType="-99"/>
        </Node>
        <Node pos="r" depth="1" NCoef="0" IVar="1" Cut="5.8636677265167236e-01" cType="0" res="-1.3858909904956818e-01" rms="4.6731352806091309e-01" purity="3.3828997611999512e-01" nType="0">
          <Node pos="l" depth="2" NCoef="0" IVar="-1" Cut="0.0000000000000000e+00" cType="1" res="6.9437753409147263e-03" rms="4.8787361383438110e-01" purity="6.1904764175415039e-01" nType="-99"/>
          <Node pos="r" depth="2" NCoef="0" IVar="-1" Cut="0.0000000000000000e+00" cType="1" res="-5.3181961178779602e-02" rms="3.2835134863853455e-01" purity="1.2703582644462585e-01" nType="-99"/>
        </Node>
      </Node>
    </BinaryTree>
  </Weights>
</MethodSetup>
