-0.31250000
0.06250000
0.12500000
0.12500000
-0.03125000
0.12500000
0.12500000
-0.09375000
0.00000000
-0.09375000
-0.06250000
0.18750000
0.00000000
-0.12500000
0.18750000
-0.03125000
0.12500000
0.18750000
0.12500000
-0.25000000
-0.12500000
0.18750000
-0.37500000
0.00000000
0.12500000
-0.06250000
0.06250000
0.06250000
0.18750000
0.18750000
0.12500000
0.06250000
0.18750000
-0.12500000
0.06250000
-0.06250000
0.00000000
0.18750000
0.12500000
0.12500000
0.06250000
0.00000000
0.12500000
-0.31250000
0.00000000
0.00000000
-0.14062500
0.00000000
-0.12500000
0.18750000
0.06250000
0.03125000
-0.12500000
0.12500000
-0.12500000
-0.18750000
0.12500000
0.00000000
0.06250000
0.12500000
-0.12500000
0.06250000
0.00000000
0.12500000
-0.25000000
0.00000000
0.12500000
-0.12500000
-0.06250000
-0.18750000
-0.12500000
0.04687500
0.06250000
0.10937500
0.07812500
0.00000000
-1.06250000
0.12500000
-0.06250000
-0.12500000
0.12500000
-0.12500000
0.00000000
0.06250000
0.12500000
-0.12500000
-0.06250000
-0.12500000
0.12500000
0.06250000
0.18750000
-0.18750000
-0.25000000
-0.12500000
0.06250000
0.12500000
0.12500000
0.12500000
0.18750000
0.25000000
0.18750000
-0.06250000
0.12500000
0.06250000
0.12500000
0.12500000
0.12500000
0.18750000
-1.18750000
-0.25000000
0.18750000
-0.25000000
0.06250000
0.25000000
0.18750000
-0.12500000
0.14062500
0.25000000
-0.18750000
-0.12500000
0.00000000
0.06250000
0.12500000
-0.06250000
0.18750000
-0.06250000
0.12500000
-0.25000000
-0.06250000
-0.18750000
0.00000000
-0.06250000
-0.25000000
-0.25000000
0.18750000
-0.25000000
0.00000000
-0.18750000
0.00000000
0.06250000
0.25000000
0.00000000
0.18750000
-0.06250000
-0.18750000
0.25000000
0.12500000
-0.25000000
-0.18750000
0.06250000
0.18750000
0.00000000
0.18750000
-0.12500000
0.00000000
0.31250000
-0.12500000
-0.06250000
0.12500000
-0.37500000
0.00000000
-0.06250000
-0.18750000
-0.12500000
-0.06250000
-0.06250000
-0.25000000
0.06250000
0.06250000
-0.12500000
0.00000000
0.06250000
-0.12500000
-0.12500000
-0.25000000
-0.06250000
-0.25000000
-0.25000000
0.00000000
-0.25000000
0.25000000
0.06250000
0.00000000
0.00000000
0.00000000
-0.31250000
0.00000000
0.12500000
0.12500000
0.00000000
0.12500000
-0.25000000
0.00000000
-0.43750000
0.25000000
-0.12500000
-0.06250000
0.00000000
0.18750000
-0.50000000
0.00000000
-0.31250000
-0.12500000
-0.06250000
0.00000000
0.25000000
-0.06250000
0.00000000
0.12500000
-0.06250000
0.50000000
-0.12500000
0.00000000
0.25000000
0.12500000
0.00000000
-0.18750000
-0.18750000
-0.25000000
0.12500000
0.18750000
-0.12500000
-0.12500000
-0.18750000
0.18750000
0.06250000
0.18750000
-0.25000000
0.18750000
-0.12500000
0.31250000
-0.06250000
0.18750000
-0.06250000
0.00000000
0.25000000
-0.56250000
0.00000000
-0.18750000
-0.18750000
0.12500000
0.18750000
-0.12500000
-0.25000000
0.43750000
-0.25000000
-0.31250000
0.12500000
-0.06250000
-0.12500000
0.06250000
-0.18750000
0.06250000
-0.12500000
0.00000000
-0.06250000
0.12500000
-0.25000000
0.31250000
0.12500000
0.06250000
0.00000000
-0.06250000
-0.43750000
-0.31250000
-0.37500000
-0.18750000
0.06250000
0.00000000
0.00000000
-0.12500000
0.12500000
-0.12500000
0.12500000
0.50000000
-0.18750000
0.00000000
-0.06250000
0.12500000
0.18750000
-0.12500000
0.00000000
-0.31250000
0.00000000
0.25000000
-0.06250000
0.00000000
-0.06250000
-0.06250000
0.31250000
-0.31250000
-0.18750000
-0.18750000
0.00000000
-0.06250000
0.00000000
-0.12500000
-0.25000000
0.12500000
0.06250000
-0.12500000
0.06250000
-0.06250000
-0.06250000
-0.06250000
0.00000000
0.00000000
-0.25000000
0.75000000
0.12500000
0.18750000
0.00000000
-0.12500000
-0.31250000
0.18750000
0.06250000
-0.18750000
0.06250000
0.12500000
0.12500000
-0.06250000
-0.25000000
0.00000000
0.06250000
0.18750000
0.00000000
0.31250000
-0.50000000
-0.31250000
-0.31250000
-0.56250000
-0.06250000
0.00000000
0.18750000
-0.06250000
-0.12500000
0.18750000
-0.18750000
0.50000000
-0.12500000
-0.25000000
0.12500000
-0.31250000
0.06250000
0.06250000
0.12500000
-0.18750000
-0.06250000
0.12500000
0.18750000
-0.25000000
-0.18750000
0.18750000
-0.18750000
-0.12500000
0.06250000
0.18750000
-0.12500000
0.50000000
0.18750000
0.06250000
-0.25000000
-0.25000000
-0.06250000
-0.56250000
0.18750000
0.18750000
-0.37500000
0.12500000
-0.06250000
0.25000000
0.25000000
1.18750000
0.18750000
0.12500000
0.00000000
0.06250000
-0.18750000
-0.18750000
0.37500000
0.00000000
0.12500000
-0.12500000
0.06250000
-0.18750000
-0.25000000
0.12500000
0.18750000
-0.12500000
-0.06250000
0.06250000
-0.25000000
0.18750000
0.75000000
0.37500000
-0.12500000
0.51562500
0.06250000
0.18750000
-0.37500000
-0.12500000
-0.06250000
0.12500000
-0.18750000
-0.25000000
-0.06250000
-0.37500000
-0.12500000
-0.12500000
0.18750000
0.25000000
-0.12500000
-0.31250000
-0.25000000
-0.06250000
-0.06250000
-0.43750000
-0.18750000
-0.12500000
-0.06250000
0.18750000
0.12500000
0.00000000
0.00000000
-0.25000000
-0.18750000
0.12500000
0.12500000
-0.03125000
0.06250000
0.31250000
0.31250000
0.06250000
-0.43750000
-0.06250000
0.00000000
0.03125000
-0.12500000
0.31250000
-0.12500000
-0.43750000
-0.06250000
-0.12500000
-0.06250000
-0.06250000
0.18750000
0.06250000
-0.12500000
-0.12500000
-0.06250000
0.12500000
-0.06250000
0.31250000
-0.06250000
0.12500000
-0.37500000
-0.31250000
0.68750000
0.00000000
0.31250000
0.54687500
-0.18750000
-0.18750000
-0.37500000
-0.31250000
-0.18750000
0.25000000
0.06250000
-0.18750000
0.06250000
0.37500000
0.12500000
-0.37500000
-0.18750000
0.25000000
0.12500000
0.06250000
-0.12500000
0.06250000
-0.06250000
0.31250000
-0.18750000
-0.12500000
0.25000000
0.18750000
0.18750000
-0.06250000
-0.18750000
0.06250000
-0.06250000
-0.31250000
0.06250000
0.00000000
-0.12500000
0.25000000
-0.31250000
-0.18750000
-0.06250000
0.18750000
-0.06250000
0.62500000
-0.06250000
0.00000000
0.00000000
-0.25000000
0.18750000
0.00000000
0.00000000
0.06250000
0.00000000
-0.06250000
-0.06250000
-0.18750000
0.00000000
-0.12500000
0.12500000
0.12500000
-0.25000000
-0.12500000
-0.12500000
-0.06250000
0.12500000
0.00000000
-0.06250000
-0.18750000
-0.18750000
-0.06250000
-0.18750000
0.12500000
0.06250000
0.00000000
0.18750000
-0.12500000
0.06250000
-0.25000000
-0.18750000
-0.12500000
0.18750000
-0.12500000
-0.12500000
-0.12500000
-0.06250000
-0.18750000
-0.25000000
-0.18750000
-0.06250000
0.00000000
-0.06250000
-0.12500000
0.06250000
0.00000000
0.00000000
-0.18750000
0.06250000
-0.31250000
0.03125000
0.18750000
0.00000000
-0.06250000
-0.25000000
-0.06250000
-0.25000000
-0.12500000
-0.06250000
0.35937500
0.00000000
0.00000000
0.31250000
0.00000000
0.18750000
-0.06250000
0.00000000
-0.12500000
-0.12500000
-0.12500000
0.06250000
-0.18750000
0.12500000
0.18750000
0.06250000
0.00000000
-0.25000000
0.00000000
-0.12500000
0.12500000
0.06250000
0.25000000
0.25000000
0.10937500
0.18750000
-0.18750000
-0.06250000
0.12500000
0.12500000
-0.12500000
-0.06250000
0.12500000
-0.25000000
-0.12500000
0.06250000
0.06250000
0.12500000
-0.06250000
-0.12500000
-0.06250000
0.12500000
0.12500000
0.06250000
-0.06250000
-0.06250000
0.06250000
0.00000000
-0.06250000
0.18750000
-0.31250000
0.12500000
-0.06250000
0.06250000
-0.06250000
0.06250000
0.25000000
0.25000000
-0.12500000
0.12500000
-0.12500000
-0.06250000
0.18750000
-0.12500000
0.00000000
0.25000000
0.00000000
-0.12500000
-0.06250000
-0.25000000
-0.12500000
0.12500000
0.18750000
-0.18750000
-0.06250000
-0.06250000
0.12500000
-0.25000000
0.12500000
0.18750000
-0.25000000
-0.18750000
-0.06250000
0.18750000
0.06250000
0.12500000
-0.12500000
0.25000000
0.00000000
-0.06250000
0.18750000
-0.12500000
0.12500000
0.12500000
0.12500000
0.00000000
0.18750000
0.12500000
-0.03125000
0.18750000
-0.18750000
0.00000000
-0.06250000
0.12500000
-0.12500000
-0.25000000
0.18750000
0.06250000
0.00000000
0.06250000
-0.12500000
0.12500000
0.18750000
0.18750000
-0.18750000
-0.31250000
-0.06250000
0.06250000
-0.25000000
-0.12500000
0.25000000
0.25000000
0.06250000
-0.25000000
0.00000000
-0.18750000
0.06250000
0.00000000
-0.06250000
0.00000000
-0.18750000
-0.18750000
0.06250000
-0.12500000
-0.18750000
-0.06250000
-0.06250000
0.18750000
-0.25000000
-0.06250000
-0.03125000
-0.31250000
0.06250000
0.00000000
0.25000000
0.00000000
-0.25000000
0.25000000
0.06250000
0.12500000
-0.12500000
-0.12500000
-0.12500000
-0.25000000
-0.12500000
-0.25000000
0.12500000
0.25000000
0.00000000
0.00000000
0.12500000
-0.25000000
0.12500000
-0.18750000
0.18750000
0.06250000
-0.25000000
-0.25000000
-0.31250000
-0.06250000
0.18750000
-0.12500000
-0.25000000
0.18750000
0.12500000
-0.12500000
0.18750000
-0.18750000
-0.25000000
-0.18750000
0.00000000
-0.12500000
-0.06250000
-0.18750000
0.06250000
0.18750000
-0.25000000
-0.18750000
0.12500000
-0.25000000
0.12500000
-0.18750000
-0.31250000
0.18750000
-0.25000000
0.25000000
-0.12500000
0.00000000
0.18750000
0.06250000
-0.18750000
0.12500000
0.12500000
0.18750000
0.03125000
0.06250000
0.12500000
-0.25000000
0.12500000
-0.12500000
0.18750000
0.12500000
0.00000000
-0.25000000
-0.12500000
-0.12500000
0.25000000
-0.12500000
-0.12500000
0.29687500
0.12500000
-0.06250000
-0.12500000
0.00000000
0.00000000
0.06250000
0.06250000
-0.18750000
-0.06250000
-0.25000000
0.12500000
-0.12500000
0.12500000
-0.31250000
0.12500000
0.06250000
-0.18750000
0.06250000
0.00000000
-0.18750000
-0.12500000
-0.06250000
0.00000000
-0.06250000
0.06250000
-0.12500000
0.12500000
0.18750000
-0.21875000
-0.25000000
0.01562500
0.00000000
0.06250000
-0.18750000
-0.06250000
-0.09375000
0.03125000
-0.18750000
0.07812500
0.18750000
0.00000000
0.00000000
0.00000000
0.06250000
0.06250000
-0.06250000
0.12500000
0.18750000
0.03125000
0.12500000
-0.06250000
0.00000000
-0.06250000
0.12500000
-0.06250000
0.06250000
-0.06250000
-0.19140625
0.09375000
-0.06250000
0.23437500
0.00000000
0.12500000
0.25000000
-0.06250000
-0.18750000
-0.25000000
-0.06250000
0.00000000
0.25000000
0.18750000
-0.12500000
0.06250000
0.18750000
0.00000000
-0.06250000
0.06250000
-0.18750000
0.06250000
0.18750000
-0.25000000
-0.12500000
0.00000000
-0.06250000
-0.06250000
-0.18750000
-0.25000000
0.12500000
-0.12500000
-0.06250000
0.18750000
0.20312500
-0.20312500
0.00000000
-0.06250000
-0.09375000
0.12500000
-0.25000000
0.25000000
-0.04687500
-0.04687500
0.06250000
0.21875000
-0.18750000
0.06250000
-0.25000000
0.18750000
0.00000000
0.12500000
-0.18750000
-0.18750000
0.00000000
0.06250000
-0.06250000
0.12500000
0.18750000
-0.25000000
-0.25000000
0.12500000
0.18750000
-0.06250000
-0.01562500
0.18750000
0.18750000
-0.14062500
0.06250000
-0.06250000
0.06250000
-0.06250000
-0.12500000
-0.12500000
0.12500000
0.00000000
0.00000000
-0.06250000
0.06250000
-0.12500000
0.06250000
-0.18750000
0.18750000
0.12500000
-0.12500000
-0.06250000
0.00000000
0.00000000
0.00000000
0.18750000
-0.12500000
0.12500000
-0.25000000
-0.12500000
0.18750000
0.21875000
-0.12500000
-0.31250000
-0.12500000
-0.03125000
0.00000000
-0.12500000
-0.07812500
-0.12500000
-0.25000000
0.18750000
0.15625000
0.06250000
-0.12500000
0.00000000
-0.06250000
0.18750000
-0.06250000
-0.12500000
-0.06250000
-0.18750000
0.18750000
-0.12500000
-0.18750000
-0.12500000
0.12500000
-0.18750000
0.00000000
0.06250000
-0.25000000
-0.12500000
-0.12500000
0.00000000
0.09375000
-0.06250000
-0.06250000
-0.21875000
0.25000000
-0.12500000
-0.12500000
0.18750000
0.18750000
-0.06250000
0.06250000
-0.06250000
0.00000000
0.15625000
0.18750000
0.00000000
-0.12500000
0.00000000
-0.25000000
-0.31250000
-0.06250000
-0.06250000
-0.06250000
-0.25000000
0.12500000
0.00000000
-0.06250000
0.06250000
0.12500000
0.00000000
0.18750000
0.18750000
-0.25000000
-0.18750000
0.06250000
0.34375000
0.06250000
-0.12500000
0.00000000
-0.25000000
-0.31250000
-0.25000000
0.18750000
-0.07812500
0.18750000
0.00000000
-0.12500000
0.00000000
-0.06250000
0.06250000
-0.18750000
0.12500000
-0.12500000
-0.25000000
-0.06250000
0.12500000
0.12500000
-0.18750000
-0.18750000
-0.06250000
-0.25000000
0.00000000
0.18750000
0.00000000
-0.18750000
-0.25000000
-0.06250000
-0.31250000
-0.18750000
0.00000000
0.03125000
0.06250000
0.00000000
0.00000000
0.06250000
0.12500000
-0.18750000
-0.14062500
0.18750000
-0.18750000
0.00000000
0.12500000
0.18750000
-0.25000000
-0.12500000
0.06250000
-0.25000000
-0.37500000
0.25000000
0.00000000
-0.18750000
-0.25000000
0.12500000
-0.12500000
-0.06250000
0.06250000
-0.12500000
-0.18750000
-0.18750000
0.17187500
-0.12500000
0.12500000
0.25000000
0.06250000
-0.06250000
-0.25000000
0.00000000
0.00000000
-0.06250000
-0.17187500
-0.18750000
-0.18750000
0.12500000
-0.06250000
-0.25000000
-0.06250000
0.06250000
0.06250000
-0.06250000
0.25000000
-0.06250000
-0.06250000
-0.12500000
0.06250000
0.12500000
0.06250000
0.21875000
0.06250000
-0.18750000
0.18750000
0.00000000
-0.29687500
0.00000000
-0.06250000
0.00000000
-0.18750000
-0.12500000
0.00000000
-0.18750000
-0.12500000
-0.12500000
0.12500000
-0.06250000
-0.06250000
-0.25000000
-0.25000000
0.12500000
0.00000000
-0.12500000
-0.18750000
0.12500000
-0.12500000
0.12500000
0.12500000
0.12500000
-0.25000000
-0.18750000
-0.31250000
-0.12500000
-0.06250000
-0.06250000
0.06250000
-0.25000000
0.06250000
-0.12500000
0.06250000
0.12500000
0.06250000
-0.37500000
-0.06250000
0.06250000
-0.29687500
-0.06250000
0.00000000
-0.18750000
0.12500000
-0.06250000
-0.18750000
0.06250000
0.00000000
0.06250000
-0.18750000
-0.25000000
0.28125000
0.00000000
0.06250000
-0.06250000
0.00000000
-0.31250000
0.12500000
-0.18750000
-0.06250000
-0.01562500
0.06250000
0.00000000
-0.01562500
0.12500000
-0.18750000
0.03125000
0.00000000
-0.12500000
0.00000000
0.12500000
-0.18750000
-0.06250000
0.03125000
-0.25000000
-0.25000000
-0.12500000
0.00000000
0.00000000
-0.06250000
-0.12500000
0.00000000
0.12500000
0.12500000
-0.06250000
0.06250000
-0.25000000
-0.06250000
0.06250000
0.06250000
-0.25000000
-0.06250000
-0.12500000
-0.25000000
-0.06250000
0.00000000
0.00000000
0.00000000
0.18750000
-0.12500000
0.00000000
0.18750000
-0.25000000
-0.04687500
0.18750000
-0.03125000
0.18750000
-0.18750000
0.06250000
0.06250000
0.06250000
0.25000000
-0.18750000
0.12500000
0.12500000
-0.26562500
0.00000000
-0.12500000
0.06250000
0.18750000
-0.18750000
-0.18750000
0.12500000
-0.06250000
0.04687500
-0.12500000
0.00000000
0.00000000
0.00000000
-0.06250000
-0.06250000
0.12500000
0.12500000
0.00000000
0.00000000
0.12500000
0.12500000
-0.06250000
-0.06250000
0.00000000
-0.06250000
0.00000000
0.06250000
-0.06250000
0.06250000
0.06250000
0.00000000
-0.26562500
0.12500000
0.12500000
-0.06250000
-0.06250000
0.12500000
0.12500000
0.06250000
-0.06250000
0.06250000
-0.25000000
0.09375000
0.01562500
0.00000000
0.00000000
-0.18750000
-0.18750000
0.00000000
0.00000000
0.28125000
0.01562500
0.18750000
0.07812500
0.18750000
-0.06250000
-0.12500000
0.18750000
-0.12500000
-0.18750000
0.00000000
-0.12500000
-0.37500000
-0.06250000
0.06250000
0.00000000
-0.12500000
-0.25000000
-0.12500000
-0.18750000
-0.12500000
0.00000000
0.03125000
0.00000000
0.06250000
0.00000000
-0.06250000
0.25000000
-0.06250000
0.12500000
-0.06250000
0.00000000
0.18750000
0.18750000
0.12500000
0.12500000
-0.12500000
-0.12500000
-0.25000000
-0.12500000
-0.06250000
0.06250000
0.00000000
-0.18750000
-0.06250000
0.06250000
0.00000000
0.06250000
-0.06250000
0.12500000
-0.12500000
-0.12500000
0.12500000
0.06250000
-0.06250000
0.12500000
0.12500000
0.06250000
-0.18750000
0.06250000
0.00000000
-0.25000000
0.31250000
-0.18750000
0.21875000
0.04687500
-0.06250000
0.00000000
0.12500000
0.12500000
-0.06250000
0.12500000
0.06250000
-0.18750000
-0.12500000
0.12500000
0.00000000
0.18750000
-0.06250000
0.00000000
0.06250000
0.06250000
0.00000000
0.06250000
-0.18750000
-0.25000000
0.00000000
-0.06250000
0.00000000
-0.12500000
0.06250000
0.12500000
0.06250000
0.18750000
-0.12500000
0.00000000
0.00000000
0.06250000
0.12500000
0.00000000
0.00000000
0.00000000
0.06250000
-0.12500000
0.25000000
-0.12500000
-0.12500000
-0.06250000
0.06250000
0.06250000
0.00000000
0.06250000
0.00000000
-0.06250000
-0.12500000
0.00000000
-0.06250000
0.00000000
0.06250000
0.12500000
0.25000000
-0.14062500
0.00000000
0.18750000
-0.06250000
-0.12500000
0.25000000
0.18750000
0.12500000
0.06250000
0.18750000
-0.06250000
0.00000000
-0.12500000
-0.25000000
0.12500000
0.06250000
-0.06250000
0.06250000
-0.06250000
-0.12500000
0.12500000
-0.12500000
0.18750000
-0.12500000
0.12500000
0.00000000
0.12500000
-0.25000000
0.12500000
0.12500000
-0.31250000
0.06250000
0.00000000
0.25000000
-0.37500000
0.06250000
-0.06250000
0.18750000
0.25000000
0.12500000
-0.12500000
-0.06250000
0.00000000
0.25000000
-0.25000000
-0.06250000
-0.12500000
0.00000000
-0.18750000
0.06250000
0.06250000
-0.06250000
0.18750000
-0.12500000
-0.25000000
-0.18750000
0.06250000
0.06250000
0.25000000
-0.12500000
0.25000000
0.06250000
0.06250000
-0.18750000
0.12500000
-0.06250000
-0.12500000
-0.18750000
0.00000000
0.12500000
0.18750000
-0.18750000
0.37500000
0.00000000
-0.12500000
-0.25000000
0.12500000
0.06250000
0.00000000
0.18750000
-0.18750000
-0.12500000
-0.06250000
0.00000000
-0.06250000
-0.06250000
0.25000000
0.18750000
-0.06250000
0.00000000
-0.18750000
-0.25000000
-0.12500000
0.18750000
-0.06250000
0.00000000
0.00000000
0.12500000
0.06250000
-0.06250000
0.12500000
-0.06250000
0.25000000
0.12500000
-0.12500000
0.18750000
0.12500000
0.06250000
0.00000000
0.00000000
-0.18750000
0.00000000
0.12500000
0.12500000
-0.12500000
-0.06250000
0.12500000
0.06250000
0.18750000
-0.18750000
-0.18750000
-0.18750000
0.12500000
0.12500000
0.12500000
-0.25000000
-0.31250000
-0.12500000
0.12500000
0.18750000
-0.25000000
0.12500000
0.06250000
0.25000000
-0.06250000
0.06250000
0.00000000
-0.06250000
-0.12500000
-0.12500000
-0.06250000
-0.18750000
0.06250000
-0.06250000
0.00000000
0.18750000
0.00000000
0.06250000
0.000000
-0.187500
0.000000
-0.062500
0.000000
-0.062500
-0.062500
-0.375000
-0.312500
0.000000
0.000000
-0.187500
0.125000
-0.250000
-0.125000
0.000000
-0.375000
-0.062500
0.187500
-0.125000
0.125000
-0.062500
0.000000
-0.375000
0.000000
0.000000
-0.062500
0.000000
0.000000
-0.062500
0.000000
0.000000
0.000000
0.093750
0.125000
0.000000
-0.187500
0.000000
-0.187500
0.000000
0.000000
0.062500
-0.125000
-0.312500
0.062500
-0.125000
0.062500
-0.125000
-0.125000
-0.125000
-0.250000
0.000000
-0.250000
-0.125000
-0.062500
0.031250
-0.250000
-0.312500
0.000000
-0.375000
0.000000
0.125000
0.062500
0.000000
0.062500
-0.125000
0.000000
0.187500
0.125000
0.062500
-0.062500
0.000000
0.000000
0.000000
0.000000
0.125000
0.187500
0.000000
-0.250000
-0.062500
-0.062500
0.187500
-0.062500
-0.125000
0.000000
0.125000
-0.125000
-0.312500
-0.187500
0.000000
-0.125000
0.000000
0.125000
0.125000
-0.062500
-0.125000
-0.187500
-0.312500
0.000000
0.000000
0.125000
0.125000
0.062500
-0.062500
-0.062500
0.187500
-0.062500
0.125000
-0.062500
0.125000
-0.062500
0.062500
-0.125000
0.062500
0.000000
0.000000
-0.062500
-0.062500
-0.062500
0.062500
0.125000
0.000000
0.000000
0.250000
-0.187500
-0.062500
0.125000
-0.125000
0.000000
-0.187500
-0.250000
0.187500
0.000000
-0.125000
-0.250000
0.062500
-0.062500
0.000000
0.000000
-0.125000
0.125000
-0.125000
0.062500
-0.062500
-0.125000
-0.125000
-0.062500
-0.250000
-0.062500
0.000000
0.125000
0.250000
0.062500
0.000000
0.062500
0.000000
-0.187500
-0.125000
0.000000
0.000000
-0.125000
0.187500
0.062500
0.000000
0.000000
-0.125000
-0.062500
-0.125000
0.125000
0.125000
-0.187500
-0.125000
-0.062500
0.125000
-0.125000
0.125000
0.125000
0.125000
0.062500
0.000000
-0.125000
-0.375000
-0.187500
-0.062500
-0.062500
-0.187500
0.000000
-0.125000
-0.062500
0.000000
0.125000
-0.250000
0.187500
0.187500
0.000000
0.062500
-0.062500
-0.125000
0.062500
-0.125000
-0.187500
0.000000
0.000000
0.125000
0.125000
0.125000
0.125000
-0.125000
-0.250000
-0.125000
0.062500
-0.125000
0.125000
-0.062500
0.000000
0.125000
-0.125000
0.000000
0.062500
0.000000
0.187500
0.125000
0.187500
0.000000
-0.187500
-0.187500
-0.250000
-0.125000
0.125000
-0.125000
-0.125000
-0.250000
0.062500
-0.125000
0.062500
0.187500
0.000000
-0.062500
0.125000
0.125000
0.125000
0.062500
-0.187500
0.000000
0.187500
-0.187500
-0.125000
0.187500
-0.187500
0.125000
0.000000
-0.125000
-0.062500
0.125000
-0.062500
0.000000
0.000000
-0.062500
0.000000
-0.062500
0.000000
0.250000
-0.187500
0.000000
-0.125000
0.000000
0.000000
0.062500
0.062500
0.000000
0.125000
0.000000
0.250000
-0.125000
-0.312500
-0.250000
0.125000
0.000000
0.062500
0.437500
-0.125000
0.000000
0.125000
0.000000
-0.125000
-0.062500
0.000000
0.000000
0.000000
0.312500
-0.125000
-0.250000
0.125000
-0.125000
0.250000
-0.250000
0.062500
0.000000
0.000000
-0.375000
0.250000
0.125000
0.000000
0.187500
0.000000
0.000000
0.062500
0.000000
0.000000
0.062500
0.125000
-0.125000
0.125000
0.125000
0.000000
0.000000
0.000000
0.000000
0.187500
0.000000
-0.187500
0.062500
0.000000
0.125000
0.062500
-0.062500
0.062500
0.125000
0.000000
0.000000
0.000000
0.125000
-0.062500
0.000000
0.000000
0.000000
0.000000
-0.062500
0.125000
-0.062500
-0.125000
0.000000
-0.125000
-0.250000
-0.062500
0.000000
-0.125000
0.000000
-0.125000
-0.125000
0.000000
0.187500
0.000000
-0.125000
0.250000
-0.250000
0.187500
-0.187500
0.000000
0.000000
-0.250000
0.187500
-0.187500
-0.062500
0.000000
0.125000
0.187500
0.125000
0.000000
-0.125000
-0.125000
0.000000
0.000000
0.000000
0.125000
0.062500
-0.125000
-0.125000
0.000000
0.125000
0.062500
-0.125000
-0.187500
0.000000
-0.187500
0.062500
0.000000
-0.062500
0.125000
0.062500
0.125000
-0.187500
-0.187500
0.000000
0.000000
-0.062500
-0.125000
-0.062500
0.062500
-0.250000
0.250000
0.187500
-0.062500
-0.187500
0.125000
0.000000
0.125000
-0.062500
-0.250000
0.000000
0.125000
0.000000
-0.062500
-0.125000
-0.187500
-0.250000
-0.187500
0.031250
-0.250000
0.250000
0.125000
0.125000
0.062500
0.000000
-0.125000
-0.062500
0.000000
0.000000
0.125000
0.000000
-0.062500
-0.125000
-0.125000
0.062500
0.125000
0.000000
-0.187500
0.062500
0.125000
-0.062500
0.000000
-0.062500
0.000000
-0.375000
-0.125000
-0.125000
0.187500
0.000000
-0.062500
0.125000
0.000000
0.000000
0.062500
0.062500
0.187500
0.187500
-0.125000
0.000000
0.000000
0.187500
-0.062500
-0.187500
0.187500
0.062500
0.125000
0.062500
-0.062500
0.093750
0.062500
-0.062500
-0.125000
-0.062500
-0.062500
0.000000
-0.125000
0.000000
0.000000
0.000000
0.000000
-0.062500
0.000000
-0.218750
0.000000
-0.125000
-0.062500
-0.125000
0.062500
-0.250000
-0.125000
0.062500
-0.125000
0.125000
-0.062500
0.000000
0.187500
0.187500
-0.250000
0.062500
-0.062500
0.000000
0.062500
-0.125000
-0.062500
0.125000
0.062500
-0.125000
0.000000
0.187500
0.265625
-0.062500
0.062500
0.000000
-0.062500
0.187500
0.000000
-0.125000
0.062500
-0.062500
0.000000
-0.125000
0.000000
0.000000
0.000000
0.000000
-0.125000
-0.187500
0.125000
0.000000
-0.062500
0.062500
0.062500
0.000000
-0.187500
-0.187500
-0.062500
0.062500
0.000000
0.000000
-0.125000
0.000000
0.000000
-0.125000
-0.062500
-0.125000
-0.062500
-0.187500
0.125000
-0.312500
0.000000
0.000000
0.062500
0.000000
0.062500
-0.125000
0.062500
0.125000
-0.187500
-0.062500
-0.187500
0.125000
0.125000
-0.062500
0.125000
0.000000
-0.125000
-0.062500
0.062500
0.062500
-0.250000
0.125000
0.000000
-0.125000
0.187500
0.187500
0.125000
0.000000
0.000000
-0.062500
0.000000
-0.187500
0.046875
-0.750000
0.000000
-0.312500
0.000000
0.000000
0.000000
-0.500000
-0.062500
0.000000
0.000000
0.000000
-0.093750
0.062500
-0.062500
0.062500
-0.375000
0.000000
0.500000
0.250000
0.125000
0.000000
-0.062500
0.000000
-0.125000
0.000000
0.000000
0.125000
0.000000
0.375000
0.000000
0.000000
-0.500000
-0.125000
-0.125000
0.000000
0.187500
-0.437500
-0.187500
-0.250000
0.000000
-0.062500
-0.500000
0.062500
-0.125000
0.000000
-0.062500
0.000000
-0.125000
-0.500000
0.000000
-0.375000
-0.750000
-0.687500
0.000000
-1.250000
0.093750
0.125000
0.093750
0.000000
-0.500000
-0.062500
0.000000
0.125000
-0.062500
0.062500
-0.250000
0.000000
0.125000
0.000000
0.000000
-0.125000
0.062500
0.000000
0.125000
0.000000
0.000000
0.062500
-0.062500
0.125000
-0.125000
-0.250000
0.187500
0.062500
0.000000
0.000000
0.125000
0.000000
0.062500
0.125000
-0.250000
-0.062500
0.000000
0.187500
-0.125000
0.000000
-0.062500
0.062500
0.000000
0.000000
0.000000
0.062500
-0.062500
0.062500
0.000000
0.187500
-0.437500
-0.187500
0.125000
-0.187500
0.062500
0.000000
0.187500
0.375000
-0.250000
-0.125000
-0.187500
-0.250000
0.000000
0.000000
0.062500
0.062500
0.125000
0.000000
0.125000
-0.125000
0.000000
0.125000
0.125000
-0.250000
0.062500
-0.125000
-0.125000
0.000000
0.000000
0.125000
0.187500
0.000000
-0.437500
0.000000
0.062500
-0.187500
-0.062500
0.062500
-0.250000
-0.187500
0.187500
0.062500
0.000000
0.000000
0.062500
0.000000
-0.187500
0.000000
-0.062500
0.062500
0.125000
0.062500
-0.125000
0.156250
0.000000
-0.187500
-0.062500
0.187500
-0.125000
-0.125000
-0.187500
-0.187500
0.062500
-0.250000
-0.125000
-0.187500
0.000000
-0.125000
-0.187500
0.000000
-0.062500
-0.281250
-0.062500
-0.062500
-0.062500
0.125000
0.000000
0.125000
0.062500
-0.250000
-0.187500
0.000000
0.000000
-0.250000
0.000000
-0.500000
-0.156250
-0.125000
0.000000
-1.250000
0.000000
0.000000
0.000000
-0.250000
-0.187500
0.000000
-1.000000
0.000000
-1.000000
0.000000
0.125000
0.000000
0.000000
-0.250000
-0.250000
-0.437500
0.000000
0.000000
-0.250000
0.000000
0.250000
0.062500
0.000000
0.250000
0.000000
0.000000
0.000000
-0.500000
-0.375000
0.062500
0.000000
0.000000
0.000000
-1.187500
0.250000
0.125000
0.000000
0.000000
-1.000000
-0.250000
0.250000
0.000000
0.125000
0.000000
-0.875000
0.000000
0.000000
-0.031250
-0.750000
0.375000
0.000000
-1.000000
-0.500000
-0.125000
0.062500
0.000000
0.000000
-0.062500
0.000000
0.062500
-0.125000
0.062500
0.000000
0.000000
0.125000
0.000000
0.000000
-0.062500
-0.062500
0.000000
0.000000
0.000000
0.187500
-0.125000
-0.187500
-0.250000
-0.187500
-0.250000
-0.187500
0.000000
-0.250000
0.000000
-0.062500
0.000000
-0.125000
0.000000
0.000000
-0.375000
0.000000
0.125000
-0.125000
0.000000
-0.062500
-0.062500
0.125000
0.000000
-0.125000
-0.062500
0.062500
0.125000
0.000000
-0.187500
0.375000
0.062500
-0.375000
0.062500
-0.062500
0.000000
-0.125000
0.250000
0.000000
0.125000
-0.062500
0.125000
0.000000
-0.250000
-0.187500
-0.187500
-0.062500
0.000000
0.000000
0.062500
0.000000
-0.250000
-0.125000
0.125000
0.000000
-0.187500
-0.125000
0.000000
0.000000
-0.062500
-0.062500
-0.187500
0.187500
0.062500
-0.187500
-0.156250
-0.187500
-0.187500
-0.125000
0.125000
-0.187500
0.125000
0.125000
0.000000
0.125000
0.000000
0.000000
0.062500
0.000000
0.000000
0.125000
-0.125000
-0.125000
-0.312500
-0.187500
-0.125000
-0.125000
0.000000
0.187500
0.187500
0.187500
0.000000
0.000000
0.000000
0.062500
0.187500
0.000000
-0.062500
0.062500
0.000000
-0.187500
-0.312500
0.062500
0.125000
-0.187500
0.125000
0.000000
0.000000
-0.125000
0.000000
0.125000
0.000000
0.000000
0.125000
0.000000
0.000000
-0.187500
-0.312500
0.187500
-0.250000
-0.125000
0.000000
0.000000
0.062500
0.062500
0.125000
-0.250000
0.000000
-0.562500
-0.062500
-0.187500
-0.625000
0.062500
0.125000
-0.187500
-0.125000
-0.062500
0.000000
-0.250000
0.000000
0.000000
0.125000
0.000000
0.125000
0.000000
-0.500000
0.000000
-2.000000
0.000000
-0.125000
0.062500
-0.125000
-0.125000
0.000000
-0.062500
0.062500
0.500000
0.062500
0.375000
-0.062500
-0.125000
-0.062500
0.125000
0.000000
-0.937500
0.531250
-0.187500
-0.062500
0.062500
-0.375000
0.000000
-0.250000
-0.187500
0.062500
-0.062500
0.000000
0.000000
0.000000
-0.500000
-0.062500
0.125000
0.000000
-0.250000
-0.062500
-0.250000
-0.250000
0.000000
-0.062500
-0.187500
-0.250000
0.031250
-0.125000
-0.125000
0.000000
0.187500
0.125000
-0.125000
-0.062500
-0.062500
-0.187500
-0.062500
0.000000
-0.187500
0.000000
-0.187500
0.187500
0.000000
-0.125000
-0.125000
-0.312500
-0.250000
0.187500
0.062500
0.062500
-0.187500
0.125000
0.062500
-0.187500
-0.125000
0.000000
-0.312500
0.062500
-0.187500
0.125000
0.000000
-0.250000
-0.062500
0.000000
-0.187500
0.000000
0.000000
-0.062500
-0.062500
-0.125000
0.000000
0.000000
0.062500
0.000000
0.062500
0.125000
0.062500
-0.125000
0.000000
-0.250000
0.000000
0.187500
-0.187500
0.062500
-0.125000
0.000000
0.000000
0.062500
-0.062500
0.125000
0.000000
0.000000
0.250000
0.062500
0.000000
0.125000
-0.062500
-0.125000
-0.062500
-0.187500
-0.187500
0.000000
0.125000
0.000000
-0.125000
-0.062500
0.187500
0.062500
-0.062500
-0.187500
-0.125000
-0.062500
-0.062500
-0.062500
-0.187500
0.000000
0.000000
0.000000
0.250000
0.000000
-0.500000
0.062500
0.125000
0.125000
0.125000
0.000000
0.125000
0.000000
-0.500000
-0.062500
-0.125000
0.000000
0.062500
-0.187500
0.000000
0.125000
0.187500
0.062500
-0.062500
0.000000
-0.250000
0.250000
0.000000
-0.125000
-0.125000
0.000000
0.000000
0.000000
0.000000
0.000000
0.000000
0.000000
-0.250000
0.000000
0.000000
0.000000
-0.500000
0.000000
0.000000
0.000000
-0.125000
-0.500000
-0.375000
0.125000
0.000000
0.000000
0.125000
0.000000
0.000000
-0.250000
0.000000
0.000000
0.000000
-0.500000
0.000000
0.000000
-1.000000
-0.250000
0.000000
0.000000
-0.250000
0.000000
0.125000
-0.125000
0.000000
0.000000
0.000000
0.125000
-0.125000
0.000000
0.000000
0.000000
0.000000
0.000000
0.000000
-0.125000
0.000000
0.125000
0.000000
-0.250000
0.000000
0.000000
-0.187500
0.000000
-0.062500
0.062500
0.000000
-0.062500
-0.187500
0.000000
0.000000
-0.125000
-0.437500
0.000000
0.000000
-0.125000
0.000000
-0.125000
0.125000
0.000000
0.187500
-0.125000
-0.062500
-0.375000
0.062500
-0.187500
-0.062500
-0.187500
0.187500
0.000000
0.250000
0.000000
0.062500
0.062500
-0.187500
0.125000
0.000000
0.187500
0.000000
0.000000
-0.062500
0.000000
-0.125000
0.187500
0.187500
0.000000
0.000000
-0.062500
0.000000
0.000000
-0.187500
0.187500
0.000000
0.062500
-0.187500
0.000000
-0.125000
0.000000
0.125000
0.125000
0.125000
-0.125000
0.000000
0.000000
0.125000
-0.187500
0.125000
0.000000
-0.250000
-0.187500
0.000000
-0.125000
0.000000
-0.062500
-0.062500
0.125000
-0.125000
0.000000
0.000000
-0.125000
0.187500
0.187500
-0.062500
0.000000
0.062500
0.187500
0.062500
-0.125000
-0.125000
-0.125000
-0.125000
-0.125000
0.187500
0.000000
0.125000
0.000000
-0.062500
-0.125000
0.000000
-0.125000
0.125000
-0.187500
-0.125000
-0.500000
-0.062500
-0.125000
-0.187500
0.125000
-0.187500
-0.125000
-0.062500
-0.062500
-0.250000
0.062500
-0.062500
0.062500
-0.125000
-0.187500
0.125000
0.000000
0.062500
-0.062500
0.187500
-0.062500
-0.187500
-0.187500
0.000000
-0.125000
0.125000
-0.187500
0.187500
0.000000
0.062500
0.125000
-0.250000
-0.062500
0.062500
-0.062500
0.125000
-0.125000
-0.125000
0.000000
0.000000
-0.187500
-0.062500
0.187500
-0.125000
-0.250000
-0.125000
0.062500
-0.187500
-0.250000
0.062500
0.000000
-0.062500
0.125000
0.125000
0.000000
-0.187500
0.000000
0.062500
-0.062500
0.000000
0.000000
-0.187500
-0.062500
0.125000
0.125000
-0.187500
0.187500
0.187500
0.000000
-0.062500
-0.250000
0.062500
-0.062500
-0.062500
-0.187500
0.000000
-0.187500
-0.125000
-0.125000
0.187500
0.000000
0.125000
0.000000
-0.125000
0.000000
0.000000
-0.125000
0.000000
-0.125000
-0.250000
0.000000
0.062500
-0.500000
0.000000
0.250000
0.000000
-0.062500
0.062500
0.062500
0.000000
0.250000
0.000000
0.000000
0.000000
0.000000
-0.125000
-0.250000
-0.187500
0.000000
0.250000
-0.062500
-0.062500
0.125000
-0.125000
-0.125000
0.000000
0.000000
0.000000
0.000000
0.000000
0.000000
-0.312500
-0.062500
0.000000
-0.125000
0.000000
-0.187500
0.000000
-0.500000
-0.250000
-0.312500
-0.062500
-0.125000
0.125000
0.125000
-0.062500
-0.187500
0.187500
-0.312500
0.125000
-0.062500
0.125000
-0.062500
-0.187500
0.000000
0.187500
-0.062500
-0.187500
0.062500
-0.312500
-0.312500
0.000000
0.000000
0.187500
-0.250000
-0.062500
0.000000
-0.125000
0.187500
0.000000
-0.187500
0.000000
0.062500
0.062500
0.062500
0.125000
0.000000
0.000000
-0.125000
-0.062500
0.000000
-0.187500
0.000000
-0.125000
0.000000
-0.187500
-0.875000
0.062500
0.187500
0.187500
-0.062500
-0.125000
0.000000
0.000000
0.000000
-0.062500
0.125000
-0.125000
-0.125000
0.000000
-0.375000
0.000000
0.125000
-0.062500
-0.062500
0.062500
0.000000
0.062500
0.187500
0.187500
-0.187500
0.000000
0.062500
-0.062500
-0.062500
-0.125000
0.062500
-0.062500
0.000000
0.187500
0.125000
-0.062500
-0.125000
-0.187500
0.062500
0.000000
0.000000
0.062500
-0.062500
-0.125000
0.000000
-0.187500
0.187500
-0.250000
-0.062500
0.125000
0.125000
-0.062500
-0.062500
0.250000
0.000000
0.000000
0.187500
-0.187500
-0.125000
-0.125000
0.000000
0.000000
0.187500
0.125000
0.062500
0.187500
-0.062500
0.125000
-0.187500
0.187500
0.000000
0.000000
0.000000
-0.125000
-0.125000
-0.062500
0.000000
0.000000
-0.125000
0.125000
-0.625000
0.187500
-0.250000
0.062500
0.000000
-0.187500
0.000000
-0.062500
0.125000
-0.250000
-0.062500
0.125000
0.000000
0.000000
0.125000
0.062500
0.000000
-0.312500
-0.125000
-0.125000
-0.062500
-0.125000
0.062500
0.000000
-0.125000
0.062500
-0.062500
0.000000
0.000000
-0.125000
-0.187500
0.000000
0.187500
-0.062500
0.000000
-0.125000
-0.125000
0.062500
0.000000
0.000000
0.125000
0.187500
0.000000
0.062500
0.000000
-0.187500
-0.187500
0.125000
0.000000
0.062500
0.187500
0.062500
0.062500
0.125000
0.000000
-0.062500
0.000000
0.000000
0.000000
0.000000
0.000000
-0.125000
-0.062500
0.125000
0.000000
-0.062500
-0.062500
0.125000
0.000000
-0.187500
-0.062500
0.062500
0.187500
0.000000
-0.062500
-0.062500
0.250000
0.125000
0.125000
0.187500
0.000000
0.375000
-0.125000
0.187500
0.062500
0.000000
0.000000
0.000000
-0.125000
0.125000
0.125000
0.062500
0.000000
-0.250000
-0.187500
-0.250000
0.125000
-0.125000
0.062500
0.000000
-0.125000
-0.187500
0.000000
0.000000
-0.250000
-0.187500
0.000000
0.000000
-0.125000
-0.062500
-0.187500
0.062500
0.000000
0.125000
-0.187500
-0.062500
0.187500
-0.187500
0.000000
-0.187500
0.000000
-0.125000
0.062500
-0.187500
-0.125000
-0.125000
0.125000
-0.250000
0.062500
0.062500
0.000000
-0.062500
0.000000
-0.125000
0.187500
-0.125000
-0.125000
0.125000
0.062500
0.125000
-0.125000
0.000000
-0.125000
-0.187500
0.000000
-0.437500
0.000000
0.125000
0.062500
-0.062500
0.000000
0.000000
-0.187500
-0.187500
-0.062500
-0.062500
0.000000
-0.187500
-0.062500
0.000000
-0.062500
-0.062500
0.062500
0.000000
-0.187500
0.250000
0.000000
0.000000
0.125000
-0.062500
0.250000
0.000000
0.000000
-0.187500
0.187500
0.062500
0.125000
-0.250000
0.062500
0.062500
-0.187500
0.000000
0.000000
-0.187500
0.000000
-0.187500
0.125000
0.062500
0.000000
0.125000
0.062500
0.000000
-0.125000
-0.062500
-0.312500
0.062500
0.000000
0.125000
0.062500
0.000000
-0.187500
-0.250000
-0.062500
-0.187500
0.000000
0.000000
-0.250000
0.000000
0.000000
-0.250000
0.187500
-0.250000
-0.125000
-0.062500
-0.187500
0.000000
0.250000
0.062500
0.125000
-0.187500
0.000000
0.187500
0.000000
0.000000
-0.250000
0.125000
0.125000
0.125000
0.187500
0.375000
0.000000
0.000000
0.000000
-0.062500
0.187500
0.187500
0.000000
-0.125000
-0.125000
0.062500
-0.062500
0.000000
-0.250000
0.000000
-0.187500
-0.062500
0.000000
-0.062500
0.000000
0.000000
-0.062500
-0.062500
0.187500
0.000000
0.000000
0.000000
0.437500
0.062500
0.000000
-0.187500
0.125000
0.125000
-0.062500
-0.250000
-0.125000
0.000000
0.187500
-0.250000
-0.250000
0.250000
0.125000
0.000000
0.000000
0.000000
0.500000
-0.062500
-0.062500
-0.062500
-0.250000
0.000000
-0.125000
0.000000
0.125000
-0.125000
0.000000
-0.062500
0.250000
0.000000
0.000000
-0.187500
0.250000
-0.125000
0.062500
0.125000
0.000000
0.000000
0.000000
0.000000
-0.187500
0.000000
0.000000
0.000000
-0.250000
0.062500
-0.125000
0.000000
0.000000
0.062500
-0.312500
0.000000
0.000000
-0.062500
0.000000
0.187500
-0.125000
0.000000
0.000000
0.000000
-0.187500
0.000000
0.125000
0.000000
0.062500
-0.125000
0.000000
0.125000
0.187500
0.000000
-0.187500
0.000000
-0.125000
-0.125000
0.125000
0.000000
0.187500
-0.187500
0.000000
0.000000
-0.250000
0.000000
0.000000
-0.187500
0.125000
0.000000
0.000000
0.000000
-0.187500
0.062500
0.000000
-0.250000
-0.125000
0.000000
-0.187500
-0.062500
-0.125000
-0.250000
0.125000
-0.250000
-0.250000
0.000000
0.062500
0.062500
-0.187500
-0.125000
0.000000
0.250000
-0.062500
0.062500
0.062500
-0.187500
0.125000
0.125000
0.125000
-0.062500
0.000000
0.187500
0.000000
0.062500
0.062500
0.000000
0.000000
-0.125000
0.062500
0.125000
0.312500
-0.062500
0.062500
-0.125000
-0.187500
0.000000
-0.125000
-0.187500
-0.125000
0.125000
0.125000
0.187500
-0.062500
-0.125000
-0.062500
-0.062500
0.000000
0.125000
0.031250
-0.125000
0.125000
0.000000
-0.125000
0.000000
0.125000
-0.125000
0.125000
0.125000
0.000000
-0.062500
0.125000
-0.250000
0.000000
0.000000
0.187500
-0.062500
0.125000
0.062500
0.000000
0.000000
0.125000
0.125000
0.125000
0.062500
0.062500
0.062500
0.125000
-0.062500
-0.125000
0.000000
0.187500
-0.125000
0.187500
0.000000
0.000000
0.125000
0.000000
-0.062500
-0.187500
0.062500
0.000000
-0.187500
-0.125000
0.125000
-0.500000
-0.062500
0.000000
-0.062500
0.062500
0.062500
0.062500
0.000000
0.187500
0.187500
-0.125000
0.062500
0.125000
-0.125000
-0.125000
0.187500
0.000000
0.125000
0.062500
-0.187500
0.125000
0.062500
0.000000
0.000000
0.250000
-0.187500
0.062500
0.000000
0.000000
0.125000
0.062500
0.000000
-0.125000
-0.062500
-0.187500
0.062500
0.187500
0.000000
0.000000
0.000000
-0.187500
-0.125000
-0.187500
-0.125000
0.000000
-0.062500
0.437500
-0.250000
0.062500
0.000000
-0.125000
0.000000
0.000000
-0.187500
0.000000
0.062500
0.000000
-0.062500
-0.062500
-0.187500
-0.187500
0.062500
0.187500
0.000000
0.000000
0.062500
0.125000
0.062500
0.000000
-0.125000
-0.187500
0.000000
-0.125000
0.000000
0.000000
-0.125000
-0.187500
-0.250000
0.125000
-0.125000
0.000000
0.000000
-0.125000
0.125000
0.125000
-0.187500
0.187500
0.000000
0.125000
0.187500
-0.187500
-0.125000
0.000000
-0.187500
0.000000
0.000000
-0.125000
0.125000
-0.062500
0.125000
-0.125000
-0.250000
0.000000
0.000000
0.125000
0.062500
0.000000
0.031250
-0.062500
0.000000
0.187500
0.125000
0.125000
0.000000
-0.187500
0.000000
-0.125000
-0.062500
0.000000
0.125000
0.000000
-0.125000
0.000000
-0.125000
-0.125000
-0.250000
-0.062500
0.125000
-0.062500
-0.187500
-0.062500
0.062500
0.062500
-0.187500
0.187500
-0.062500
0.000000
-0.187500
-0.187500
0.000000
0.000000
0.125000
-0.187500
0.187500
0.000000
-0.125000
0.078125
-0.187500
0.000000
-0.125000
0.062500
0.000000
0.125000
0.062500
0.000000
-0.062500
-0.250000
-0.125000
0.187500
0.000000
0.125000
-0.187500
0.000000
-0.062500
0.125000
-0.125000
0.000000
0.000000
-0.125000
0.125000
0.125000
0.031250
-0.250000
-0.062500
-0.250000
-0.062500
0.125000
-0.125000
-0.187500
-0.125000
-0.187500
0.062500
0.000000
0.000000
0.000000
-0.125000
-0.062500
-0.187500
0.000000
-0.125000
-0.062500
0.000000
0.125000
0.000000
0.000000
0.125000
-0.187500
-0.062500
-0.062500
-0.187500
0.250000
-0.250000
-0.062500
-0.062500
-0.187500
-0.125000
0.125000
0.000000
0.000000
0.125000
0.062500
-0.187500
0.062500
0.000000
0.062500
0.000000
0.062500
-0.062500
0.062500
-0.125000
0.000000
0.062500
-0.250000
0.000000
-0.187500
-0.062500
-0.125000
-0.187500
0.062500
-0.125000
0.000000
0.000000
0.000000
0.125000
0.125000
0.125000
0.000000
-0.187500
-0.125000
0.062500
0.125000
-0.062500
0.187500
0.187500
-0.062500
0.000000
0.000000
-0.125000
0.000000
0.062500
0.062500
0.000000
0.000000
-0.125000
0.062500
0.125000
0.000000
-0.125000
0.125000
0.125000
0.000000
-0.187500
-0.187500
-0.125000
-0.187500
0.000000
-0.187500
0.187500
0.000000
0.000000
0.000000
0.000000
0.000000
-0.187500
-0.125000
0.125000
0.062500
0.062500
0.125000
0.000000
0.000000
-0.125000
0.000000
-0.125000
0.000000
-0.250000
-0.062500
0.000000
-0.125000
0.125000
0.125000
0.062500
0.062500
-0.125000
0.000000
0.000000
0.187500
-0.062500
0.125000
-0.125000
0.000000
-0.187500
0.125000
-0.250000
0.062500
0.062500
0.062500
0.062500
0.000000
-0.062500
0.000000
-0.062500
0.000000
0.187500
-0.125000
-0.250000
0.125000
0.062500
0.062500
-0.125000
0.187500
-0.250000
-0.125000
0.187500
-0.250000
0.187500
-0.187500
0.187500
-0.187500
-0.375000
0.125000
0.125000
0.062500
0.000000
0.000000
-0.187500
0.000000
-0.312500
-0.312500
-0.187500
-0.125000
0.187500
-0.062500
0.000000
-0.375000
0.125000
0.000000
-0.187500
0.000000
0.062500
0.125000
0.000000
-0.062500
-0.187500
0.000000
0.062500
-0.125000
0.062500
0.000000
0.000000
-0.187500
-0.187500
0.000000
0.062500
0.000000
0.125000
0.125000
-0.187500
-0.062500
0.062500
0.062500
-0.062500
0.125000
-0.250000
0.000000
-0.062500
0.000000
-0.125000
-0.125000
-0.125000
-0.125000
0.062500
-0.125000
0.125000
-0.031250
-0.125000
-0.187500
0.125000
0.000000
-0.062500
0.000000
-0.125000
-0.125000
0.250000
0.125000
0.062500
-0.125000
-0.125000
0.187500
0.125000
0.000000
0.125000
0.125000
0.125000
0.062500
0.125000
0.125000
0.000000
0.000000
0.125000
0.062500
-0.187500
0.000000
0.000000
-0.125000
0.000000
-0.250000
-0.125000
0.125000
-0.187500
0.250000
0.125000
0.000000
0.000000
-0.062500
0.187500
-0.250000
0.000000
0.000000
0.000000
-0.062500
-0.062500
0.187500
0.125000
-0.125000
0.125000
0.000000
-0.125000
0.000000
0.000000
0.000000
-0.062500
0.125000
0.000000
-0.125000
0.125000
-0.062500
0.125000
-0.625000
0.125000
-0.187500
-0.187500
0.000000
0.062500
0.062500
0.000000
0.125000
0.000000
-0.062500
0.000000
0.000000
0.125000
-0.062500
-0.125000
0.000000
0.000000
0.187500
0.125000
-0.125000
-0.125000
0.125000
0.000000
-0.375000
0.187500
0.062500
0.000000
0.000000
0.125000
-0.062500
0.000000
0.062500
0.000000
-0.125000
0.187500
0.000000
-0.125000
0.000000
0.000000
0.062500
0.000000
-0.062500
-0.250000
-0.250000
-0.125000
0.125000
-0.187500
-0.062500
0.187500
0.125000
-0.062500
0.125000
-0.187500
0.000000
0.000000
0.000000
0.062500
0.125000
0.125000
0.250000
0.062500
-0.187500
-0.125000
-0.187500
0.125000
0.187500
0.250000
-0.250000
0.187500
0.125000
0.062500
-0.125000
-0.375000
-0.125000
0.187500
0.125000
-0.125000
0.062500
0.062500
0.000000
-0.187500
-0.031250
0.000000
-0.062500
-0.062500
0.125000
0.000000
-0.125000
0.000000
0.000000
-0.187500
0.000000
-0.062500
-0.250000
-0.500000
0.000000
-0.187500
-0.062500
-0.062500
0.000000
0.125000
0.000000
0.000000
-0.062500
-0.125000
0.000000
-0.437500
0.000000
-0.062500
0.062500
-0.062500
-0.312500
-0.062500
-0.187500
-0.312500
-0.062500
0.125000
0.000000
0.062500
0.000000
0.062500
-0.062500
0.000000
-0.250000
0.000000
-0.093750
-0.250000
0.062500
-0.312500
0.000000
-0.125000
0.000000
0.000000
0.000000
0.125000
-0.062500
-0.250000
0.000000
-0.187500
-0.125000
0.000000
-0.125000
0.125000
0.000000
-0.125000
0.437500
0.062500
-0.125000
0.062500
-0.062500
0.000000
0.312500
0.062500
0.062500
0.000000
0.000000
0.125000
-0.062500
0.000000
-0.062500
-0.187500
0.000000
0.000000
0.000000
0.000000
0.000000
0.000000
0.250000
0.000000
0.000000
0.000000
0.250000
0.000000
0.187500
-0.125000
0.000000
0.062500
0.125000
-0.062500
-0.125000
-0.062500
0.000000
0.062500
0.000000
0.125000
0.062500
0.000000
0.125000
-0.125000
0.000000
0.000000
0.000000
-0.125000
0.187500
0.250000
0.000000
0.000000
-0.187500
-0.062500
-0.062500
0.000000
-0.125000
-0.187500
-0.250000
0.000000
-0.125000
0.062500
0.000000
0.000000
0.000000
-0.125000
-0.125000
-0.125000
0.062500
0.000000
0.000000
0.250000
-0.125000
-0.062500
0.000000
0.187500
0.000000
0.000000
0.062500
0.000000
-0.062500
-0.125000
0.062500
0.125000
0.000000
0.000000
0.125000
0.000000
0.125000
0.000000
0.125000
-0.187500
-0.125000
-0.062500
-0.062500
-0.125000
-0.187500
0.187500
0.062500
-0.125000
0.000000
0.062500
0.000000
0.187500
0.187500
-0.187500
0.000000
-0.125000
0.062500
0.000000
-0.062500
0.000000
0.000000
0.125000
0.000000
0.000000
-0.125000
0.187500
0.187500
-0.250000
0.062500
-0.125000
-0.187500
0.125000
-0.125000
0.062500
0.000000
-0.062500
-0.125000
0.187500
0.125000
0.125000
0.000000
0.000000
0.000000
-0.062500
0.187500
-0.187500
0.000000
-0.250000
0.000000
0.000000
-0.125000
-0.187500
-0.125000
-0.187500
-0.312500
-0.062500
0.000000
0.000000
0.125000
0.125000
-0.125000
0.062500
0.000000
0.062500
-0.125000
0.125000
-0.187500
-0.125000
0.187500
0.125000
0.000000
0.250000
0.000000
0.125000
0.000000
0.125000
0.125000
-0.062500
-0.062500
-0.125000
0.156250
-0.125000
0.000000
0.000000
0.062500
0.125000
0.000000
0.000000
0.000000
-0.125000
-0.062500
0.250000
0.062500
0.062500
0.000000
0.000000
-0.125000
0.000000
0.000000
0.000000
0.437500
0.062500
0.125000
-0.062500
-0.250000
0.000000
0.125000
-0.312500
0.000000
-0.062500
0.000000
0.000000
-0.250000
0.000000
-0.187500
-0.062500
-0.187500
-1.000000
-0.187500
0.000000
0.000000
0.000000
-0.187500
-0.062500
0.000000
-1.375000
0.000000
-1.187500
-0.125000
0.000000
-0.250000
-0.125000
-0.250000
0.062500
-0.375000
-0.062500
0.000000
-0.312500
0.000000
-0.250000
0.000000
0.000000
-0.125000
0.000000
0.281250
-0.125000
-1.000000
-0.062500
-0.500000
-0.062500
0.000000
-0.062500
0.312500
0.000000
-0.187500
0.000000
-0.062500
0.312500
-0.125000
-0.250000
-0.312500
0.125000
0.000000
-0.937500
0.000000
-0.250000
0.000000
0.125000
0.781250
0.000000
-0.375000
0.046875
-0.312500
0.281250
0.000000
0.062500
0.000000
0.000000
0.000000
-0.062500
-0.125000
-0.187500
0.000000
0.000000
0.000000
0.000000
0.062500
0.000000
0.000000
-0.125000
0.000000
0.250000
0.000000
0.000000
0.000000
-0.125000
0.125000
0.000000
-0.500000
0.000000
0.000000
0.000000
0.000000
-0.187500
0.187500
0.000000
0.000000
0.000000
0.000000
0.000000
0.000000
0.062500
-0.187500
0.000000
0.000000
0.187500
0.000000
0.000000
-0.250000
0.000000
0.000000
0.000000
0.062500
0.000000
0.125000
-0.125000
0.000000
0.000000
0.000000
0.000000
-0.125000
0.125000
0.000000
0.000000
0.000000
0.000000
0.125000
0.187500
0.000000
0.000000
0.125000
0.000000
0.062500
-0.062500
0.062500
-0.187500
-0.375000
-0.250000
0.000000
0.000000
-0.125000
0.125000
0.125000
0.000000
0.000000
-0.062500
-0.125000
-0.187500
-0.250000
0.000000
0.000000
0.250000
0.312500
-0.062500
0.000000
-0.062500
0.000000
0.187500
0.125000
-0.125000
0.125000
0.000000
0.187500
-0.250000
0.000000
-0.187500
-0.187500
0.000000
0.125000
0.062500
0.062500
-0.125000
0.312500
0.000000
0.187500
-0.187500
-0.187500
0.000000
0.187500
0.062500
0.000000
-0.125000
0.000000
0.062500
0.000000
0.125000
-0.187500
0.000000
-0.250000
0.000000
-0.125000
0.000000
0.000000
0.125000
0.000000
0.000000
0.125000
-0.187500
-0.125000
-0.187500
0.000000
0.062500
0.000000
0.000000
-0.187500
0.187500
-0.187500
-0.062500
0.000000
0.125000
-0.062500
0.187500
-0.437500
-0.062500
-0.250000
-0.125000
0.125000
-0.062500
0.000000
0.062500
0.000000
-0.125000
0.125000
0.125000
-0.062500
0.000000
0.125000
0.125000
-0.375000
0.000000
-0.125000
0.125000
-0.062500
0.250000
-0.187500
0.125000
-0.062500
0.000000
0.000000
0.062500
-0.125000
-0.125000
0.125000
-0.187500
0.000000
-0.187500
-0.125000
-0.125000
-0.062500
0.187500
0.000000
0.000000
-0.500000
0.125000
0.062500
0.000000
0.000000
0.000000
-0.125000
0.000000
0.062500
-0.187500
0.000000
0.062500
-0.062500
0.000000
0.000000
0.000000
-0.187500
0.125000
0.000000
-0.187500
0.000000
0.000000
0.000000
0.000000
0.000000
-0.187500
0.187500
0.062500
0.000000
-0.125000
0.000000
-0.125000
0.000000
-0.125000
-0.187500
0.000000
0.000000
0.000000
0.125000
0.000000
0.000000
0.125000
-0.062500
-0.062500
0.000000
0.187500
-0.125000
0.000000
0.125000
0.000000
-0.187500
0.000000
0.187500
0.000000
-0.062500
0.125000
0.000000
0.125000
0.000000
0.000000
-0.125000
0.187500
-0.125000
0.000000
0.000000
0.000000
-0.125000
0.000000
0.000000
0.062500
0.062500
0.000000
0.000000
-0.250000
0.125000
0.062500
0.187500
-0.250000
0.000000
0.000000
-0.062500
0.125000
0.000000
0.000000
0.000000
0.000000
0.000000
-0.062500
0.125000
-0.187500
-0.125000
-0.062500
-0.187500
-0.125000
0.000000
-0.187500
0.000000
0.000000
-0.062500
0.125000
0.125000
-0.125000
0.187500
0.000000
-0.062500
0.125000
0.000000
-0.187500
0.000000
0.000000
-0.062500
-0.125000
0.000000
0.000000
0.125000
-0.125000
0.000000
0.125000
0.000000
-0.062500
0.000000
-0.250000
0.250000
-0.187500
0.000000
-0.187500
0.062500
0.000000
-0.125000
-0.062500
0.125000
0.000000
0.000000
0.062500
0.062500
-0.250000
-0.250000
0.000000
-0.125000
0.062500
-0.062500
-0.125000
0.000000
0.000000
-0.125000
-0.125000
0.000000
0.062500
0.125000
-0.125000
0.187500
0.125000
-0.062500
0.000000
-0.187500
-0.125000
-0.062500
0.187500
0.000000
0.000000
0.000000
0.062500
-0.062500
-0.187500
-0.125000
0.125000
0.000000
-0.125000
0.062500
0.125000
0.187500
-0.125000
-0.250000
-0.062500
-0.125000
0.062500
-0.187500
-0.250000
-0.187500
-0.187500
0.125000
-0.125000
0.062500
0.125000
0.000000
-0.046875
0.218750
0.125000
-0.187500
-0.062500
0.125000
0.000000
0.125000
0.000000
-0.062500
0.062500
0.000000
-0.312500
0.000000
0.000000
-0.187500
-0.125000
0.000000
-0.250000
-0.750000
0.000000
0.000000
0.000000
-0.062500
-0.187500
0.000000
-0.250000
0.000000
-0.125000
0.062500
-0.125000
0.000000
-0.125000
-0.500000
-0.062500
-0.250000
0.125000
0.000000
0.125000
0.000000
-0.250000
-0.125000
0.000000
0.312500
0.000000
0.062500
-0.250000
0.000000
-0.125000
-0.125000
0.187500
-0.250000
0.000000
-0.125000
0.062500
0.000000
-0.500000
-0.062500
0.062500
-0.062500
-0.125000
0.062500
0.062500
0.000000
0.062500
0.000000
0.125000
0.062500
-0.250000
-0.062500
0.000000
-0.312500
-0.062500
-0.187500
0.187500
0.000000
-0.500000
-0.125000
0.000000
-0.031250
-0.046875
-0.062500
-0.750000
-0.750000
0.000000
0.000000
0.000000
-0.250000
0.062500
0.000000
-0.500000
0.000000
-0.312500
-0.250000
0.000000
0.000000
-0.187500
-0.125000
0.156250
-0.437500
-0.250000
0.000000
-0.140625
0.000000
-0.125000
-0.203125
0.000000
0.000000
0.000000
-0.093750
0.000000
-0.500000
-0.125000
-0.156250
-0.031250
0.000000
-0.125000
-0.437500
0.156250
0.000000
0.000000
-0.125000
-0.875000
-0.062500
-0.125000
0.000000
0.109375
0.000000
-0.187500
-0.125000
-0.250000
-0.125000
-0.250000
-0.750000
0.000000
-0.562500
-0.500000
-0.312500
-0.062500
0.000000
0.000000
-0.125000
0.000000
0.187500
0.125000
0.125000
-0.125000
0.062500
0.125000
0.000000
0.000000
0.187500
-0.125000
-0.250000
-0.125000
-0.125000
-0.125000
0.000000
0.000000
0.125000
0.062500
-0.062500
0.062500
-0.250000
0.000000
0.000000
-0.125000
0.000000
0.062500
-0.125000
0.000000
0.125000
0.000000
-0.062500
-0.250000
-0.125000
0.000000
-0.187500
-0.187500
0.000000
-0.250000
0.062500
-0.062500
0.125000
0.000000
-0.125000
0.125000
-0.125000
-0.125000
0.062500
0.062500
0.000000
0.000000
-0.375000
-0.062500
0.062500
0.000000
0.000000
0.000000
-0.125000
0.125000
-0.187500
0.125000
0.000000
-0.187500
-0.062500
0.000000
0.000000
0.062500
-0.125000
0.062500
-0.250000
0.125000
0.000000
0.000000
0.125000
0.125000
-0.187500
0.062500
-0.250000
-0.062500
-0.125000
0.187500
-0.687500
0.000000
0.125000
-0.062500
0.250000
0.187500
0.000000
0.125000
0.000000
-0.062500
0.062500
0.000000
-0.250000
0.000000
0.062500
-0.250000
0.000000
-0.062500
-0.187500
-0.125000
-0.062500
0.062500
0.000000
0.062500
0.187500
0.250000
-0.062500
-0.125000
0.187500
-0.125000
0.000000
-0.125000
0.000000
0.125000
-0.125000
-0.125000
0.062500
-0.187500
-0.187500
0.000000
-0.125000
-0.375000
-0.187500
0.125000
0.000000
0.000000
-0.250000
0.000000
-0.250000
0.062500
-0.125000
0.000000
0.000000
0.000000
0.000000
0.000000
0.375000
0.000000
0.000000
0.000000
0.000000
0.250000
0.062500
-0.125000
0.000000
0.062500
-0.062500
0.000000
1.000000
0.000000
0.000000
0.000000
0.000000
0.250000
0.000000
0.000000
0.250000
0.000000
0.000000
0.000000
0.000000
0.062500
0.250000
-0.125000
0.125000
0.125000
0.062500
0.000000
0.000000
0.000000
-0.187500
-1.000000
0.125000
0.000000
0.000000
0.000000
0.000000
0.000000
0.250000
-0.250000
0.000000
-0.187500
0.000000
0.000000
0.000000
-0.062500
-0.125000
-0.125000
0.000000
-0.062500
0.187500
0.000000
-0.125000
-0.187500
-0.125000
0.125000
0.187500
0.000000
0.000000
0.000000
-0.062500
0.062500
0.187500
-0.062500
-0.250000
-0.062500
0.062500
0.125000
-0.062500
0.125000
-0.187500
0.062500
-0.250000
0.187500
0.000000
-0.125000
0.000000
0.187500
0.000000
-0.187500
0.125000
-0.125000
0.125000
0.125000
-0.125000
0.062500
-0.062500
0.062500
0.000000
-0.250000
-0.062500
-0.125000
0.000000
0.000000
0.125000
0.000000
0.125000
-0.125000
0.125000
0.062500
0.000000
0.062500
0.000000
0.062500
0.000000
0.062500
-0.062500
0.000000
0.125000
-0.187500
-0.062500
-0.062500
0.000000
0.000000
0.000000
0.000000
-0.125000
-0.187500
0.125000
-0.062500
0.187500
0.062500
0.000000
0.000000
0.000000
0.062500
0.062500
-0.187500
-0.250000
0.312500
0.187500
0.000000
0.187500
-0.187500
-0.062500
0.000000
0.000000
0.187500
0.000000
0.062500
0.000000
0.000000
0.125000
0.000000
0.000000
-0.062500
0.000000
-0.250000
0.187500
0.000000
-0.125000
0.062500
0.000000
-0.062500
0.125000
-0.250000
-0.187500
0.000000
-0.187500
0.187500
0.187500
0.125000
-0.187500
0.125000
0.000000
0.000000
-0.250000
0.125000
0.062500
-0.187500
-0.187500
0.000000
-0.125000
-0.125000
-0.062500
0.062500
0.000000
0.000000
-0.250000
0.000000
-0.125000
-0.062500
0.000000
-0.125000
-0.187500
-0.062500
0.000000
0.000000
-0.125000
0.125000
-0.125000
-0.125000
0.125000
0.000000
0.187500
0.000000
0.000000
0.187500
0.187500
-0.125000
0.125000
-0.062500
0.000000
0.000000
0.000000
-0.125000
0.125000
0.000000
-0.125000
-0.062500
0.000000
0.000000
-0.187500
0.000000
0.125000
0.187500
0.000000
-0.062500
0.000000
0.187500
-0.125000
0.000000
-0.187500
-0.187500
0.000000
0.000000
-0.187500
-0.125000
0.000000
-0.187500
0.125000
0.062500
-0.187500
0.000000
0.000000
0.000000
0.000000
0.000000
0.062500
-0.187500
0.000000
-0.187500
0.062500
0.000000
-0.125000
0.062500
-0.125000
0.062500
0.187500
0.000000
0.000000
0.000000
0.125000
0.187500
-0.125000
-0.125000
0.000000
-0.062500
-0.062500
0.187500
-0.187500
0.062500
0.000000
-0.187500
0.062500
0.125000
0.000000
-0.187500
0.000000
0.062500
0.000000
0.187500
-0.125000
0.125000
0.125000
0.125000
0.000000
-0.187500
0.062500
-0.062500
0.000000
0.000000
0.062500
0.125000
0.125000
0.000000
0.125000
0.000000
0.000000
0.125000
-0.187500
-0.187500
0.000000
-0.312500
0.125000
0.125000
-0.187500
-0.062500
0.062500
0.000000
-0.250000
-0.125000
-0.187500
-0.187500
0.000000
-0.187500
-0.187500
0.000000
-0.125000
-0.125000
0.062500
-0.125000
0.000000
0.062500
0.000000
0.000000
0.000000
0.000000
0.000000
-0.125000
-0.250000
-0.125000
0.125000
0.187500
-0.062500
-0.125000
0.062500
0.062500
0.125000
-0.125000
0.000000
-0.187500
0.000000
-0.062500
0.187500
-0.125000
0.125000
-0.062500
-0.250000
-0.250000
0.000000
-0.125000
-0.187500
-0.125000
-0.250000
0.000000
0.062500
0.062500
0.000000
0.062500
0.000000
0.000000
0.187500
-0.125000
0.125000
0.062500
0.000000
0.062500
0.125000
0.062500
0.187500
0.125000
0.125000
0.000000
0.000000
-0.187500
-0.125000
-0.187500
0.000000
-0.187500
0.250000
0.000000
0.062500
-0.062500
-0.187500
0.062500
-0.062500
-0.062500
0.000000
0.000000
0.125000
-0.062500
0.187500
-0.250000
-0.250000
0.062500
-0.125000
-0.125000
-0.062500
0.187500
-0.125000
-0.125000
-0.125000
0.000000
0.000000
0.125000
0.000000
0.062500
-0.125000
0.062500
0.125000
0.062500
0.125000
0.000000
-0.062500
-0.187500
0.187500
0.125000
0.000000
0.062500
0.250000
0.125000
0.312500
0.125000
0.062500
-0.125000
-0.125000
-0.125000
0.125000
-0.125000
0.000000
-0.062500
-0.187500
0.000000
-0.062500
-0.187500
0.125000
0.000000
0.000000
-0.250000
-0.187500
0.125000
0.000000
0.000000
-0.062500
0.000000
-0.125000
0.000000
-0.062500
0.000000
0.125000
0.000000
0.000000
0.000000
0.125000
0.187500
-0.125000
-0.125000
0.062500
0.062500
-0.062500
0.125000
-0.062500
0.187500
-0.187500
-0.125000
-0.125000
0.125000
0.000000
0.125000
0.000000
-0.125000
0.125000
0.125000
-0.125000
0.000000
0.062500
-0.125000
0.000000
0.187500
-0.187500
-0.125000
0.000000
0.000000
0.062500
0.187500
0.062500
0.000000
-0.187500
-0.125000
-0.187500
-0.125000
-0.125000
0.000000
0.000000
-0.187500
0.125000
0.187500
-0.250000
0.062500
0.125000
0.000000
0.125000
0.000000
-0.187500
0.125000
0.000000
0.125000
-0.062500
0.000000
0.000000
-0.187500
0.187500
0.125000
-0.125000
0.000000
0.000000
0.000000
0.125000
-0.125000
0.062500
0.000000
0.250000
-0.125000
-0.062500
-0.062500
0.062500
0.062500
0.125000
0.062500
0.000000
-0.125000
0.000000
0.125000
0.000000
0.062500
0.062500
-0.250000
0.000000
0.000000
-0.312500
-0.125000
-0.062500
0.125000
0.125000
0.125000
0.000000
0.000000
0.125000
0.062500
0.000000
0.000000
-0.125000
0.000000
0.000000
0.125000
0.125000
0.062500
0.000000
-0.250000
0.000000
0.187500
0.062500
0.125000
-0.062500
0.000000
-0.125000
0.125000
0.062500
-0.187500
0.000000
0.1250000
0.0000000
0.0000000
0.0625000
0.1250000
0.0625000
0.0625000
-0.0625000
0.0000000
0.0000000
-0.2500000
-0.1250000
-0.1250000
0.0625000
0.0937500
0.1250000
0.1875000
-0.0625000
0.0000000
-0.0625000
0.1875000
0.2500000
-0.0625000
-0.1250000
0.0000000
0.0000000
0.0625000
0.0000000
-0.1875000
0.0625000
0.0625000
-0.0625000
-0.1250000
0.1093750
0.0000000
0.0390625
0.1875000
0.1250000
-0.0625000
0.1250000
-0.0625000
0.0625000
-0.0468750
0.0625000
0.0625000
0.1250000
0.1250000
0.1250000
-0.2500000
-0.1875000
0.0625000
0.0000000
0.1875000
-0.0468750
-0.1875000
-0.1875000
0.1875000
-0.0625000
0.0000000
-0.0625000
-0.1250000
0.0000000
-0.1250000
0.2500000
