-0.6801959276199
-0.0238474905491
-6.0922e-09
-0.308817833662
0.0602739863098
7.3347e-09
-0.0018988868687
-0.0109542990103
0.0003420858702
-0.0062765064649
-0.0206541214138
-0.0124451480806
2.15384e-08
-0.1098731309175
0.0379534959793
0.0127153592184
-0.0082372445613
0.01676511392
-0.0186605770141
-1.89161e-08
0.6714082360268
-0.0560719668865
-2.05598e-08
0.3316271901131
0.051740590483
3.0534e-09
-0.6529381871223
0.0095345946029
0.0448952876031
0.004156046547
-0.0044110189192
-0.0133637944236
-5.6068e-09
-0.0152083840221
-0.0069804494269
-0.0139312501997
0.0037856793497
0.0070543084294
0.0270171836019
-2.35427e-08
0.0063987425528
-0.311773121357
1.73983e-08
-0.0173978097737
-0.0106700677425
1.08922e-08
0.0232262574136
0.0076969061047
0.0826165303588
-0.0126399351284
0.0887566432357
0.0009379158146
9.3033e-09
0.1151301115751
0.0208238083869
0.0595329478383
-0.0112731400877
0.0462511219084
-1.0061888694763
1.23743e-08
1.4257405e-06
-0.0021201940253
-4.659e-09
-2.28806e-08
-0.0969779640436
3.47048e-08
0.0005206745118
-1.0834844e-06
4.569297e-07
-7.084501e-07
0.0195038933307
-0.0587797872722
7.6739e-09
-7.13151e-07
-0.0080910772085
0.0525560230017
3.774888e-07
-0.0399317853153
-1.0324925e-06
-3.08543e-08
-0.007961075753
-6.27847e-08
3.71203e-08
7.144618e-07
-7.707535e-07
-2.35e-10
-1.489196e-07
-8.49327e-08
1.415133e-07
-1.28677e-08
0.0914749875665
4.716373e-07
7.2165e-09
-1.466608e-07
-1.1859968e-06
-1.834731e-07
9.604311e-07
-3.429809e-07
3.892607e-07
-4.8309e-09
3.605533e-07
-2.46633e-08
-3.44238e-08
-2.35697e-08
-5.543708e-07
-9.6675e-09
2.223358e-07
2.754788e-07
-2.77984e-07
-1.24465e-08
5.709319e-07
-6.85953e-08
-1.806e-09
4.2926e-08
-8.25231e-08
-6.065308e-07
-3.58354e-08
5.23824e-07
5.33088e-07
-1.1462e-08
0.0047190403566
-0.1147138401866
-8.1564e-09
4.948801e-07
-0.0889771133661
1.36579e-08
0.2919969558716
0.018802030012
-0.0681858658791
-9.323011e-07
0.1116883307695
-0.0587123408914
6.2034e-09
0.2670867741108
0.1968087553978
0.2963668704033
-0.0002386899869
-1.341201543808
0.1690478473902
-1.98419e-08
0.0179318469018
0.3382693827152
-1.54351e-08
0.0838825553656
-0.2871375381947
-1.4266e-09
0.2345433682203
0.0386488027871
-0.2067919224501
-0.2488814890385
-0.0574655421078
-0.0390133410692
-1.41005e-08
0.1741239875555
-1.1773798465729
0.2519912421703
-0.3020191192627
0.1597751677036
0.111210718751
-1.28709e-08
-0.0076963999309
0.1007654070854
-1.80565e-08
-0.0001671549398
-0.004371361807
-6.3166e-09
-0.0012579085305
-0.1461135149002
0.0302887037396
-0.0073256380856
0.0715571939945
-0.1488992124796
-7.2194e-09
0.0131374029443
0.0056385463104
-0.0019060256891
0.0178702455014
0.037534032017
0.2049355506897
1.84614e-08
-0.0082243708894
-0.0072953524068
-1.29861e-08
0.0183255858719
3.161632e-07
-1.66503e-08
0.0143096772954
-0.0704433098435
-0.0178436227143
-0.0093767764047
0.0291453693062
-0.1093090847135
-1.273e-09
-0.0139602292329
9.508025e-07
0.0044457749464
4.662882e-07
0.054693620652
0.0282636452466
3.65238e-08
-0.0114794522524
-6.746914e-07
-1.09147e-08
8.004292e-07
-4.15137e-08
5.3487e-09
0.0207170397043
-0.0517437048256
-0.0071396543644
-1.511239e-07
0.1047137454152
-0.1107115745544
-1.74586e-08
-1.80096122e-05
-3.269483e-07
-3.04473e-07
7.088378e-07
2.681555e-07
4.024664e-07
-1.08829e-08
4.202318e-07
2.573889e-07
3.07432e-08
2.18367e-08
-2.751057e-07
5.9927e-09
4.53079e-08
5.38103e-08
-1.0660261e-06
1.67603e-07
0.012827639468
-1.4832433e-06
4.8837e-09
-3.27301e-08
-2.81186e-08
-2.583525e-07
9.30836e-08
3.51685e-07
6.168347e-07
7.9691e-09
0.0046809515916
0.0059003373608
1.1463e-08
0.0001075360196
-0.0128836994991
4.8347e-09
0.0228004399687
-0.0717560127378
0.0223565623164
-0.1878592222929
0.0169953927398
0.0527506433427
2.04946e-08
0.002490028739
0.0080123934895
0.0153422011063
0.2298749387264
0.0047419127077
0.0063232458197
-6.6937e-09
0.001621364383
0.0112346149981
-6.817e-10
0.0051753800362
-0.0225371923298
5.827e-09
0.0193312466145
-0.012795063667
0.0370919704437
0.188586294651
0.0088223135099
0.0408325269818
4.17352e-08
0.0125635238364
0.0085655059665
0.0167255755514
-0.1935454905033
0.0079620778561
0.0034168793354
2.3461e-09
0.0016506779939
-0.0411094352603
-8.0003e-09
-0.0001632413478
0.0073491949588
3.70309e-08
0.0049849837087
0.0792999267578
0.035982221365
-0.0045965495519
1.3859451e-06
0.0221511609852
3.8454e-09
0.008571356535
-1.983572e-07
0.0056464769877
-0.0113583793864
0.0063972291537
0.0585950985551
4.2432e-09
0.0004746408085
-1.255414e-07
-6.6707e-09
0.0283197015524
0.0063902717084
-8.7175e-09
0.0082127545029
0.0205769315362
0.0407653301954
0.0050112400204
0.0094746965915
0.0218641292304
1.21091e-08
-0.0221710130572
-0.0090419985354
-0.0025098861661
-0.0088644661009
-0.0074840118177
0.0122144399211
1.01556e-08
0.0027812363114
-6.172349e-07
1.9864e-09
-4.636275e-07
-4.171929e-07
-3.22294e-08
0.0014809758868
7.5930975e-06
0.0364802293479
0.003588845022
0.0025329382624
0.0180607885122
-1.48524e-08
-0.0089816106483
-0.0208049435169
0.0024759857915
6.881394e-07
0.000115288909
-6.786578e-07
3.5953e-09
0.0024851327762
-7.78779e-08
-6.6598e-09
-5.94021e-08
-4.956087e-07
-1.20966e-08
4.592823e-07
0.0004717353149
0.0325575955212
0.0136282490566
0.0239068120718
-0.0464114397764
1.47685e-08
-0.0046993661672
-5.570845e-07
-0.0113668423146
-0.0049866437912
-0.018576413393
4.175369e-07
1.79843e-08
-2.895012e-07
5.78164e-07
-3.994e-10
7.45571e-08
2.96158e-08
3.4011e-09
0.2776983380318
1.278658e-07
-4.606066e-07
1.940984e-07
-1.77758e-08
2.769721e-07
-5.0516e-09
-5.308901e-07
5.08541e-08
-0.5860903263092
-1.129853e-07
6.62535e-08
-6.096215e-07
2.24539e-08
2.07165e-08
-6.340697e-07
0.1818271577358
-0.062821418047
1.049806e-07
-0.0174436736852
-7.267692e-07
-2.74648e-08
-6.9274e-09
5.840685e-07
-4.19219e-08
1.865712e-07
-1.064267e-07
0.878447830677
-7.977857e-07
1.61004e-07
2.0122e-08
-2.02707e-08
-0.0008076200611
-2.74573e-08
-2.1818e-09
0.0285988003016
-0.0376672036946
0.1240562200546
-0.0476334281266
-0.125311627984
0.0258067790419
-1.74234e-08
-0.0138866603374
0.0145430099219
1.60758e-08
0.1496956348419
-0.2223593741655
-0.0197703614831
-0.0665639787912
0.0901212990284
-1.8625e-08
-1.29328e-08
-0.0291730836034
8.0425e-09
1.79737e-08
1.72181e-08
1.64387e-08
-1.86932e-08
8.558e-09
-1.82945e-08
1.3745e-09
6.6187e-09
-1.50266e-08
2.45444e-08
4.03528e-08
1.09451e-08
3.4639e-09
2.968e-09
-1.53629e-08
-6.365e-09
2.38189e-08
7.4813e-09
-1.2724e-08
1.85868e-08
-5.1771e-09
0.0158035513014
-0.0194535627961
0.0098656238988
-0.0150715718046
-0.1528408229351
0.013091580011
-1.7175e-09
-0.0095773991197
-0.0362617149949
-4.24417e-08
0.0126995174214
-2.682486e-07
-6.602224e-07
0.0028935205191
-0.3350788652897
-2.03992e-08
-5.541e-10
-0.0114342188463
-1.49413e-08
1.32984e-08
0.0565507225692
-0.0463472940028
-0.0017765864031
-0.0559231229126
-0.1075580269098
0.0046128360555
3.925e-10
-0.0565092638135
-0.0335819795728
-5.611e-10
0.0219686944038
-0.0038224540185
-8.30260906e-05
0.0144020654261
0.096159607172
1.38952e-08
-9.5463e-09
-0.0895940586925
3.18483e-08
-8.2244e-09
1.36837e-08
-2.27084e-08
1.53541e-08
-1.20771e-08
2.03589e-08
4.97e-09
-8.1647e-09
1.6777e-08
7.96e-10
-8.1898e-09
1.33688e-08
-1.18709e-08
1.01724e-08
1.56066e-08
3.36595e-08
9.2358e-09
-2.4961e-08
-4.39693e-08
-1.0069e-09
2.54635e-08
0.0008309751865
0.3726982474327
-0.0334855392575
-0.0026346719824
-0.043011508882
-0.0024942073505
-1.35128e-08
-0.2665661871433
-0.0050438046455
4.2781e-09
-0.0169359892607
-0.0038082292303
0.0036981059238
-0.0687643811107
-5.28035052e-05
1.46012e-08
-2.692e-10
-0.0210884734988
-2.28547e-08
-3.5193e-09
0.0182393454015
0.0003122299386
0.008877851069
1.2612213e-06
-0.0122947366908
-0.0012199664488
-1.40585e-08
-1.3395345e-06
-0.2097863554955
2.34929e-08
3.292908e-07
1.7617086e-06
-0.0001479911152
4.990267e-07
0.0337024144828
4.001e-10
1.3306e-08
0.0833862945437
-8.7897e-09
-8.2835e-09
-0.0417868122458
0.0132374865934
0.047168135643
0.0544216148555
0.0118050407618
0.0243772920221
3.3883e-09
0.0758175030351
-0.1579923629761
-5.4113e-09
0.0075023346581
-0.0446327514946
1.2449789e-06
0.008943698369
-0.0012269045692
-3.882e-09
-3.164e-10
-0.0625013932586
-1.90703e-08
-1.6961e-09
-0.1032853573561
0.0065103410743
0.0126525182277
-0.0689980685711
8.087695e-07
0.0671891048551
1.1048e-08
-0.0418017059565
-0.0956595316529
-1.19366e-08
-0.0170973073691
0.0448271855712
-0.1125095710158
-0.1233014389873
-0.0126589732245
-6.9192e-09
6.0754e-09
0.0161062031984
-1.313e-10
-1.30961e-08
-0.0073818871751
-0.0465980358422
0.0140516925603
-0.150836288929
-2.107467e-07
-0.0782776474953
2.62035e-08
0.0036056665704
0.1205320209265
-8.3356e-09
-0.3404308855534
0.0005061845295
-0.0077937184833
0.0264250896871
0.0082244062796
-1.89556e-08
-1.44347e-08
0.0574913620949
-1.92737e-08
7.1183e-09
-0.0040045436472
-0.0223199017346
-0.0328694917262
-0.1590023189783
-0.1448203772306
-0.0411144644022
1.29354e-08
0.0907751396298
-0.233923509717
3.7351e-09
0.000940872007
-0.0522941611707
-0.0353284403682
0.0396237745881
-4.264242e-07
1.33844e-08
-5.8558e-09
0.0074387756176
-1.18648e-08
-3.66186e-08
5.642e-09
3.8601e-09
1.1667e-08
-2.79211e-08
-1.73906e-08
1.33416e-08
1.18492e-08
-1.2431e-08
1.09978e-08
-1.28212e-08
1.22007e-08
6.702e-09
8.3963e-09
1.13668e-08
-1.33116e-08
-8.367e-10
-1.52724e-08
-1.0052e-08
-8.504e-09
1.09532e-08
-0.1552770882845
-0.0310995113105
-0.0510147102177
-0.0152576733381
-0.271293669939
0.0408348105848
5.5997e-09
0.07100738585
-0.0502852424979
-2.6113e-09
-0.0711107254028
0.0679059326649
-2.73393525e-05
-0.006087617483
0.0160300694406
-1.2063e-09
3.25251e-08
-0.0941452458501
-1.3059e-08
7.6042e-09
0.0737159103155
0.0383917540312
-0.1350953578949
-6.431627e-07
-0.0111051658168
-0.1346592754126
8.76e-11
0.1953779906034
0.0930922105908
-5.5028e-09
-0.0475963205099
8.352982e-07
-8.684863e-07
0.1117260381579
-0.1353807002306
-2.28028e-08
-1.99665e-08
0.0596914105117
-6.4683e-09
-3.5827e-09
0.1725701093674
-0.2886994481087
0.0354264937341
0.0195434298366
0.3015005290508
0.0750918835402
-3.19494e-08
0.0790104195476
0.1265313476324
-1.4184e-08
-0.1174076423049
0.0395089872181
-0.0592629760504
-0.0649086683989
0.0181610248983
1.8166e-09
-2.8007e-09
-0.1132634133101
1.80937e-08
1.26919e-08
-0.097247235477
-4.864326e-07
0.0060440148227
-0.0305284801871
0.0032915903721
0.0610182993114
9.1532e-09
-0.0368406362832
-0.0730622187257
1.53871e-08
-0.022747490555
0.060336548835
-0.0490243770182
-0.1151868253946
-0.013222059235
-3.1905e-08
1.7396e-09
0.0149972690269
-2.354e-10
4.95e-09
-0.135646417737
0.0808619260788
-0.2105063199997
-0.0980273336172
0.1401583850384
0.0778377428651
-1.23616e-08
0.0113038523123
-0.0024228438269
1.95438e-08
-0.004746211227
6.283504e-07
-1.078853e-06
-0.0929881557822
-0.0413616038859
8.3899e-09
4.4858e-09
0.2116012871265
-3.5589e-09
-1.49141e-08
0.045152798295
-0.0373334884644
-0.152460873127
0.1157639697194
-2.143665e-07
0.0294659752399
5.92e-11
0.1113776937127
0.2178626358509
-2.71888e-08
-0.0743477940559
-0.0028126908001
0.0041431020945
-0.0160889625549
0.0086045470089
6.5532e-09
-9.293e-10
0.0064163235947
-1.69937e-08
8.6375e-09
2.1244e-09
1.76443e-08
2.7294e-09
-1.86683e-08
-1.54978e-08
1.07393e-08
-1.3422e-09
-3.21811e-08
-6.1e-10
-8.4297e-09
-2.06229e-08
6.3408e-09
-5.0822e-09
-2.5541e-09
1.20349e-08
4.24019e-08
-2.4078e-09
4.12307e-08
-6.285e-10
3.196e-08
-1.3980256319
-1.08069992065
0.52709931135
0.48579195142
0.42534786463
-1.06780898571
1.265e-08
-0.4151211977
-0.70239722729
1.339e-08
-0.85312116146
0.25589370728
-0.90253454447
0.81982350349
-0.33848008513
-3.83e-08
1.276e-08
-0.85290133953
-1.0674e-07
