-0.680196
0.671408
0.00639874
1.42574e-06
-0.00796108
3.60553e-07
0.00471904
0.0179318
-0.0076964
-0.00822437
-0.0114795
4.20232e-07
0.00468095
0.00162136
0.00165068
0.000474641
0.00278124
0.00248513
-2.89501e-07
-0.0238475
-0.056072
-0.311773
-0.00212019
-6.27847e-08
-2.46633e-08
-0.114714
0.338269
0.100765
-0.00729535
-6.74691e-07
2.57389e-07
0.00590034
0.0112346
-0.0411094
-1.25541e-07
-6.17235e-07
-7.78779e-08
5.78164e-07
-6.0922e-09
-2.05598e-08
1.73983e-08
-4.659e-09
3.71203e-08
-3.44238e-08
-8.1564e-09
-1.54351e-08
-1.80565e-08
-1.29861e-08
-1.09147e-08
3.07432e-08
1.1463e-08
-6.817e-10
-8.0003e-09
-6.6707e-09
1.9864e-09
-6.6598e-09
-3.994e-10
-0.308818
0.331627
-0.0173978
-2.28806e-08
7.14462e-07
-2.35697e-08
4.9488e-07
0.0838826
-0.000167155
0.0183256
8.00429e-07
2.18367e-08
0.000107536
0.00517538
-0.000163241
0.0283197
-4.63627e-07
-5.94021e-08
7.45571e-08
0.060274
0.0517406
-0.0106701
-0.096978
-7.70754e-07
-5.54371e-07
-0.0889771
-0.287138
-0.00437136
3.16163e-07
-4.15137e-08
-2.75106e-07
-0.0128837
-0.0225372
0.00734919
0.00639027
-4.17193e-07
-4.95609e-07
2.96158e-08
7.3347e-09
3.0534e-09
1.08922e-08
3.47048e-08
-2.35e-10
-9.6675e-09
1.36579e-08
-1.4266e-09
-6.3166e-09
-1.66503e-08
5.3487e-09
5.9927e-09
4.8347e-09
5.827e-09
3.70309e-08
-8.7175e-09
-3.22294e-08
-1.20966e-08
3.4011e-09
-0.00189889
-0.652938
0.0232263
0.000520675
-1.4892e-07
2.22336e-07
0.291997
0.234543
-0.00125791
0.0143097
0.020717
4.53079e-08
0.0228004
0.0193312
0.00498498
0.00821275
0.00148098
4.59282e-07
0.277698
-0.0109543
0.00953459
0.00769691
-1.08348e-06
-8.49327e-08
2.75479e-07
0.018802
0.0386488
-0.146114
-0.0704433
-0.0517437
5.38103e-08
-0.071756
-0.0127951
0.0792999
0.0205769
7.5931e-06
0.000471735
1.27866e-07
0.000342086
0.0448953
0.0826165
4.5693e-07
1.41513e-07
-2.77984e-07
-0.0681859
-0.206792
0.0302887
-0.0178436
-0.00713965
-1.06603e-06
0.0223566
0.037092
0.0359822
0.0407653
0.0364802
0.0325576
-4.60607e-07
-0.00627651
0.00415605
-0.0126399
-7.0845e-07
-1.28677e-08
-1.24465e-08
-9.32301e-07
-0.248881
-0.00732564
-0.00937678
-1.51124e-07
1.67603e-07
-0.187859
0.188586
-0.00459655
0.00501124
0.00358885
0.0136282
1.94098e-07
-0.0206541
-0.00441102
0.0887566
0.0195039
0.091475
5.70932e-07
0.111688
-0.0574655
0.0715572
0.0291454
0.104714
0.0128276
0.0169954
0.00882231
1.38595e-06
0.0094747
0.00253294
0.0239068
-1.77758e-08
-0.0124451
-0.0133638
0.000937916
-0.0587798
4.71637e-07
-6.85953e-08
-0.0587123
-0.0390133
-0.148899
-0.109309
-0.110712
-1.48324e-06
0.0527506
0.0408325
0.0221512
0.0218641
0.0180608
-0.0464114
2.76972e-07
2.15384e-08
-5.6068e-09
9.3033e-09
7.6739e-09
7.2165e-09
-1.806e-09
6.2034e-09
-1.41005e-08
-7.2194e-09
-1.273e-09
-1.74586e-08
4.8837e-09
2.04946e-08
4.17352e-08
3.8454e-09
1.21091e-08
-1.48524e-08
1.47685e-08
-5.0516e-09
-0.109873
-0.0152084
0.11513
-7.13151e-07
-1.46661e-07
4.2926e-08
0.267087
0.174124
0.0131374
-0.0139602
-1.80096e-05
-3.27301e-08
0.00249003
0.0125635
0.00857136
-0.022171
-0.00898161
-0.00469937
-5.3089e-07
0.0379535
-0.00698045
0.0208238
-0.00809108
-1.186e-06
-8.25231e-08
0.196809
-1.17738
0.00563855
9.50802e-07
-3.26948e-07
-2.81186e-08
0.00801239
0.00856551
-1.98357e-07
-0.009042
-0.0208049
-5.57084e-07
5.08541e-08
0.0127154
-0.0139313
0.0595329
0.052556
-1.83473e-07
-6.06531e-07
0.296367
0.251991
-0.00190603
0.00444577
-3.04473e-07
-2.58352e-07
0.0153422
0.0167256
0.00564648
-0.00250989
0.00247599
-0.0113668
-0.58609
-0.00823724
0.00378568
-0.0112731
3.77489e-07
9.60431e-07
-3.58354e-08
-0.00023869
-0.302019
0.0178702
4.66288e-07
7.08838e-07
9.30836e-08
0.229875
-0.193545
-0.0113584
-0.00886447
6.88139e-07
-0.00498664
-1.12985e-07
0.0167651
0.00705431
0.0462511
-0.0399318
-3.42981e-07
5.23824e-07
-1.3412
0.159775
0.037534
0.0546936
2.68156e-07
3.51685e-07
0.00474191
0.00796208
0.00639723
-0.00748401
0.000115289
-0.0185764
6.62535e-08
-0.0186606
0.0270172
-1.00619
-1.03249e-06
3.89261e-07
5.33088e-07
0.169048
0.111211
0.204936
0.0282636
4.02466e-07
6.16835e-07
0.00632325
0.00341688
0.0585951
0.0122144
-6.78658e-07
4.17537e-07
-6.09622e-07
-1.89161e-08
-2.35427e-08
1.23743e-08
-3.08543e-08
-4.8309e-09
-1.1462e-08
-1.98419e-08
-1.28709e-08
1.84614e-08
3.65238e-08
-1.08829e-08
7.9691e-09
-6.6937e-09
2.3461e-09
4.2432e-09
1.01556e-08
3.5953e-09
1.79843e-08
2.24539e-08
2.07165e-08
-2.1818e-09
1.79737e-08
-5.1771e-09
1.32984e-08
-8.2244e-09
2.54635e-08
-3.5193e-09
-8.2835e-09
-1.6961e-09
-1.30961e-08
7.1183e-09
-3.66186e-08
1.09532e-08
7.6042e-09
-3.5827e-09
1.26919e-08
4.95e-09
-1.49141e-08
8.6375e-09
-6.3407e-07
0.0285988
1.72181e-08
0.0158036
0.0565507
1.36837e-08
0.000830975
0.0182393
-0.0417868
-0.103285
-0.00738189
-0.00400454
5.642e-09
-0.155277
0.0737159
0.17257
-0.0972472
-0.135646
0.0451528
2.1244e-09
0.181827
-0.0376672
1.64387e-08
-0.0194536
-0.0463473
-2.27084e-08
0.372698
0.00031223
0.0132375
0.00651034
-0.046598
-0.0223199
3.8601e-09
-0.0310995
0.0383918
-0.288699
-4.86433e-07
0.0808619
-0.0373335
1.76443e-08
-0.0628214
0.124056
-1.86932e-08
0.00986562
-0.00177659
1.53541e-08
-0.0334855
0.00887785
0.0471681
0.0126525
0.0140517
-0.0328695
1.1667e-08
-0.0510147
-0.135095
0.0354265
0.00604401
-0.210506
-0.152461
2.7294e-09
1.04981e-07
-0.0476334
8.558e-09
-0.0150716
-0.0559231
-1.20771e-08
-0.00263467
1.26122e-06
0.0544216
-0.0689981
-0.150836
-0.159002
-2.79211e-08
-0.0152577
-6.43163e-07
0.0195434
-0.0305285
-0.0980273
0.115764
-1.86683e-08
-0.0174437
-0.125312
-1.82945e-08
-0.152841
-0.107558
2.03589e-08
-0.0430115
-0.0122947
0.011805
8.0877e-07
-2.10747e-07
-0.14482
-1.73906e-08
-0.271294
-0.0111052
0.301501
0.00329159
0.140158
-2.14366e-07
-1.54978e-08
-7.26769e-07
0.0258068
1.3745e-09
0.0130916
0.00461284
4.97e-09
-0.00249421
-0.00121997
0.0243773
0.0671891
-0.0782776
-0.0411145
1.33416e-08
0.0408348
-0.134659
0.0750919
0.0610183
0.0778377
0.029466
1.07393e-08
-2.74648e-08
-1.74234e-08
6.6187e-09
-1.7175e-09
3.925e-10
-8.1647e-09
-1.35128e-08
-1.40585e-08
3.3883e-09
1.1048e-08
2.62035e-08
1.29354e-08
1.18492e-08
5.5997e-09
8.76e-11
-3.19494e-08
9.1532e-09
-1.23616e-08
5.92e-11
-1.3422e-09
-6.9274e-09
-0.0138867
-1.50266e-08
-0.0095774
-0.0565093
1.6777e-08
-0.266566
-1.33953e-06
0.0758175
-0.0418017
0.00360567
0.0907751
-1.2431e-08
0.0710074
0.195378
0.0790104
-0.0368406
0.0113039
0.111378
-3.21811e-08
5.84069e-07
0.014543
2.45444e-08
-0.0362617
-0.033582
7.96e-10
-0.0050438
-0.209786
-0.157992
-0.0956595
0.120532
-0.233924
1.09978e-08
-0.0502852
0.0930922
0.126531
-0.0730622
-0.00242284
0.217863
-6.1e-10
-4.19219e-08
1.60758e-08
4.03528e-08
-4.24417e-08
-5.611e-10
-8.1898e-09
4.2781e-09
2.34929e-08
-5.4113e-09
-1.19366e-08
-8.3356e-09
3.7351e-09
-1.28212e-08
-2.6113e-09
-5.5028e-09
-1.4184e-08
1.53871e-08
1.95438e-08
-2.71888e-08
-8.4297e-09
1.86571e-07
0.149696
1.09451e-08
0.0126995
0.0219687
1.33688e-08
-0.016936
3.29291e-07
0.00750233
-0.0170973
-0.340431
0.000940872
1.22007e-08
-0.0711107
-0.0475963
-0.117408
-0.0227475
-0.00474621
-0.0743478
-2.06229e-08
-1.06427e-07
-0.222359
3.4639e-09
-2.68249e-07
-0.00382245
-1.18709e-08
-0.00380823
1.76171e-06
-0.0446328
0.0448272
0.000506185
-0.0522942
6.702e-09
0.0679059
8.35298e-07
0.039509
0.0603365
6.2835e-07
-0.00281269
6.3408e-09
0.878448
-0.0197704
2.968e-09
-6.60222e-07
-8.30261e-05
1.01724e-08
0.00369811
-0.000147991
1.24498e-06
-0.11251
-0.00779372
-0.0353284
8.3963e-09
-2.73394e-05
-8.68486e-07
-0.059263
-0.0490244
-1.07885e-06
0.0041431
-5.0822e-09
-7.97786e-07
-0.066564
-1.53629e-08
0.00289352
0.0144021
1.56066e-08
-0.0687644
4.99027e-07
0.0089437
-0.123301
0.0264251
0.0396238
1.13668e-08
-0.00608762
0.111726
-0.0649087
-0.115187
-0.0929882
-0.016089
-2.5541e-09
1.61004e-07
0.0901213
-6.365e-09
-0.335079
0.0961596
3.36595e-08
-5.28035e-05
0.0337024
-0.0012269
-0.012659
0.00822441
-4.26424e-07
-1.33116e-08
0.0160301
-0.135381
0.018161
-0.0132221
-0.0413616
0.00860455
1.20349e-08
2.0122e-08
-1.8625e-08
2.38189e-08
-2.03992e-08
1.38952e-08
9.2358e-09
1.46012e-08
4.001e-10
-3.882e-09
-6.9192e-09
-1.89556e-08
1.33844e-08
-8.367e-10
-1.2063e-09
-2.28028e-08
1.8166e-09
-3.1905e-08
8.3899e-09
6.5532e-09
4.24019e-08
-2.02707e-08
-1.29328e-08
7.4813e-09
-5.541e-10
-9.5463e-09
-2.4961e-08
-2.692e-10
1.3306e-08
-3.164e-10
6.0754e-09
-1.44347e-08
-5.8558e-09
-1.52724e-08
3.25251e-08
-1.99665e-08
-2.8007e-09
1.7396e-09
4.4858e-09
-9.293e-10
-2.4078e-09
-0.00080762
-0.0291731
-1.2724e-08
-0.0114342
-0.0895941
-4.39693e-08
-0.0210885
0.0833863
-0.0625014
0.0161062
0.0574914
0.00743878
-1.0052e-08
-0.0941452
0.0596914
-0.113263
0.0149973
0.211601
0.00641632
4.12307e-08
-2.74573e-08
8.0425e-09
1.85868e-08
-1.49413e-08
3.18483e-08
-1.0069e-09
-2.28547e-08
-8.7897e-09
-1.90703e-08
-1.313e-10
-1.92737e-08
-1.18648e-08
-8.504e-09
-1.3059e-08
-6.4683e-09
1.80937e-08
-2.354e-10
-3.5589e-09
-1.69937e-08
-6.285e-10
3.196e-08
-1.39803
-1.0807
0.527099
0.485792
0.425348
-1.06781
1.265e-08
-0.415121
-0.702397
1.339e-08
-0.853121
0.255894
-0.902535
0.819824
-0.33848
-3.83e-08
1.276e-08
-0.852901
-1.0674e-07
