<?xml version='1.0' encoding='UTF-8'?>
<PMML xmlns="http://www.dmg.org/PMML-4_3" version="4.3">
  <Header>
    <Application name="JPMML-SkLearn" version="1.3.9"/>
    <Timestamp>2017-11-05T02:48:54Z</Timestamp>
  </Header>
  <MiningBuildTask>
    <Extension>PMMLPipeline(steps=[('scaler', StandardScaler(copy=False, with_mean=True, with_std=True)),
       ('claasifier', MLPClassifier(activation='relu', alpha=0.005, batch_size='auto', beta_1=0.9,
       beta_2=0.999, early_stopping=False, epsilon=1e-08,
       hidden_layer_sizes=(24, 26), learning_rate='constant',
       learning_rate_init=0.001, max_iter=200, momentum=0.9,
       nesterovs_momentum=True, power_t=0.5, random_state=None,
       shuffle=True, solver='adam', tol=1e-06, validation_fraction=0.1,
       verbose=True, warm_start=False))])</Extension>
    <Title>Neural network for time shift estimation</Title>
    <IntendedUse>
      <basf2process>
        <Simulation>yes</Simulation>
        <Reconstruction>yes</Reconstruction>
      </basf2process>
      <SensorType>all</SensorType>
      <SensorSide>all</SensorSide>
    </IntendedUse>
    <Training>
      <SampleSource>Toy simulation</SampleSource>
      <Waveform>beta-prime</Waveform>
      <SampleSize>
        <Training n="8000"/>
        <Test n="2000"/>
      </SampleSize>
      <Parameter high="47.160000000000004" low="-78.60000000000001" sampling="uniform" value="t0"/>
      <Parameter high="100.0" low="3.0" sampling="uniform" value="amplitude"/>
      <Parameter high="351.5555113805785" low="210.93330682834707" sampling="uniform" value="tau"/>
      <Parameter high="4.0" low="1.0" sampling="uniform" value="sigma"/>
    </Training>
    <NetworkParameters>
      <NetworkLayer number="0" kind="input" size="7"/>
      <NetworkLayer number="1" kind="hidden" size="24"/>
      <NetworkLayer number="2" kind="hidden" size="26"/>
      <NetworkLayer number="3" kind="output" size="25"/>
    </NetworkParameters>
  </MiningBuildTask>
  <DataDictionary>
    <DataField name="t0_bin" optype="categorical" dataType="integer">
      <Value value="1" lower="-78.673" upper="-73.813" midpoint="-76.185"/>
      <Value value="2" lower="-73.813" upper="-69.027" midpoint="-71.480"/>
      <Value value="3" lower="-69.027" upper="-64.119" midpoint="-66.530"/>
      <Value value="4" lower="-64.119" upper="-59.184" midpoint="-61.746"/>
      <Value value="5" lower="-59.184" upper="-53.756" midpoint="-56.580"/>
      <Value value="6" lower="-53.756" upper="-48.694" midpoint="-51.142"/>
      <Value value="7" lower="-48.694" upper="-43.419" midpoint="-46.123"/>
      <Value value="8" lower="-43.419" upper="-38.513" midpoint="-41.056"/>
      <Value value="9" lower="-38.513" upper="-33.568" midpoint="-35.967"/>
      <Value value="10" lower="-33.568" upper="-28.647" midpoint="-31.107"/>
      <Value value="11" lower="-28.647" upper="-23.381" midpoint="-25.981"/>
      <Value value="12" lower="-23.381" upper="-18.598" midpoint="-20.957"/>
      <Value value="13" lower="-18.598" upper="-13.644" midpoint="-16.048"/>
      <Value value="14" lower="-13.644" upper="-8.219" midpoint="-10.936"/>
      <Value value="15" lower="-8.219" upper="-3.045" midpoint="-5.702"/>
      <Value value="16" lower="-3.045" upper="2.136" midpoint="-0.556"/>
      <Value value="17" lower="2.136" upper="7.101" midpoint="4.675"/>
      <Value value="18" lower="7.101" upper="11.716" midpoint="9.426"/>
      <Value value="19" lower="11.716" upper="16.684" midpoint="14.278"/>
      <Value value="20" lower="16.684" upper="22.114" midpoint="19.408"/>
      <Value value="21" lower="22.114" upper="26.675" midpoint="24.379"/>
      <Value value="22" lower="26.675" upper="31.604" midpoint="29.114"/>
      <Value value="23" lower="31.604" upper="36.975" midpoint="34.230"/>
      <Value value="24" lower="36.975" upper="41.776" midpoint="39.360"/>
      <Value value="25" lower="41.776" upper="47.239" midpoint="44.381"/>
    </DataField>
    <DataField name="s1" optype="continuous" dataType="double"/>
    <DataField name="s2" optype="continuous" dataType="double"/>
    <DataField name="s3" optype="continuous" dataType="double"/>
    <DataField name="s4" optype="continuous" dataType="double"/>
    <DataField name="s5" optype="continuous" dataType="double"/>
    <DataField name="s6" optype="continuous" dataType="double"/>
    <DataField name="tau" optype="continuous" dataType="double"/>
  </DataDictionary>
  <TransformationDictionary>
    <DerivedField name="standard_scaler(s1)" optype="continuous" dataType="double">
      <Apply function="/">
        <Apply function="-">
          <FieldRef field="s1"/>
          <Constant dataType="double">9.043750429029163</Constant>
        </Apply>
        <Constant dataType="double">17.932548238957665</Constant>
      </Apply>
    </DerivedField>
    <DerivedField name="standard_scaler(s2)" optype="continuous" dataType="double">
      <Apply function="/">
        <Apply function="-">
          <FieldRef field="s2"/>
          <Constant dataType="double">21.33033457984646</Constant>
        </Apply>
        <Constant dataType="double">27.261653128479043</Constant>
      </Apply>
    </DerivedField>
    <DerivedField name="standard_scaler(s3)" optype="continuous" dataType="double">
      <Apply function="/">
        <Apply function="-">
          <FieldRef field="s3"/>
          <Constant dataType="double">32.77003140605797</Constant>
        </Apply>
        <Constant dataType="double">28.481388232067772</Constant>
      </Apply>
    </DerivedField>
    <DerivedField name="standard_scaler(s4)" optype="continuous" dataType="double">
      <Apply function="/">
        <Apply function="-">
          <FieldRef field="s4"/>
          <Constant dataType="double">41.41467955186056</Constant>
        </Apply>
        <Constant dataType="double">24.92653470141898</Constant>
      </Apply>
    </DerivedField>
    <DerivedField name="standard_scaler(s5)" optype="continuous" dataType="double">
      <Apply function="/">
        <Apply function="-">
          <FieldRef field="s5"/>
          <Constant dataType="double">40.284752578033505</Constant>
        </Apply>
        <Constant dataType="double">24.834892924313813</Constant>
      </Apply>
    </DerivedField>
    <DerivedField name="standard_scaler(s6)" optype="continuous" dataType="double">
      <Apply function="/">
        <Apply function="-">
          <FieldRef field="s6"/>
          <Constant dataType="double">32.98354174787025</Constant>
        </Apply>
        <Constant dataType="double">22.483828710966222</Constant>
      </Apply>
    </DerivedField>
    <DerivedField name="standard_scaler(tau)" optype="continuous" dataType="double">
      <Apply function="/">
        <Apply function="-">
          <FieldRef field="tau"/>
          <Constant dataType="double">281.27927381971347</Constant>
        </Apply>
        <Constant dataType="double">40.83294401633386</Constant>
      </Apply>
    </DerivedField>
  </TransformationDictionary>
  <NeuralNetwork functionName="classification" activationFunction="rectifier">
    <MiningSchema>
      <MiningField name="t0_bin" usageType="target"/>
      <MiningField name="s1"/>
      <MiningField name="s2"/>
      <MiningField name="s3"/>
      <MiningField name="s4"/>
      <MiningField name="s5"/>
      <MiningField name="s6"/>
      <MiningField name="tau"/>
    </MiningSchema>
    <Output>
      <OutputField name="probability(1)" optype="continuous" dataType="double" feature="probability" value="1"/>
      <OutputField name="probability(2)" optype="continuous" dataType="double" feature="probability" value="2"/>
      <OutputField name="probability(3)" optype="continuous" dataType="double" feature="probability" value="3"/>
      <OutputField name="probability(4)" optype="continuous" dataType="double" feature="probability" value="4"/>
      <OutputField name="probability(5)" optype="continuous" dataType="double" feature="probability" value="5"/>
      <OutputField name="probability(6)" optype="continuous" dataType="double" feature="probability" value="6"/>
      <OutputField name="probability(7)" optype="continuous" dataType="double" feature="probability" value="7"/>
      <OutputField name="probability(8)" optype="continuous" dataType="double" feature="probability" value="8"/>
      <OutputField name="probability(9)" optype="continuous" dataType="double" feature="probability" value="9"/>
      <OutputField name="probability(10)" optype="continuous" dataType="double" feature="probability" value="10"/>
      <OutputField name="probability(11)" optype="continuous" dataType="double" feature="probability" value="11"/>
      <OutputField name="probability(12)" optype="continuous" dataType="double" feature="probability" value="12"/>
      <OutputField name="probability(13)" optype="continuous" dataType="double" feature="probability" value="13"/>
      <OutputField name="probability(14)" optype="continuous" dataType="double" feature="probability" value="14"/>
      <OutputField name="probability(15)" optype="continuous" dataType="double" feature="probability" value="15"/>
      <OutputField name="probability(16)" optype="continuous" dataType="double" feature="probability" value="16"/>
      <OutputField name="probability(17)" optype="continuous" dataType="double" feature="probability" value="17"/>
      <OutputField name="probability(18)" optype="continuous" dataType="double" feature="probability" value="18"/>
      <OutputField name="probability(19)" optype="continuous" dataType="double" feature="probability" value="19"/>
      <OutputField name="probability(20)" optype="continuous" dataType="double" feature="probability" value="20"/>
      <OutputField name="probability(21)" optype="continuous" dataType="double" feature="probability" value="21"/>
      <OutputField name="probability(22)" optype="continuous" dataType="double" feature="probability" value="22"/>
      <OutputField name="probability(23)" optype="continuous" dataType="double" feature="probability" value="23"/>
      <OutputField name="probability(24)" optype="continuous" dataType="double" feature="probability" value="24"/>
      <OutputField name="probability(25)" optype="continuous" dataType="double" feature="probability" value="25"/>
    </Output>
    <NeuralInputs>
      <NeuralInput id="input/1">
        <DerivedField optype="continuous" dataType="double">
          <FieldRef field="standard_scaler(s1)"/>
        </DerivedField>
      </NeuralInput>
      <NeuralInput id="input/2">
        <DerivedField optype="continuous" dataType="double">
          <FieldRef field="standard_scaler(s2)"/>
        </DerivedField>
      </NeuralInput>
      <NeuralInput id="input/3">
        <DerivedField optype="continuous" dataType="double">
          <FieldRef field="standard_scaler(s3)"/>
        </DerivedField>
      </NeuralInput>
      <NeuralInput id="input/4">
        <DerivedField optype="continuous" dataType="double">
          <FieldRef field="standard_scaler(s4)"/>
        </DerivedField>
      </NeuralInput>
      <NeuralInput id="input/5">
        <DerivedField optype="continuous" dataType="double">
          <FieldRef field="standard_scaler(s5)"/>
        </DerivedField>
      </NeuralInput>
      <NeuralInput id="input/6">
        <DerivedField optype="continuous" dataType="double">
          <FieldRef field="standard_scaler(s6)"/>
        </DerivedField>
      </NeuralInput>
      <NeuralInput id="input/7">
        <DerivedField optype="continuous" dataType="double">
          <FieldRef field="standard_scaler(tau)"/>
        </DerivedField>
      </NeuralInput>
    </NeuralInputs>
    <NeuralLayer>
      <Neuron id="1/1" bias="0.9711868668015332">
        <Con from="input/1" weight="-0.8293483327392843"/>
        <Con from="input/2" weight="1.556543130630664"/>
        <Con from="input/3" weight="-0.43111173476166526"/>
        <Con from="input/4" weight="-0.5628458358407633"/>
        <Con from="input/5" weight="0.13452265425260668"/>
        <Con from="input/6" weight="0.8403484304145463"/>
        <Con from="input/7" weight="-0.2911268399414209"/>
      </Neuron>
      <Neuron id="1/2" bias="0.5291071666881483">
        <Con from="input/1" weight="-0.1609103002946488"/>
        <Con from="input/2" weight="-1.3876351461837977"/>
        <Con from="input/3" weight="-0.8085298488056754"/>
        <Con from="input/4" weight="-0.6684508331183342"/>
        <Con from="input/5" weight="0.7019867477803536"/>
        <Con from="input/6" weight="0.6048674207550079"/>
        <Con from="input/7" weight="0.555480844211081"/>
      </Neuron>
      <Neuron id="1/3" bias="0.6466253605998039">
        <Con from="input/1" weight="1.2856954966432317"/>
        <Con from="input/2" weight="0.17924183276740527"/>
        <Con from="input/3" weight="-0.7866122249136437"/>
        <Con from="input/4" weight="-0.8032639047160534"/>
        <Con from="input/5" weight="-0.08320250523204975"/>
        <Con from="input/6" weight="0.27444418951205146"/>
        <Con from="input/7" weight="0.7543992540388748"/>
      </Neuron>
      <Neuron id="1/4" bias="0.643627491676248">
        <Con from="input/1" weight="1.0968323237379283"/>
        <Con from="input/2" weight="0.6815990746577208"/>
        <Con from="input/3" weight="0.03196173485252563"/>
        <Con from="input/4" weight="-0.8082110703537804"/>
        <Con from="input/5" weight="-0.3122797411049859"/>
        <Con from="input/6" weight="0.15685755045155453"/>
        <Con from="input/7" weight="0.9644484264007154"/>
      </Neuron>
      <Neuron id="1/5" bias="1.5484533787750288">
        <Con from="input/1" weight="-1.3244795485184968"/>
        <Con from="input/2" weight="0.19033876942518962"/>
        <Con from="input/3" weight="1.0397656613892694"/>
        <Con from="input/4" weight="0.3574503560005915"/>
        <Con from="input/5" weight="-0.24060479010435074"/>
        <Con from="input/6" weight="-0.41278747495949714"/>
        <Con from="input/7" weight="-0.013097290205516714"/>
      </Neuron>
      <Neuron id="1/6" bias="0.3607130503950444">
        <Con from="input/1" weight="-0.7431667266827982"/>
        <Con from="input/2" weight="-1.350220557939872"/>
        <Con from="input/3" weight="-0.7856404652973907"/>
        <Con from="input/4" weight="0.5473061107686684"/>
        <Con from="input/5" weight="-0.042807930208005406"/>
        <Con from="input/6" weight="-0.28060274074882574"/>
        <Con from="input/7" weight="1.2774160742980998"/>
      </Neuron>
      <Neuron id="1/7" bias="0.9566425596622933">
        <Con from="input/1" weight="-0.6091079701833713"/>
        <Con from="input/2" weight="-1.7538501631977852"/>
        <Con from="input/3" weight="0.541553535728953"/>
        <Con from="input/4" weight="0.6742109121259947"/>
        <Con from="input/5" weight="0.3340173949079208"/>
        <Con from="input/6" weight="0.03108956163495539"/>
        <Con from="input/7" weight="-0.6258816363266988"/>
      </Neuron>
      <Neuron id="1/8" bias="-0.01390773171935929">
        <Con from="input/1" weight="-0.15866823424907425"/>
        <Con from="input/2" weight="-0.49131086110220745"/>
        <Con from="input/3" weight="-1.7385379915916233"/>
        <Con from="input/4" weight="-0.620960807108398"/>
        <Con from="input/5" weight="1.0404540802374969"/>
        <Con from="input/6" weight="1.0038220647638407"/>
        <Con from="input/7" weight="-0.7549977989522497"/>
      </Neuron>
      <Neuron id="1/9" bias="0.973637718971606">
        <Con from="input/1" weight="-0.2286405923202964"/>
        <Con from="input/2" weight="1.5241025838873232"/>
        <Con from="input/3" weight="0.5685164703977859"/>
        <Con from="input/4" weight="-0.2296242992072856"/>
        <Con from="input/5" weight="-0.2240479373132875"/>
        <Con from="input/6" weight="-0.15698736248656084"/>
        <Con from="input/7" weight="0.4331165206341791"/>
      </Neuron>
      <Neuron id="1/10" bias="1.2373529889996775">
        <Con from="input/1" weight="-0.7466339224757043"/>
        <Con from="input/2" weight="-1.9631341669846343"/>
        <Con from="input/3" weight="-0.31209786218913743"/>
        <Con from="input/4" weight="0.8055987721367162"/>
        <Con from="input/5" weight="0.11623729772049465"/>
        <Con from="input/6" weight="0.1316925149166399"/>
        <Con from="input/7" weight="0.6901130078903563"/>
      </Neuron>
      <Neuron id="1/11" bias="-0.019302073438336457">
        <Con from="input/1" weight="-0.3333437727469027"/>
        <Con from="input/2" weight="-0.6658640031684104"/>
        <Con from="input/3" weight="-1.76172493675805"/>
        <Con from="input/4" weight="-0.4678234919453199"/>
        <Con from="input/5" weight="0.5768741378796434"/>
        <Con from="input/6" weight="1.0687685493011763"/>
        <Con from="input/7" weight="-0.42190313099978594"/>
      </Neuron>
      <Neuron id="1/12" bias="-0.00972082476124691">
        <Con from="input/1" weight="-0.1295298251151272"/>
        <Con from="input/2" weight="0.09251167722932793"/>
        <Con from="input/3" weight="-0.038694178096754774"/>
        <Con from="input/4" weight="-0.7864597870600831"/>
        <Con from="input/5" weight="-0.7174473263806256"/>
        <Con from="input/6" weight="-0.9789727380853479"/>
        <Con from="input/7" weight="-0.1092431788150925"/>
      </Neuron>
      <Neuron id="1/13" bias="1.0946402796336623">
        <Con from="input/1" weight="-1.7812971522268677"/>
        <Con from="input/2" weight="-0.4451353868541678"/>
        <Con from="input/3" weight="-0.020990570433102103"/>
        <Con from="input/4" weight="1.4786974238292407"/>
        <Con from="input/5" weight="0.4475453563325389"/>
        <Con from="input/6" weight="0.016987420693836533"/>
        <Con from="input/7" weight="-1.51779292497111"/>
      </Neuron>
      <Neuron id="1/14" bias="1.2738738738670448">
        <Con from="input/1" weight="-1.199807512782092"/>
        <Con from="input/2" weight="-0.0550880920089978"/>
        <Con from="input/3" weight="1.0234566492236599"/>
        <Con from="input/4" weight="0.5982322705872595"/>
        <Con from="input/5" weight="0.20054480351930748"/>
        <Con from="input/6" weight="0.13829027060307109"/>
        <Con from="input/7" weight="1.3223713364471925"/>
      </Neuron>
      <Neuron id="1/15" bias="0.8713144754065416">
        <Con from="input/1" weight="0.4321786270840303"/>
        <Con from="input/2" weight="-0.33054322669721925"/>
        <Con from="input/3" weight="0.3054398805723944"/>
        <Con from="input/4" weight="-0.18037483606958366"/>
        <Con from="input/5" weight="-0.82661074279063"/>
        <Con from="input/6" weight="-0.9190212495649933"/>
        <Con from="input/7" weight="-0.5367821986817749"/>
      </Neuron>
      <Neuron id="1/16" bias="0.01196674073449192">
        <Con from="input/1" weight="0.7051339363903407"/>
        <Con from="input/2" weight="-0.2920973247704232"/>
        <Con from="input/3" weight="-1.4324418858283419"/>
        <Con from="input/4" weight="-0.9336617313990064"/>
        <Con from="input/5" weight="0.2261432063453571"/>
        <Con from="input/6" weight="0.26467337838678345"/>
        <Con from="input/7" weight="-0.39427461915726025"/>
      </Neuron>
      <Neuron id="1/17" bias="1.2331184927317527">
        <Con from="input/1" weight="-0.15926913120359804"/>
        <Con from="input/2" weight="1.276789417891017"/>
        <Con from="input/3" weight="1.051819499646712"/>
        <Con from="input/4" weight="-0.4881273678587916"/>
        <Con from="input/5" weight="-0.5118533186326819"/>
        <Con from="input/6" weight="-0.7527491144772055"/>
        <Con from="input/7" weight="-0.3267758624048117"/>
      </Neuron>
      <Neuron id="1/18" bias="0.731829568672732">
        <Con from="input/1" weight="0.6741317092223342"/>
        <Con from="input/2" weight="1.183033149346565"/>
        <Con from="input/3" weight="-0.3558525610644748"/>
        <Con from="input/4" weight="-0.3041842709919939"/>
        <Con from="input/5" weight="-0.33286379188121407"/>
        <Con from="input/6" weight="-0.49423614463523025"/>
        <Con from="input/7" weight="0.7509884820207149"/>
      </Neuron>
      <Neuron id="1/19" bias="0.2753801415389149">
        <Con from="input/1" weight="-0.4572318322621138"/>
        <Con from="input/2" weight="0.6255094946420824"/>
        <Con from="input/3" weight="-0.39948551866308063"/>
        <Con from="input/4" weight="-0.5041207428926624"/>
        <Con from="input/5" weight="-0.47537930868025824"/>
        <Con from="input/6" weight="0.2035652446237549"/>
        <Con from="input/7" weight="0.9506619067682788"/>
      </Neuron>
      <Neuron id="1/20" bias="1.4353962111899115">
        <Con from="input/1" weight="-1.6116760598599205"/>
        <Con from="input/2" weight="-0.028142693697648512"/>
        <Con from="input/3" weight="0.41838104866307135"/>
        <Con from="input/4" weight="0.39320123981016863"/>
        <Con from="input/5" weight="-0.22404037629504853"/>
        <Con from="input/6" weight="-0.33384980703856476"/>
        <Con from="input/7" weight="0.749183898973796"/>
      </Neuron>
      <Neuron id="1/21" bias="1.4317532429232485">
        <Con from="input/1" weight="0.7520475633446487"/>
        <Con from="input/2" weight="-0.6316730501739074"/>
        <Con from="input/3" weight="-0.8367792173288799"/>
        <Con from="input/4" weight="1.5433046924838774"/>
        <Con from="input/5" weight="0.3752832823757348"/>
        <Con from="input/6" weight="0.569636299249244"/>
        <Con from="input/7" weight="0.5690112715466908"/>
      </Neuron>
      <Neuron id="1/22" bias="1.5584880415987008">
        <Con from="input/1" weight="-0.1567144262621534"/>
        <Con from="input/2" weight="0.230528303040698"/>
        <Con from="input/3" weight="1.2909754564062912"/>
        <Con from="input/4" weight="0.4436240017429311"/>
        <Con from="input/5" weight="-0.2617204521334977"/>
        <Con from="input/6" weight="-0.04616343746855144"/>
        <Con from="input/7" weight="0.09796347820419958"/>
      </Neuron>
      <Neuron id="1/23" bias="0.3877245662965174">
        <Con from="input/1" weight="1.163331133901876"/>
        <Con from="input/2" weight="0.6193444972646854"/>
        <Con from="input/3" weight="0.443786109675601"/>
        <Con from="input/4" weight="0.19736140969417804"/>
        <Con from="input/5" weight="0.08758854820861556"/>
        <Con from="input/6" weight="-0.38017871730015385"/>
        <Con from="input/7" weight="1.2585192907675462"/>
      </Neuron>
      <Neuron id="1/24" bias="0.446557384534077">
        <Con from="input/1" weight="1.2369942036503743"/>
        <Con from="input/2" weight="-0.2653642548222758"/>
        <Con from="input/3" weight="-0.6876131825876663"/>
        <Con from="input/4" weight="-0.8535832340637318"/>
        <Con from="input/5" weight="0.4770452585994962"/>
        <Con from="input/6" weight="0.3078333689214958"/>
        <Con from="input/7" weight="0.5383733272631114"/>
      </Neuron>
    </NeuralLayer>
    <NeuralLayer>
      <Neuron id="2/1" bias="-0.4416019725701065">
        <Con from="1/1" weight="-0.34070423607683614"/>
        <Con from="1/2" weight="0.06737807496395362"/>
        <Con from="1/3" weight="1.1068841994706051"/>
        <Con from="1/4" weight="1.074145988672378"/>
        <Con from="1/5" weight="-0.7353322480102249"/>
        <Con from="1/6" weight="-0.8037976197993802"/>
        <Con from="1/7" weight="0.03800429407781331"/>
        <Con from="1/8" weight="0.48754329867862817"/>
        <Con from="1/9" weight="0.3609725705190341"/>
        <Con from="1/10" weight="-1.1398488184027449"/>
        <Con from="1/11" weight="0.4604175507420913"/>
        <Con from="1/12" weight="0.18967290436742992"/>
        <Con from="1/13" weight="0.09571062784381786"/>
        <Con from="1/14" weight="-0.4424963148821152"/>
        <Con from="1/15" weight="-0.35592092547352405"/>
        <Con from="1/16" weight="1.1043540965782916"/>
        <Con from="1/17" weight="0.013157665737448246"/>
        <Con from="1/18" weight="0.5164226160030221"/>
        <Con from="1/19" weight="-0.003511911099434245"/>
        <Con from="1/20" weight="-0.8849341053010333"/>
        <Con from="1/21" weight="0.3001944274119785"/>
        <Con from="1/22" weight="-0.14773594809805218"/>
        <Con from="1/23" weight="0.7215815027469"/>
        <Con from="1/24" weight="1.4104204982201416"/>
      </Neuron>
      <Neuron id="2/2" bias="-0.21197521513458517">
        <Con from="1/1" weight="1.0338841482720726E-142"/>
        <Con from="1/2" weight="-3.650312073135418E-153"/>
        <Con from="1/3" weight="-7.073908500167219E-115"/>
        <Con from="1/4" weight="1.187596706122802E-143"/>
        <Con from="1/5" weight="-5.186254313112758E-156"/>
        <Con from="1/6" weight="8.735850680482574E-115"/>
        <Con from="1/7" weight="1.2650808676312114E-149"/>
        <Con from="1/8" weight="5.147193671305103E-149"/>
        <Con from="1/9" weight="2.350639269458339E-154"/>
        <Con from="1/10" weight="-1.376261528418065E-146"/>
        <Con from="1/11" weight="-9.553285852642171E-155"/>
        <Con from="1/12" weight="-2.2583025178863813E-155"/>
        <Con from="1/13" weight="-3.945931023489231E-143"/>
        <Con from="1/14" weight="-7.515869053863211E-156"/>
        <Con from="1/15" weight="3.5837931607543375E-124"/>
        <Con from="1/16" weight="-1.4721452560771265E-142"/>
        <Con from="1/17" weight="2.0802777655445836E-132"/>
        <Con from="1/18" weight="-7.198184791305184E-153"/>
        <Con from="1/19" weight="-2.3732689586919226E-155"/>
        <Con from="1/20" weight="-1.4909365896247256E-126"/>
        <Con from="1/21" weight="-4.141311395319571E-156"/>
        <Con from="1/22" weight="7.5960173783013295E-137"/>
        <Con from="1/23" weight="5.640593785736642E-156"/>
        <Con from="1/24" weight="-6.847275562928697E-147"/>
      </Neuron>
      <Neuron id="2/3" bias="0.08665280009360649">
        <Con from="1/1" weight="-0.23640277583157357"/>
        <Con from="1/2" weight="0.5982043365274814"/>
        <Con from="1/3" weight="0.7618249845686689"/>
        <Con from="1/4" weight="0.4251050741302297"/>
        <Con from="1/5" weight="-0.26330709389383883"/>
        <Con from="1/6" weight="0.21607140275255496"/>
        <Con from="1/7" weight="0.9656585725239869"/>
        <Con from="1/8" weight="0.34492616851840907"/>
        <Con from="1/9" weight="-0.2872662120634754"/>
        <Con from="1/10" weight="0.6774139702156267"/>
        <Con from="1/11" weight="0.31373859483435657"/>
        <Con from="1/12" weight="0.09008552665869912"/>
        <Con from="1/13" weight="1.1747079667013511"/>
        <Con from="1/14" weight="-0.755577427108276"/>
        <Con from="1/15" weight="-0.33806186145209655"/>
        <Con from="1/16" weight="0.3896919196512632"/>
        <Con from="1/17" weight="-0.5898427522480802"/>
        <Con from="1/18" weight="0.184223418614573"/>
        <Con from="1/19" weight="0.20190253157655955"/>
        <Con from="1/20" weight="-0.7909576986945367"/>
        <Con from="1/21" weight="0.7417427728716882"/>
        <Con from="1/22" weight="-0.4788910297848493"/>
        <Con from="1/23" weight="-0.10255656347570549"/>
        <Con from="1/24" weight="0.9650757295800265"/>
      </Neuron>
      <Neuron id="2/4" bias="-0.21399379864577497">
        <Con from="1/1" weight="-0.831355150673889"/>
        <Con from="1/2" weight="-1.2412913023204453"/>
        <Con from="1/3" weight="0.26807734362492275"/>
        <Con from="1/4" weight="0.3453743737492047"/>
        <Con from="1/5" weight="-0.01331983828169119"/>
        <Con from="1/6" weight="-0.7430096076430285"/>
        <Con from="1/7" weight="0.2126041631006082"/>
        <Con from="1/8" weight="-0.24380338612839497"/>
        <Con from="1/9" weight="-0.006831127749727106"/>
        <Con from="1/10" weight="-0.30134283574226556"/>
        <Con from="1/11" weight="-0.5553212630111026"/>
        <Con from="1/12" weight="0.16528779026785126"/>
        <Con from="1/13" weight="0.6302555442987368"/>
        <Con from="1/14" weight="-0.07436981153214454"/>
        <Con from="1/15" weight="-0.14136187285641766"/>
        <Con from="1/16" weight="0.4409388768031644"/>
        <Con from="1/17" weight="-0.8293880036554708"/>
        <Con from="1/18" weight="0.11583804156971231"/>
        <Con from="1/19" weight="-0.682347927027"/>
        <Con from="1/20" weight="0.2993422014394338"/>
        <Con from="1/21" weight="0.512881776774558"/>
        <Con from="1/22" weight="0.2139558627704347"/>
        <Con from="1/23" weight="0.4888290463898701"/>
        <Con from="1/24" weight="0.7799031323211663"/>
      </Neuron>
      <Neuron id="2/5" bias="0.1674527826403963">
        <Con from="1/1" weight="-0.12256054268992887"/>
        <Con from="1/2" weight="0.23146110782435203"/>
        <Con from="1/3" weight="0.41553525035114236"/>
        <Con from="1/4" weight="0.22331199390202933"/>
        <Con from="1/5" weight="0.02406464907215853"/>
        <Con from="1/6" weight="0.3388390524584276"/>
        <Con from="1/7" weight="0.4915283351900676"/>
        <Con from="1/8" weight="0.9887670349362723"/>
        <Con from="1/9" weight="-0.3664052862993373"/>
        <Con from="1/10" weight="0.18149413545599466"/>
        <Con from="1/11" weight="0.8236051162033934"/>
        <Con from="1/12" weight="-0.014740191589496562"/>
        <Con from="1/13" weight="0.6919441405972139"/>
        <Con from="1/14" weight="-0.5324702400453462"/>
        <Con from="1/15" weight="-0.5496903696426266"/>
        <Con from="1/16" weight="0.4594238361535567"/>
        <Con from="1/17" weight="-0.5453326607163943"/>
        <Con from="1/18" weight="-0.15359006568037747"/>
        <Con from="1/19" weight="0.10267747273273943"/>
        <Con from="1/20" weight="-0.5267242203686561"/>
        <Con from="1/21" weight="0.6264817382391041"/>
        <Con from="1/22" weight="0.018050679484763035"/>
        <Con from="1/23" weight="-0.25341870725156307"/>
        <Con from="1/24" weight="0.9521234518075585"/>
      </Neuron>
      <Neuron id="2/6" bias="0.3486283719681733">
        <Con from="1/1" weight="1.6939826314427695"/>
        <Con from="1/2" weight="-0.27469882172154764"/>
        <Con from="1/3" weight="-0.5663210435535525"/>
        <Con from="1/4" weight="-0.19552300360305508"/>
        <Con from="1/5" weight="1.2652094630754338"/>
        <Con from="1/6" weight="-0.33598707160485075"/>
        <Con from="1/7" weight="-0.7028944832069811"/>
        <Con from="1/8" weight="-1.3378368237422995"/>
        <Con from="1/9" weight="1.0466116739087763"/>
        <Con from="1/10" weight="-0.21446295818412445"/>
        <Con from="1/11" weight="-1.0052658708877913"/>
        <Con from="1/12" weight="0.138865532083558"/>
        <Con from="1/13" weight="-0.5579682004318691"/>
        <Con from="1/14" weight="1.0119282918332162"/>
        <Con from="1/15" weight="0.12488870071827914"/>
        <Con from="1/16" weight="-0.34386715525583567"/>
        <Con from="1/17" weight="0.8176974817084757"/>
        <Con from="1/18" weight="0.08124911904841746"/>
        <Con from="1/19" weight="-0.36501027807934194"/>
        <Con from="1/20" weight="1.2022259155745496"/>
        <Con from="1/21" weight="0.0476923814392079"/>
        <Con from="1/22" weight="0.6955367174455179"/>
        <Con from="1/23" weight="0.24776177012682657"/>
        <Con from="1/24" weight="-1.6146883468277646"/>
      </Neuron>
      <Neuron id="2/7" bias="-0.4232344097949679">
        <Con from="1/1" weight="-0.07329018070350757"/>
        <Con from="1/2" weight="-0.30472401752249534"/>
        <Con from="1/3" weight="-0.021845930980984033"/>
        <Con from="1/4" weight="-0.011237532220325853"/>
        <Con from="1/5" weight="-0.31637503781409776"/>
        <Con from="1/6" weight="-0.2699451333595832"/>
        <Con from="1/7" weight="0.09763486830876265"/>
        <Con from="1/8" weight="0.1665109427077013"/>
        <Con from="1/9" weight="0.027892843231721816"/>
        <Con from="1/10" weight="-0.36772381021007877"/>
        <Con from="1/11" weight="-0.18201821544447758"/>
        <Con from="1/12" weight="-0.053852316898497926"/>
        <Con from="1/13" weight="0.4014331563646772"/>
        <Con from="1/14" weight="0.1474943838275215"/>
        <Con from="1/15" weight="-0.3679137630421382"/>
        <Con from="1/16" weight="-0.36812884698651793"/>
        <Con from="1/17" weight="-0.1332545362154114"/>
        <Con from="1/18" weight="-0.06745602215830372"/>
        <Con from="1/19" weight="0.004185421328794889"/>
        <Con from="1/20" weight="-0.0010729479155798013"/>
        <Con from="1/21" weight="0.3737598404314097"/>
        <Con from="1/22" weight="0.16995094637828645"/>
        <Con from="1/23" weight="-0.44309854142245514"/>
        <Con from="1/24" weight="-0.42039622433545126"/>
      </Neuron>
      <Neuron id="2/8" bias="0.03181815095689608">
        <Con from="1/1" weight="0.37568863201095387"/>
        <Con from="1/2" weight="0.8040721957216171"/>
        <Con from="1/3" weight="0.5590018977644421"/>
        <Con from="1/4" weight="0.5390653626862868"/>
        <Con from="1/5" weight="-0.5241926953673641"/>
        <Con from="1/6" weight="-0.048229880152456016"/>
        <Con from="1/7" weight="0.6211306849529395"/>
        <Con from="1/8" weight="0.8883249524939173"/>
        <Con from="1/9" weight="-0.38803522342332825"/>
        <Con from="1/10" weight="0.6469575339625657"/>
        <Con from="1/11" weight="1.1701418469756408"/>
        <Con from="1/12" weight="-0.8422678951240826"/>
        <Con from="1/13" weight="0.9353575631674325"/>
        <Con from="1/14" weight="-1.0013752640844547"/>
        <Con from="1/15" weight="-0.6769496250962151"/>
        <Con from="1/16" weight="0.16743079622898374"/>
        <Con from="1/17" weight="-0.43874705312938805"/>
        <Con from="1/18" weight="-0.2118010747498674"/>
        <Con from="1/19" weight="0.11137997673431754"/>
        <Con from="1/20" weight="-0.2822916866980042"/>
        <Con from="1/21" weight="0.16890665754819978"/>
        <Con from="1/22" weight="-0.24353161696221942"/>
        <Con from="1/23" weight="-0.01600209433151937"/>
        <Con from="1/24" weight="1.3625881013377514"/>
      </Neuron>
      <Neuron id="2/9" bias="0.7342893514255775">
        <Con from="1/1" weight="1.0170496428827613"/>
        <Con from="1/2" weight="0.185938034600695"/>
        <Con from="1/3" weight="-1.0342175967810825"/>
        <Con from="1/4" weight="-1.0669565681807134"/>
        <Con from="1/5" weight="1.3746990075417929"/>
        <Con from="1/6" weight="4.6602737036345886E-4"/>
        <Con from="1/7" weight="0.1262901921429188"/>
        <Con from="1/8" weight="-1.126618140012457"/>
        <Con from="1/9" weight="0.6620864116526608"/>
        <Con from="1/10" weight="0.6421219779603611"/>
        <Con from="1/11" weight="-0.8405347851979159"/>
        <Con from="1/12" weight="-0.44518919788072564"/>
        <Con from="1/13" weight="-0.18548507670564734"/>
        <Con from="1/14" weight="0.901761901732424"/>
        <Con from="1/15" weight="0.5685492592079124"/>
        <Con from="1/16" weight="-1.1835312645353426"/>
        <Con from="1/17" weight="1.3626932900047273"/>
        <Con from="1/18" weight="0.2313088883874005"/>
        <Con from="1/19" weight="0.2195976926037329"/>
        <Con from="1/20" weight="1.3437020792308032"/>
        <Con from="1/21" weight="-0.24178279379276812"/>
        <Con from="1/22" weight="1.3711621911583027"/>
        <Con from="1/23" weight="0.01820222706848137"/>
        <Con from="1/24" weight="-1.439468557008589"/>
      </Neuron>
      <Neuron id="2/10" bias="-0.22897139135268346">
        <Con from="1/1" weight="1.2589346155434329"/>
        <Con from="1/2" weight="-0.050254065348282216"/>
        <Con from="1/3" weight="0.6730661798958594"/>
        <Con from="1/4" weight="0.9640748211322274"/>
        <Con from="1/5" weight="-0.4794018144918487"/>
        <Con from="1/6" weight="-1.2010809326890282"/>
        <Con from="1/7" weight="-0.27389125564150935"/>
        <Con from="1/8" weight="1.1413238010221376"/>
        <Con from="1/9" weight="0.5298197578707999"/>
        <Con from="1/10" weight="-0.6553103672891706"/>
        <Con from="1/11" weight="0.7508532918807549"/>
        <Con from="1/12" weight="0.2042759184837007"/>
        <Con from="1/13" weight="-0.3167123229789349"/>
        <Con from="1/14" weight="-0.09614524914100135"/>
        <Con from="1/15" weight="-0.13588746668596619"/>
        <Con from="1/16" weight="0.5503831320493772"/>
        <Con from="1/17" weight="-0.09950662255185205"/>
        <Con from="1/18" weight="1.0204328087295942"/>
        <Con from="1/19" weight="0.31537914819166146"/>
        <Con from="1/20" weight="-0.7402937237833145"/>
        <Con from="1/21" weight="-0.2533697074558988"/>
        <Con from="1/22" weight="0.7281702693582159"/>
        <Con from="1/23" weight="0.7254721999595626"/>
        <Con from="1/24" weight="1.128104032350667"/>
      </Neuron>
      <Neuron id="2/11" bias="0.4309953157253494">
        <Con from="1/1" weight="0.4195185308077685"/>
        <Con from="1/2" weight="-1.4959260114785156"/>
        <Con from="1/3" weight="0.1488562161831179"/>
        <Con from="1/4" weight="0.7659589272202004"/>
        <Con from="1/5" weight="0.43905782290454937"/>
        <Con from="1/6" weight="-1.0400393062536688"/>
        <Con from="1/7" weight="-1.2691578246093589"/>
        <Con from="1/8" weight="-0.6431851325407557"/>
        <Con from="1/9" weight="1.176268981253824"/>
        <Con from="1/10" weight="-1.0433693686012349"/>
        <Con from="1/11" weight="-0.8235866538039399"/>
        <Con from="1/12" weight="0.762180266101095"/>
        <Con from="1/13" weight="-0.9645465004265945"/>
        <Con from="1/14" weight="0.632151457858737"/>
        <Con from="1/15" weight="0.5693821715375696"/>
        <Con from="1/16" weight="-0.0028142996537171647"/>
        <Con from="1/17" weight="0.2381346894684302"/>
        <Con from="1/18" weight="0.8034276017919834"/>
        <Con from="1/19" weight="-0.021476851426942303"/>
        <Con from="1/20" weight="-0.00901349920590521"/>
        <Con from="1/21" weight="1.0896851859111578"/>
        <Con from="1/22" weight="0.2413491149453508"/>
        <Con from="1/23" weight="0.9587000940778111"/>
        <Con from="1/24" weight="0.12890672140569834"/>
      </Neuron>
      <Neuron id="2/12" bias="-0.3286714331555551">
        <Con from="1/1" weight="-1.1169946453009624E-117"/>
        <Con from="1/2" weight="-6.04056651114159E-156"/>
        <Con from="1/3" weight="3.6192279349613763E-155"/>
        <Con from="1/4" weight="4.0867624794392377E-141"/>
        <Con from="1/5" weight="-2.4763684334124077E-125"/>
        <Con from="1/6" weight="-3.9235736122396844E-142"/>
        <Con from="1/7" weight="-1.3616773924291593E-138"/>
        <Con from="1/8" weight="1.2810353886673056E-145"/>
        <Con from="1/9" weight="4.327018629108202E-147"/>
        <Con from="1/10" weight="1.2107961942043753E-156"/>
        <Con from="1/11" weight="1.414405474709242E-116"/>
        <Con from="1/12" weight="-1.6845544636278913E-134"/>
        <Con from="1/13" weight="2.2766276911699056E-116"/>
        <Con from="1/14" weight="-1.9047884598994868E-120"/>
        <Con from="1/15" weight="-3.0372143435897054E-147"/>
        <Con from="1/16" weight="1.2504736682433736E-151"/>
        <Con from="1/17" weight="-4.703103011344171E-137"/>
        <Con from="1/18" weight="1.2905226436529872E-142"/>
        <Con from="1/19" weight="3.4794487234847404E-157"/>
        <Con from="1/20" weight="8.349285401973793E-118"/>
        <Con from="1/21" weight="4.7103113883809463E-141"/>
        <Con from="1/22" weight="5.252084038739175E-156"/>
        <Con from="1/23" weight="-1.4775419687031996E-128"/>
        <Con from="1/24" weight="-5.616628701946235E-142"/>
      </Neuron>
      <Neuron id="2/13" bias="-0.21105430900757977">
        <Con from="1/1" weight="0.7888547439774003"/>
        <Con from="1/2" weight="0.034526875275183166"/>
        <Con from="1/3" weight="0.5191386909549628"/>
        <Con from="1/4" weight="0.4162845194053951"/>
        <Con from="1/5" weight="-0.24518150388314594"/>
        <Con from="1/6" weight="0.17809430245175248"/>
        <Con from="1/7" weight="-0.0036933397260713167"/>
        <Con from="1/8" weight="0.9981628795640625"/>
        <Con from="1/9" weight="0.626955858304843"/>
        <Con from="1/10" weight="0.3330789458949604"/>
        <Con from="1/11" weight="1.1504401902919212"/>
        <Con from="1/12" weight="-0.22139696694458152"/>
        <Con from="1/13" weight="0.6144991194670534"/>
        <Con from="1/14" weight="-0.9512090026674531"/>
        <Con from="1/15" weight="-0.47195225622463055"/>
        <Con from="1/16" weight="0.39621711422763156"/>
        <Con from="1/17" weight="0.006142529525004548"/>
        <Con from="1/18" weight="0.5122058989285464"/>
        <Con from="1/19" weight="0.03329463805925271"/>
        <Con from="1/20" weight="-0.6844387724797216"/>
        <Con from="1/21" weight="0.4241283662140335"/>
        <Con from="1/22" weight="-0.12031715129660416"/>
        <Con from="1/23" weight="0.586240886602879"/>
        <Con from="1/24" weight="0.526327152367114"/>
      </Neuron>
      <Neuron id="2/14" bias="0.360619857912806">
        <Con from="1/1" weight="0.7544125432457096"/>
        <Con from="1/2" weight="0.5274005038241601"/>
        <Con from="1/3" weight="-0.43136294448005574"/>
        <Con from="1/4" weight="-0.2456559887101856"/>
        <Con from="1/5" weight="0.42833840340067314"/>
        <Con from="1/6" weight="0.3499327128894652"/>
        <Con from="1/7" weight="0.5570430927433045"/>
        <Con from="1/8" weight="0.5271094469715948"/>
        <Con from="1/9" weight="0.15229999473045497"/>
        <Con from="1/10" weight="0.2504173637511197"/>
        <Con from="1/11" weight="0.5398834291583531"/>
        <Con from="1/12" weight="-0.6127879583942525"/>
        <Con from="1/13" weight="0.8801300572684744"/>
        <Con from="1/14" weight="0.0269748924887915"/>
        <Con from="1/15" weight="-0.46628214626135095"/>
        <Con from="1/16" weight="0.16901444296979592"/>
        <Con from="1/17" weight="0.38520279222295634"/>
        <Con from="1/18" weight="-0.7215197876138928"/>
        <Con from="1/19" weight="0.4117131497086117"/>
        <Con from="1/20" weight="0.4594298548721979"/>
        <Con from="1/21" weight="-0.10783741776619118"/>
        <Con from="1/22" weight="0.26440553321258986"/>
        <Con from="1/23" weight="-0.5141625825855105"/>
        <Con from="1/24" weight="0.18319877540880544"/>
      </Neuron>
      <Neuron id="2/15" bias="0.3396867415059653">
        <Con from="1/1" weight="-0.30764636747492446"/>
        <Con from="1/2" weight="0.8214642247696197"/>
        <Con from="1/3" weight="0.32836235833082567"/>
        <Con from="1/4" weight="0.40294189118185614"/>
        <Con from="1/5" weight="0.6456859535989229"/>
        <Con from="1/6" weight="0.6422815639340839"/>
        <Con from="1/7" weight="1.413403432278438"/>
        <Con from="1/8" weight="0.36444275347656296"/>
        <Con from="1/9" weight="-0.5926313910893888"/>
        <Con from="1/10" weight="0.44703392757698523"/>
        <Con from="1/11" weight="0.635053246003655"/>
        <Con from="1/12" weight="-0.4263887057119169"/>
        <Con from="1/13" weight="0.9031734696677662"/>
        <Con from="1/14" weight="-0.002836913354938454"/>
        <Con from="1/15" weight="-0.059676498164118456"/>
        <Con from="1/16" weight="0.1663197257882824"/>
        <Con from="1/17" weight="-0.3271392575121765"/>
        <Con from="1/18" weight="-1.090323076565201"/>
        <Con from="1/19" weight="0.2845684699974663"/>
        <Con from="1/20" weight="-0.025937769048677426"/>
        <Con from="1/21" weight="-0.2993386472599356"/>
        <Con from="1/22" weight="0.366135249258176"/>
        <Con from="1/23" weight="-0.45813135281282963"/>
        <Con from="1/24" weight="0.2757143587659917"/>
      </Neuron>
      <Neuron id="2/16" bias="0.9056148883044152">
        <Con from="1/1" weight="-1.0844632326495753"/>
        <Con from="1/2" weight="0.16359982363043615"/>
        <Con from="1/3" weight="-0.057349000371693125"/>
        <Con from="1/4" weight="-0.12537554450867747"/>
        <Con from="1/5" weight="1.0167020476301536"/>
        <Con from="1/6" weight="0.7385272409708088"/>
        <Con from="1/7" weight="1.366627922408403"/>
        <Con from="1/8" weight="-1.009588770474667"/>
        <Con from="1/9" weight="-1.012099237181079"/>
        <Con from="1/10" weight="0.6706511630729167"/>
        <Con from="1/11" weight="-0.7062700112426131"/>
        <Con from="1/12" weight="-0.08450460991304681"/>
        <Con from="1/13" weight="0.3955098860955962"/>
        <Con from="1/14" weight="0.7119845442013429"/>
        <Con from="1/15" weight="0.6458060955562397"/>
        <Con from="1/16" weight="-0.4360604711113527"/>
        <Con from="1/17" weight="0.2966930726930337"/>
        <Con from="1/18" weight="-0.5047893667872647"/>
        <Con from="1/19" weight="-1.1904373016114445"/>
        <Con from="1/20" weight="0.1681034410427691"/>
        <Con from="1/21" weight="0.8656417518742543"/>
        <Con from="1/22" weight="0.8144634895577937"/>
        <Con from="1/23" weight="-0.10151193861840707"/>
        <Con from="1/24" weight="0.29818112895575244"/>
      </Neuron>
      <Neuron id="2/17" bias="0.057873270262356925">
        <Con from="1/1" weight="0.056669583997910666"/>
        <Con from="1/2" weight="-0.645875768385773"/>
        <Con from="1/3" weight="0.6228982634602659"/>
        <Con from="1/4" weight="0.8491552159806457"/>
        <Con from="1/5" weight="0.016972042156952645"/>
        <Con from="1/6" weight="-0.834582119655475"/>
        <Con from="1/7" weight="-0.6684954275239847"/>
        <Con from="1/8" weight="-0.10923540330620822"/>
        <Con from="1/9" weight="0.6281685222483095"/>
        <Con from="1/10" weight="-0.6086599704539936"/>
        <Con from="1/11" weight="-0.23071617072773945"/>
        <Con from="1/12" weight="0.5268984055711006"/>
        <Con from="1/13" weight="-0.5292640135979345"/>
        <Con from="1/14" weight="0.6907735335373776"/>
        <Con from="1/15" weight="0.5737087279398869"/>
        <Con from="1/16" weight="0.30605469193544377"/>
        <Con from="1/17" weight="0.1775661740820126"/>
        <Con from="1/18" weight="0.5869048163651391"/>
        <Con from="1/19" weight="-0.45459885470599337"/>
        <Con from="1/20" weight="-0.0665921329775675"/>
        <Con from="1/21" weight="0.6884610702751829"/>
        <Con from="1/22" weight="0.5300066723039851"/>
        <Con from="1/23" weight="0.8266307607419753"/>
        <Con from="1/24" weight="0.6824496286966196"/>
      </Neuron>
      <Neuron id="2/18" bias="0.8149920114030477">
        <Con from="1/1" weight="-0.6888755978550364"/>
        <Con from="1/2" weight="0.044677161844755536"/>
        <Con from="1/3" weight="-0.8574781581795979"/>
        <Con from="1/4" weight="-1.5717544820430542"/>
        <Con from="1/5" weight="1.2988542910166379"/>
        <Con from="1/6" weight="1.4409064358034522"/>
        <Con from="1/7" weight="0.9901083963312008"/>
        <Con from="1/8" weight="-0.8666713076416871"/>
        <Con from="1/9" weight="-0.6633403578071626"/>
        <Con from="1/10" weight="1.500291277085546"/>
        <Con from="1/11" weight="-0.4609248783370546"/>
        <Con from="1/12" weight="-0.15975434229640514"/>
        <Con from="1/13" weight="0.9612010859739795"/>
        <Con from="1/14" weight="0.8767809047995501"/>
        <Con from="1/15" weight="0.020432984677148807"/>
        <Con from="1/16" weight="-0.6845521002079517"/>
        <Con from="1/17" weight="0.3080848519513682"/>
        <Con from="1/18" weight="-1.2330631588204726"/>
        <Con from="1/19" weight="-0.2562743087616471"/>
        <Con from="1/20" weight="1.0852378815596944"/>
        <Con from="1/21" weight="0.9911765397554437"/>
        <Con from="1/22" weight="0.6699606429093857"/>
        <Con from="1/23" weight="-1.1872176410684514"/>
        <Con from="1/24" weight="-0.7153061259539414"/>
      </Neuron>
      <Neuron id="2/19" bias="-0.23961577057260608">
        <Con from="1/1" weight="2.5594821693788486E-155"/>
        <Con from="1/2" weight="-1.9851018157893568E-133"/>
        <Con from="1/3" weight="1.5466093378584954E-155"/>
        <Con from="1/4" weight="-2.8669847605783282E-155"/>
        <Con from="1/5" weight="1.7555274809789774E-139"/>
        <Con from="1/6" weight="5.501544613114691E-130"/>
        <Con from="1/7" weight="2.5228550576101524E-132"/>
        <Con from="1/8" weight="-4.6307296185058434E-138"/>
        <Con from="1/9" weight="-1.0830257212896259E-126"/>
        <Con from="1/10" weight="8.219930429118664E-148"/>
        <Con from="1/11" weight="4.499344049945344E-156"/>
        <Con from="1/12" weight="-1.3344641333239774E-149"/>
        <Con from="1/13" weight="1.449215786968695E-142"/>
        <Con from="1/14" weight="1.487681129603402E-154"/>
        <Con from="1/15" weight="-3.096563479220973E-122"/>
        <Con from="1/16" weight="8.892623711957315E-137"/>
        <Con from="1/17" weight="8.554017199867794E-156"/>
        <Con from="1/18" weight="1.8889217061225728E-125"/>
        <Con from="1/19" weight="2.4619702173773232E-129"/>
        <Con from="1/20" weight="-7.51907754244073E-138"/>
        <Con from="1/21" weight="2.151527974037403E-140"/>
        <Con from="1/22" weight="-1.1105704815720243E-155"/>
        <Con from="1/23" weight="1.028162101705753E-117"/>
        <Con from="1/24" weight="-1.0701337300541951E-142"/>
      </Neuron>
      <Neuron id="2/20" bias="-0.002564929127462017">
        <Con from="1/1" weight="-0.6312439198772055"/>
        <Con from="1/2" weight="-0.556447670645254"/>
        <Con from="1/3" weight="0.6987511282785885"/>
        <Con from="1/4" weight="0.9635229743305517"/>
        <Con from="1/5" weight="-0.22968456111531307"/>
        <Con from="1/6" weight="-0.2358765361642742"/>
        <Con from="1/7" weight="-0.6899725444020491"/>
        <Con from="1/8" weight="-0.8696989412690193"/>
        <Con from="1/9" weight="0.0650990295043741"/>
        <Con from="1/10" weight="-1.1181003025365563"/>
        <Con from="1/11" weight="-0.5549714121784749"/>
        <Con from="1/12" weight="0.2520559826190723"/>
        <Con from="1/13" weight="-0.7601310651056106"/>
        <Con from="1/14" weight="0.24673416796120048"/>
        <Con from="1/15" weight="0.430461887328047"/>
        <Con from="1/16" weight="0.3412907900783159"/>
        <Con from="1/17" weight="0.20127860654816787"/>
        <Con from="1/18" weight="0.558382982886841"/>
        <Con from="1/19" weight="-0.10754423483593369"/>
        <Con from="1/20" weight="-1.3195169871385757"/>
        <Con from="1/21" weight="1.0464413010532494"/>
        <Con from="1/22" weight="0.13056248078930202"/>
        <Con from="1/23" weight="0.7493630080786537"/>
        <Con from="1/24" weight="1.0734790677243702"/>
      </Neuron>
      <Neuron id="2/21" bias="0.25265052689165707">
        <Con from="1/1" weight="-1.4686294142843777"/>
        <Con from="1/2" weight="0.21823421176369182"/>
        <Con from="1/3" weight="0.3224763759883472"/>
        <Con from="1/4" weight="0.32396670403333566"/>
        <Con from="1/5" weight="-0.007321216931301339"/>
        <Con from="1/6" weight="-0.26806546090064054"/>
        <Con from="1/7" weight="0.9282496409816715"/>
        <Con from="1/8" weight="-1.6744548837665127"/>
        <Con from="1/9" weight="-0.3238615502647944"/>
        <Con from="1/10" weight="0.4824722923379281"/>
        <Con from="1/11" weight="-1.0146871072627954"/>
        <Con from="1/12" weight="0.2906997792434843"/>
        <Con from="1/13" weight="0.22678935050597396"/>
        <Con from="1/14" weight="0.5638312988819627"/>
        <Con from="1/15" weight="0.34162708050372886"/>
        <Con from="1/16" weight="-0.11813701001187021"/>
        <Con from="1/17" weight="0.2515859205457746"/>
        <Con from="1/18" weight="-0.4368419600237642"/>
        <Con from="1/19" weight="-0.5954420649983847"/>
        <Con from="1/20" weight="0.07458921381180317"/>
        <Con from="1/21" weight="0.2574078118309124"/>
        <Con from="1/22" weight="0.6880060871602951"/>
        <Con from="1/23" weight="-0.08402517726880283"/>
        <Con from="1/24" weight="0.16530156654803022"/>
      </Neuron>
      <Neuron id="2/22" bias="0.38108796896231156">
        <Con from="1/1" weight="1.5764556952688882"/>
        <Con from="1/2" weight="-0.6044984743618393"/>
        <Con from="1/3" weight="-0.2806824827727894"/>
        <Con from="1/4" weight="-0.63219772139143"/>
        <Con from="1/5" weight="0.7754712653730081"/>
        <Con from="1/6" weight="-0.5087733072394536"/>
        <Con from="1/7" weight="-1.1222163311194417"/>
        <Con from="1/8" weight="-0.448202893822045"/>
        <Con from="1/9" weight="1.0730618340413232"/>
        <Con from="1/10" weight="-0.23498587556246056"/>
        <Con from="1/11" weight="-0.522110749874711"/>
        <Con from="1/12" weight="0.23258175681974172"/>
        <Con from="1/13" weight="-0.27806870745663437"/>
        <Con from="1/14" weight="0.9830844801495101"/>
        <Con from="1/15" weight="0.05352386470303383"/>
        <Con from="1/16" weight="-0.009834373283346817"/>
        <Con from="1/17" weight="0.7954827692690676"/>
        <Con from="1/18" weight="0.7828871383046622"/>
        <Con from="1/19" weight="0.4634887932448072"/>
        <Con from="1/20" weight="1.167103911748129"/>
        <Con from="1/21" weight="-0.14259608552325262"/>
        <Con from="1/22" weight="0.2691302903369253"/>
        <Con from="1/23" weight="-0.18468318995531294"/>
        <Con from="1/24" weight="-0.9267631961798388"/>
      </Neuron>
      <Neuron id="2/23" bias="0.2709074886248652">
        <Con from="1/1" weight="0.8156575793705653"/>
        <Con from="1/2" weight="0.11352674564668547"/>
        <Con from="1/3" weight="-0.20078332197191057"/>
        <Con from="1/4" weight="-0.2528867860193084"/>
        <Con from="1/5" weight="0.8201034748948935"/>
        <Con from="1/6" weight="0.003736439166042954"/>
        <Con from="1/7" weight="-0.27597038954576"/>
        <Con from="1/8" weight="-0.8911319254963272"/>
        <Con from="1/9" weight="0.4711674178096921"/>
        <Con from="1/10" weight="0.10539452615886999"/>
        <Con from="1/11" weight="-0.6424560250900667"/>
        <Con from="1/12" weight="0.1938869758133745"/>
        <Con from="1/13" weight="-0.2285079139794258"/>
        <Con from="1/14" weight="0.6703410576285916"/>
        <Con from="1/15" weight="0.4129070407063444"/>
        <Con from="1/16" weight="-0.2662929433780422"/>
        <Con from="1/17" weight="0.7779831152053468"/>
        <Con from="1/18" weight="-0.009894381446960346"/>
        <Con from="1/19" weight="-0.31922392723012327"/>
        <Con from="1/20" weight="0.3924134249464588"/>
        <Con from="1/21" weight="-0.1417152732030205"/>
        <Con from="1/22" weight="0.5111880058902581"/>
        <Con from="1/23" weight="0.20814859599108115"/>
        <Con from="1/24" weight="-0.8281434553641542"/>
      </Neuron>
      <Neuron id="2/24" bias="0.38010779545870405">
        <Con from="1/1" weight="1.6380446611335437"/>
        <Con from="1/2" weight="-0.6649836558294786"/>
        <Con from="1/3" weight="-0.34812624079354176"/>
        <Con from="1/4" weight="-0.08011700740715477"/>
        <Con from="1/5" weight="0.39043849738635084"/>
        <Con from="1/6" weight="-0.3813612494593366"/>
        <Con from="1/7" weight="-1.0151189395860711"/>
        <Con from="1/8" weight="-0.5457725299725074"/>
        <Con from="1/9" weight="1.105956792363341"/>
        <Con from="1/10" weight="-0.05208642306434743"/>
        <Con from="1/11" weight="-0.5873447409053011"/>
        <Con from="1/12" weight="0.18050669839190547"/>
        <Con from="1/13" weight="-0.25363875041191053"/>
        <Con from="1/14" weight="0.6009068299642737"/>
        <Con from="1/15" weight="-0.14406205027002422"/>
        <Con from="1/16" weight="0.2661668568144778"/>
        <Con from="1/17" weight="0.6692994554627381"/>
        <Con from="1/18" weight="0.04585835671733331"/>
        <Con from="1/19" weight="0.11956435428804767"/>
        <Con from="1/20" weight="0.587523792617985"/>
        <Con from="1/21" weight="0.2913062709972812"/>
        <Con from="1/22" weight="0.19497897608656245"/>
        <Con from="1/23" weight="0.41096620714714444"/>
        <Con from="1/24" weight="-0.6514837731928521"/>
      </Neuron>
      <Neuron id="2/25" bias="-0.16424762280706953">
        <Con from="1/1" weight="-0.049205945364079934"/>
        <Con from="1/2" weight="0.11638292095175658"/>
        <Con from="1/3" weight="-0.053800378227059"/>
        <Con from="1/4" weight="-0.028201464736432206"/>
        <Con from="1/5" weight="-0.11034218740238606"/>
        <Con from="1/6" weight="-0.038908955686637575"/>
        <Con from="1/7" weight="-0.044691077206682965"/>
        <Con from="1/8" weight="-0.06881656596641332"/>
        <Con from="1/9" weight="-0.08497383239011966"/>
        <Con from="1/10" weight="-0.09410516569194483"/>
        <Con from="1/11" weight="-0.01996512491162168"/>
        <Con from="1/12" weight="0.04199617483931941"/>
        <Con from="1/13" weight="-0.0692938267424319"/>
        <Con from="1/14" weight="-0.021191056896014932"/>
        <Con from="1/15" weight="-0.09974895338614875"/>
        <Con from="1/16" weight="0.08694538895526192"/>
        <Con from="1/17" weight="-0.029226227055696927"/>
        <Con from="1/18" weight="-0.02081142568656235"/>
        <Con from="1/19" weight="-0.08952294976835251"/>
        <Con from="1/20" weight="0.11328868151662137"/>
        <Con from="1/21" weight="-0.04033241247116497"/>
        <Con from="1/22" weight="-0.05555445792075415"/>
        <Con from="1/23" weight="-0.0023121407593720365"/>
        <Con from="1/24" weight="-0.034445420177725505"/>
      </Neuron>
      <Neuron id="2/26" bias="0.22094181896559917">
        <Con from="1/1" weight="-0.6544772584162788"/>
        <Con from="1/2" weight="0.04977181385663948"/>
        <Con from="1/3" weight="0.6678450481445806"/>
        <Con from="1/4" weight="0.8021049047786293"/>
        <Con from="1/5" weight="-0.3914518458217637"/>
        <Con from="1/6" weight="0.08080879646098106"/>
        <Con from="1/7" weight="0.606947933818315"/>
        <Con from="1/8" weight="-0.21591095420764359"/>
        <Con from="1/9" weight="-0.7561604219835758"/>
        <Con from="1/10" weight="0.12456760002102706"/>
        <Con from="1/11" weight="0.12619171747149965"/>
        <Con from="1/12" weight="0.521564293545909"/>
        <Con from="1/13" weight="0.7522113731939515"/>
        <Con from="1/14" weight="-0.09864513116686875"/>
        <Con from="1/15" weight="-0.07943918304070413"/>
        <Con from="1/16" weight="-0.15233626340118486"/>
        <Con from="1/17" weight="-0.1060626203179292"/>
        <Con from="1/18" weight="-0.11537093019880283"/>
        <Con from="1/19" weight="0.14312338379318276"/>
        <Con from="1/20" weight="-0.32560006556256554"/>
        <Con from="1/21" weight="0.4747188897670157"/>
        <Con from="1/22" weight="0.2645337514127499"/>
        <Con from="1/23" weight="0.01196638678745346"/>
        <Con from="1/24" weight="0.48082228343739347"/>
      </Neuron>
    </NeuralLayer>
    <NeuralLayer activationFunction="identity" normalizationMethod="softmax">
      <Neuron id="3/1" bias="-0.29007619023647097">
        <Con from="2/1" weight="0.3110049191433083"/>
        <Con from="2/2" weight="-8.410833799816927E-134"/>
        <Con from="2/3" weight="0.42055659325502204"/>
        <Con from="2/4" weight="1.0222684192243965"/>
        <Con from="2/5" weight="-2.087391427203204"/>
        <Con from="2/6" weight="-0.35252174600574293"/>
        <Con from="2/7" weight="-0.0036523713454534065"/>
        <Con from="2/8" weight="-0.12268839058497268"/>
        <Con from="2/9" weight="-2.0859144900265316"/>
        <Con from="2/10" weight="0.4356315518656899"/>
        <Con from="2/11" weight="0.5675194277538079"/>
        <Con from="2/12" weight="1.1505242004458901E-141"/>
        <Con from="2/13" weight="0.08543752751677317"/>
        <Con from="2/14" weight="-0.2309239463120305"/>
        <Con from="2/15" weight="-1.7354240460934907"/>
        <Con from="2/16" weight="0.53745176796256"/>
        <Con from="2/17" weight="0.5275454807061064"/>
        <Con from="2/18" weight="-0.38667375324072556"/>
        <Con from="2/19" weight="3.240565963724466E-143"/>
        <Con from="2/20" weight="0.4321767890954381"/>
        <Con from="2/21" weight="0.7656110081976786"/>
        <Con from="2/22" weight="-0.28168849002227014"/>
        <Con from="2/23" weight="-0.5346070584715525"/>
        <Con from="2/24" weight="-0.2726726921318819"/>
        <Con from="2/25" weight="0.028773146650621924"/>
        <Con from="2/26" weight="0.5237238872602599"/>
      </Neuron>
      <Neuron id="3/2" bias="-0.10842666647165777">
        <Con from="2/1" weight="0.6513626954417864"/>
        <Con from="2/2" weight="1.5223713076527307E-128"/>
        <Con from="2/3" weight="-0.22363280804587973"/>
        <Con from="2/4" weight="0.36269531853725967"/>
        <Con from="2/5" weight="-0.7810683442321753"/>
        <Con from="2/6" weight="-0.10862323234639734"/>
        <Con from="2/7" weight="-0.005553227902375798"/>
        <Con from="2/8" weight="-0.5990440577706225"/>
        <Con from="2/9" weight="-1.2985289373365687"/>
        <Con from="2/10" weight="0.4151870247452971"/>
        <Con from="2/11" weight="0.42441928098709053"/>
        <Con from="2/12" weight="-2.0649606355292367E-133"/>
        <Con from="2/13" weight="-0.12758889883760197"/>
        <Con from="2/14" weight="-0.6068745585641213"/>
        <Con from="2/15" weight="-1.1920445796303272"/>
        <Con from="2/16" weight="-0.027793013576901646"/>
        <Con from="2/17" weight="0.41634377800224903"/>
        <Con from="2/18" weight="-0.8659489033810065"/>
        <Con from="2/19" weight="-3.61178752417837E-157"/>
        <Con from="2/20" weight="0.4881436397139867"/>
        <Con from="2/21" weight="0.048654253563282575"/>
        <Con from="2/22" weight="-0.5374469705937412"/>
        <Con from="2/23" weight="-0.01067714459692867"/>
        <Con from="2/24" weight="0.0911102635874909"/>
        <Con from="2/25" weight="0.02802179284437583"/>
        <Con from="2/26" weight="0.4824402844323538"/>
      </Neuron>
      <Neuron id="3/3" bias="-0.4383361638963058">
        <Con from="2/1" weight="0.3314197923787956"/>
        <Con from="2/2" weight="-1.2113018099762516E-148"/>
        <Con from="2/3" weight="-0.9807564544181591"/>
        <Con from="2/4" weight="-0.08216954722762082"/>
        <Con from="2/5" weight="-0.3369128509903724"/>
        <Con from="2/6" weight="-0.31091024313075905"/>
        <Con from="2/7" weight="-0.0011351925656213804"/>
        <Con from="2/8" weight="-1.5891226955815156"/>
        <Con from="2/9" weight="-0.7888780856074518"/>
        <Con from="2/10" weight="0.01651363185624463"/>
        <Con from="2/11" weight="0.49875849896472746"/>
        <Con from="2/12" weight="-3.37955019113231E-114"/>
        <Con from="2/13" weight="0.525514288414363"/>
        <Con from="2/14" weight="-0.2841538216043343"/>
        <Con from="2/15" weight="-0.7365714209665446"/>
        <Con from="2/16" weight="-0.22292586095748917"/>
        <Con from="2/17" weight="0.5635840093719231"/>
        <Con from="2/18" weight="-0.16400968771925667"/>
        <Con from="2/19" weight="-5.821230649790559E-151"/>
        <Con from="2/20" weight="0.5137144367994133"/>
        <Con from="2/21" weight="0.22233114349731417"/>
        <Con from="2/22" weight="0.08514111070429034"/>
        <Con from="2/23" weight="-0.2595076478928041"/>
        <Con from="2/24" weight="0.1821841559937035"/>
        <Con from="2/25" weight="-0.03308765836054441"/>
        <Con from="2/26" weight="0.0170299123187174"/>
      </Neuron>
      <Neuron id="3/4" bias="-0.38936165357498337">
        <Con from="2/1" weight="0.518416948895684"/>
        <Con from="2/2" weight="2.4477341130431065E-148"/>
        <Con from="2/3" weight="-0.7657764266978538"/>
        <Con from="2/4" weight="-0.4041766731514121"/>
        <Con from="2/5" weight="0.16810153632169925"/>
        <Con from="2/6" weight="0.22517129464522254"/>
        <Con from="2/7" weight="-2.9330842128778617E-4"/>
        <Con from="2/8" weight="-0.13416438655604365"/>
        <Con from="2/9" weight="-0.27669656871592485"/>
        <Con from="2/10" weight="0.39062969068739695"/>
        <Con from="2/11" weight="0.136338931645292"/>
        <Con from="2/12" weight="1.5824217252768762E-119"/>
        <Con from="2/13" weight="0.07933515953463093"/>
        <Con from="2/14" weight="-0.6044540845993497"/>
        <Con from="2/15" weight="-0.7088227806001095"/>
        <Con from="2/16" weight="-0.11950057672107296"/>
        <Con from="2/17" weight="0.4386915745582606"/>
        <Con from="2/18" weight="-0.6380324798554718"/>
        <Con from="2/19" weight="-7.338015558969994E-137"/>
        <Con from="2/20" weight="0.17743892532274366"/>
        <Con from="2/21" weight="-0.02437375927704747"/>
        <Con from="2/22" weight="-0.07328584532922944"/>
        <Con from="2/23" weight="0.1411664059309904"/>
        <Con from="2/24" weight="0.34885351123598274"/>
        <Con from="2/25" weight="-0.021616152454491652"/>
        <Con from="2/26" weight="-0.4698897980872092"/>
      </Neuron>
      <Neuron id="3/5" bias="-0.04070670715112369">
        <Con from="2/1" weight="-0.06573333834255723"/>
        <Con from="2/2" weight="3.6952432308897076E-147"/>
        <Con from="2/3" weight="-0.5758635096106811"/>
        <Con from="2/4" weight="-0.7161050717958907"/>
        <Con from="2/5" weight="-0.0803680457601953"/>
        <Con from="2/6" weight="0.41779864169074266"/>
        <Con from="2/7" weight="-2.5997753742224096E-6"/>
        <Con from="2/8" weight="0.22652009207908577"/>
        <Con from="2/9" weight="0.014489314696573777"/>
        <Con from="2/10" weight="0.18925987010289302"/>
        <Con from="2/11" weight="0.09993222981552088"/>
        <Con from="2/12" weight="-6.402761329718936E-151"/>
        <Con from="2/13" weight="0.02161108128963287"/>
        <Con from="2/14" weight="-1.9697976790265892"/>
        <Con from="2/15" weight="-0.4067409642531039"/>
        <Con from="2/16" weight="-0.0674956988482005"/>
        <Con from="2/17" weight="0.24076567364475499"/>
        <Con from="2/18" weight="-1.172905663889755"/>
        <Con from="2/19" weight="-7.428404381281773E-150"/>
        <Con from="2/20" weight="0.34611562183718364"/>
        <Con from="2/21" weight="-0.2506749437886192"/>
        <Con from="2/22" weight="0.2639007567799434"/>
        <Con from="2/23" weight="0.28234667089523635"/>
        <Con from="2/24" weight="0.4392266804726819"/>
        <Con from="2/25" weight="0.013762552533483224"/>
        <Con from="2/26" weight="-0.9265195444883039"/>
      </Neuron>
      <Neuron id="3/6" bias="-0.16154332276007977">
        <Con from="2/1" weight="-0.8015758071891899"/>
        <Con from="2/2" weight="2.6047254568565426E-136"/>
        <Con from="2/3" weight="-0.4745214934364378"/>
        <Con from="2/4" weight="-0.373934272919639"/>
        <Con from="2/5" weight="-0.42318135025124737"/>
        <Con from="2/6" weight="0.5321120175978767"/>
        <Con from="2/7" weight="-1.324293333833743E-6"/>
        <Con from="2/8" weight="0.011049529536433567"/>
        <Con from="2/9" weight="0.37409481874947426"/>
        <Con from="2/10" weight="0.24594871267269128"/>
        <Con from="2/11" weight="0.2238803992799858"/>
        <Con from="2/12" weight="2.04070552486309E-131"/>
        <Con from="2/13" weight="-0.1451746755641625"/>
        <Con from="2/14" weight="-1.4677047128752485"/>
        <Con from="2/15" weight="-0.14620356219908415"/>
        <Con from="2/16" weight="-0.11544302192787614"/>
        <Con from="2/17" weight="-0.1331710258885747"/>
        <Con from="2/18" weight="-1.5493151069385436"/>
        <Con from="2/19" weight="1.2807477638426389E-121"/>
        <Con from="2/20" weight="7.162753800483616E-4"/>
        <Con from="2/21" weight="-0.9388532499840583"/>
        <Con from="2/22" weight="0.48772279079346115"/>
        <Con from="2/23" weight="0.5162916406855969"/>
        <Con from="2/24" weight="0.3303387569459174"/>
        <Con from="2/25" weight="0.003780276823122604"/>
        <Con from="2/26" weight="-0.6915304201246312"/>
      </Neuron>
      <Neuron id="3/7" bias="0.36288226310500377">
        <Con from="2/1" weight="-1.5731500625278454"/>
        <Con from="2/2" weight="7.012272556221471E-116"/>
        <Con from="2/3" weight="-0.6726644290824081"/>
        <Con from="2/4" weight="-0.2336966228505355"/>
        <Con from="2/5" weight="0.284739435842081"/>
        <Con from="2/6" weight="0.5074408366981383"/>
        <Con from="2/7" weight="-0.01940506906089636"/>
        <Con from="2/8" weight="0.15019590351892365"/>
        <Con from="2/9" weight="0.6005796706780594"/>
        <Con from="2/10" weight="-0.07740777653024623"/>
        <Con from="2/11" weight="0.22091008539070095"/>
        <Con from="2/12" weight="9.101672484727621E-156"/>
        <Con from="2/13" weight="-0.08842650451606139"/>
        <Con from="2/14" weight="-0.20732872027657795"/>
        <Con from="2/15" weight="-0.7514025242835217"/>
        <Con from="2/16" weight="-0.3527876882473743"/>
        <Con from="2/17" weight="0.18622932539643855"/>
        <Con from="2/18" weight="-1.634655192843397"/>
        <Con from="2/19" weight="-1.4988280721285607E-127"/>
        <Con from="2/20" weight="-0.6797694148793688"/>
        <Con from="2/21" weight="-0.7713208139981125"/>
        <Con from="2/22" weight="0.6124348518923333"/>
        <Con from="2/23" weight="0.5240605548250091"/>
        <Con from="2/24" weight="0.062013802153051634"/>
        <Con from="2/25" weight="-0.0027542387420249844"/>
        <Con from="2/26" weight="-0.6764391167710238"/>
      </Neuron>
      <Neuron id="3/8" bias="0.01945121348179436">
        <Con from="2/1" weight="-1.2124032795706072"/>
        <Con from="2/2" weight="2.6059054046666496E-119"/>
        <Con from="2/3" weight="-0.40371332943063004"/>
        <Con from="2/4" weight="-0.2413646456704674"/>
        <Con from="2/5" weight="0.5068165777553417"/>
        <Con from="2/6" weight="0.3811998152134618"/>
        <Con from="2/7" weight="0.10133347338515054"/>
        <Con from="2/8" weight="0.06580767893403124"/>
        <Con from="2/9" weight="0.6228592791854974"/>
        <Con from="2/10" weight="0.23671140755434436"/>
        <Con from="2/11" weight="0.26151327990219564"/>
        <Con from="2/12" weight="-2.458912937248163E-129"/>
        <Con from="2/13" weight="-0.1693954169885857"/>
        <Con from="2/14" weight="-0.4139968296637589"/>
        <Con from="2/15" weight="-1.8764673981328377"/>
        <Con from="2/16" weight="-0.4640528154302608"/>
        <Con from="2/17" weight="0.20082529887211223"/>
        <Con from="2/18" weight="-0.641459035167847"/>
        <Con from="2/19" weight="-4.113198872655099E-127"/>
        <Con from="2/20" weight="-2.2051534489082516"/>
        <Con from="2/21" weight="-0.6920659103349089"/>
        <Con from="2/22" weight="0.79868641449071"/>
        <Con from="2/23" weight="0.0675162587629357"/>
        <Con from="2/24" weight="0.2121239180747613"/>
        <Con from="2/25" weight="-0.05185727869275936"/>
        <Con from="2/26" weight="-0.39955371348245977"/>
      </Neuron>
      <Neuron id="3/9" bias="0.31151571076067863">
        <Con from="2/1" weight="0.090018561417475"/>
        <Con from="2/2" weight="-2.898517741149886E-155"/>
        <Con from="2/3" weight="-0.18314496432552818"/>
        <Con from="2/4" weight="0.2851770604019712"/>
        <Con from="2/5" weight="0.0681884767682693"/>
        <Con from="2/6" weight="0.3697529493776878"/>
        <Con from="2/7" weight="0.19602152709409323"/>
        <Con from="2/8" weight="0.15735260753152358"/>
        <Con from="2/9" weight="0.5570880198544027"/>
        <Con from="2/10" weight="-0.3315985992683742"/>
        <Con from="2/11" weight="-0.02892528382135912"/>
        <Con from="2/12" weight="-3.3179352063300556E-131"/>
        <Con from="2/13" weight="-0.509334941918875"/>
        <Con from="2/14" weight="-0.17716540409724815"/>
        <Con from="2/15" weight="-1.7420708565757983"/>
        <Con from="2/16" weight="-0.48873384165612366"/>
        <Con from="2/17" weight="-0.14833360791779515"/>
        <Con from="2/18" weight="0.020816167939844588"/>
        <Con from="2/19" weight="-3.252499107235508E-126"/>
        <Con from="2/20" weight="-2.004462307783644"/>
        <Con from="2/21" weight="-1.1134372022450192"/>
        <Con from="2/22" weight="0.565620653043752"/>
        <Con from="2/23" weight="0.14973800234554235"/>
        <Con from="2/24" weight="0.6928512142747841"/>
        <Con from="2/25" weight="0.023725910946893157"/>
        <Con from="2/26" weight="0.15010296722501876"/>
      </Neuron>
      <Neuron id="3/10" bias="0.0871432724894241">
        <Con from="2/1" weight="-0.36152420734350743"/>
        <Con from="2/2" weight="8.995953985923228E-151"/>
        <Con from="2/3" weight="-0.22548114942781816"/>
        <Con from="2/4" weight="-0.4589067947042921"/>
        <Con from="2/5" weight="-0.3186519711257341"/>
        <Con from="2/6" weight="0.2588902807313174"/>
        <Con from="2/7" weight="0.04068599508946332"/>
        <Con from="2/8" weight="-1.3376226638731872"/>
        <Con from="2/9" weight="0.1754971729556773"/>
        <Con from="2/10" weight="-1.7388875504959649"/>
        <Con from="2/11" weight="-0.19836707076819687"/>
        <Con from="2/12" weight="2.288445599275397E-126"/>
        <Con from="2/13" weight="0.2699114677697308"/>
        <Con from="2/14" weight="0.28992632928050116"/>
        <Con from="2/15" weight="-1.040240117150445"/>
        <Con from="2/16" weight="-0.20341643373061472"/>
        <Con from="2/17" weight="-0.2906847300022252"/>
        <Con from="2/18" weight="0.1309411147298476"/>
        <Con from="2/19" weight="1.5603701238230244E-153"/>
        <Con from="2/20" weight="-0.2503525152497464"/>
        <Con from="2/21" weight="-0.5395079853730936"/>
        <Con from="2/22" weight="0.7753899175802978"/>
        <Con from="2/23" weight="0.28801456234435263"/>
        <Con from="2/24" weight="0.5833372534657886"/>
        <Con from="2/25" weight="-0.04626992888278478"/>
        <Con from="2/26" weight="-0.7162897943308653"/>
      </Neuron>
      <Neuron id="3/11" bias="0.5677393280057571">
        <Con from="2/1" weight="-0.15533256216922037"/>
        <Con from="2/2" weight="-5.148032206126846E-115"/>
        <Con from="2/3" weight="-0.6765573817602369"/>
        <Con from="2/4" weight="-0.2584530792204527"/>
        <Con from="2/5" weight="-0.6778278150775597"/>
        <Con from="2/6" weight="0.013181753516548626"/>
        <Con from="2/7" weight="-0.4446775849567523"/>
        <Con from="2/8" weight="-1.0884972544451126"/>
        <Con from="2/9" weight="0.5373022475074201"/>
        <Con from="2/10" weight="-0.8373730895264178"/>
        <Con from="2/11" weight="-0.7700225275619987"/>
        <Con from="2/12" weight="-3.1961938039163014E-127"/>
        <Con from="2/13" weight="-0.05929487693505686"/>
        <Con from="2/14" weight="0.27921454632090636"/>
        <Con from="2/15" weight="-0.11191282611976275"/>
        <Con from="2/16" weight="-0.08777923491467955"/>
        <Con from="2/17" weight="-0.13656178740145666"/>
        <Con from="2/18" weight="0.34820854630553877"/>
        <Con from="2/19" weight="7.645280094631726E-144"/>
        <Con from="2/20" weight="-1.3541069709053815"/>
        <Con from="2/21" weight="-0.19117899500745902"/>
        <Con from="2/22" weight="0.07638958377818474"/>
        <Con from="2/23" weight="0.22256112880178963"/>
        <Con from="2/24" weight="0.3638057648507472"/>
        <Con from="2/25" weight="0.05999390326630553"/>
        <Con from="2/26" weight="-1.2568339166237845"/>
      </Neuron>
      <Neuron id="3/12" bias="0.30383987911564986">
        <Con from="2/1" weight="-0.2420587495117976"/>
        <Con from="2/2" weight="1.670415628238926E-145"/>
        <Con from="2/3" weight="-1.4569938996700071"/>
        <Con from="2/4" weight="-0.3588462970741588"/>
        <Con from="2/5" weight="-0.9871928565662599"/>
        <Con from="2/6" weight="0.16797587030577255"/>
        <Con from="2/7" weight="0.13408169906199727"/>
        <Con from="2/8" weight="-1.2744490671979958"/>
        <Con from="2/9" weight="0.2085066512668928"/>
        <Con from="2/10" weight="-0.6427305204686178"/>
        <Con from="2/11" weight="-2.0895747951439176"/>
        <Con from="2/12" weight="-1.7313531323755123E-126"/>
        <Con from="2/13" weight="0.03916196480053873"/>
        <Con from="2/14" weight="0.4159888901204423"/>
        <Con from="2/15" weight="-0.48643485838293626"/>
        <Con from="2/16" weight="0.3094124214992329"/>
        <Con from="2/17" weight="-0.3218316629793335"/>
        <Con from="2/18" weight="0.45422915942873004"/>
        <Con from="2/19" weight="-9.698828745450355E-140"/>
        <Con from="2/20" weight="-0.3543421150062796"/>
        <Con from="2/21" weight="0.18320528514800744"/>
        <Con from="2/22" weight="0.25299849153585524"/>
        <Con from="2/23" weight="0.3699610436417578"/>
        <Con from="2/24" weight="0.04127761859626614"/>
        <Con from="2/25" weight="-0.007439869626253139"/>
        <Con from="2/26" weight="0.13782879651418736"/>
      </Neuron>
      <Neuron id="3/13" bias="-0.09650131135933646">
        <Con from="2/1" weight="0.7343548505102004"/>
        <Con from="2/2" weight="7.941569077283015E-147"/>
        <Con from="2/3" weight="-0.8169478045283504"/>
        <Con from="2/4" weight="-0.06944851702827473"/>
        <Con from="2/5" weight="-0.5718902903107702"/>
        <Con from="2/6" weight="0.07169205982697485"/>
        <Con from="2/7" weight="-0.0036673122192005586"/>
        <Con from="2/8" weight="-2.2686629022725446"/>
        <Con from="2/9" weight="0.2584411882938829"/>
        <Con from="2/10" weight="-0.04059006836081414"/>
        <Con from="2/11" weight="-2.848989697510241"/>
        <Con from="2/12" weight="-4.268983877539906E-152"/>
        <Con from="2/13" weight="-0.745669124156286"/>
        <Con from="2/14" weight="0.26567107296698966"/>
        <Con from="2/15" weight="6.05214706095719E-4"/>
        <Con from="2/16" weight="0.3684523838072371"/>
        <Con from="2/17" weight="-1.019560466073637"/>
        <Con from="2/18" weight="0.3240241942661375"/>
        <Con from="2/19" weight="-5.718924748942395E-153"/>
        <Con from="2/20" weight="-0.8874744275767753"/>
        <Con from="2/21" weight="0.7066526107229684"/>
        <Con from="2/22" weight="-0.04728401057010766"/>
        <Con from="2/23" weight="0.4122690937941919"/>
        <Con from="2/24" weight="-0.0640453087615746"/>
        <Con from="2/25" weight="-0.05032910297302369"/>
        <Con from="2/26" weight="-0.059300933465771054"/>
      </Neuron>
      <Neuron id="3/14" bias="0.5867735160920362">
        <Con from="2/1" weight="-0.46567453129595904"/>
        <Con from="2/2" weight="-2.7515186225947044E-125"/>
        <Con from="2/3" weight="-0.9578522368522612"/>
        <Con from="2/4" weight="-0.3438717704320649"/>
        <Con from="2/5" weight="-0.8996060712929799"/>
        <Con from="2/6" weight="-0.1902674134705107"/>
        <Con from="2/7" weight="0.25069128053280804"/>
        <Con from="2/8" weight="-1.0146126152293988"/>
        <Con from="2/9" weight="0.28241924119060874"/>
        <Con from="2/10" weight="0.16418464122408805"/>
        <Con from="2/11" weight="-1.2901604660655384"/>
        <Con from="2/12" weight="7.42067207327161E-139"/>
        <Con from="2/13" weight="-1.173335333292189"/>
        <Con from="2/14" weight="0.06244571695219142"/>
        <Con from="2/15" weight="0.040684031504144166"/>
        <Con from="2/16" weight="0.6988410470081211"/>
        <Con from="2/17" weight="-1.6102789850940888"/>
        <Con from="2/18" weight="0.5242571480067075"/>
        <Con from="2/19" weight="2.771485470323349E-137"/>
        <Con from="2/20" weight="0.6123360021006048"/>
        <Con from="2/21" weight="0.6357441245857586"/>
        <Con from="2/22" weight="-0.27175375882837693"/>
        <Con from="2/23" weight="0.15793051332727873"/>
        <Con from="2/24" weight="-1.1182745576776425"/>
        <Con from="2/25" weight="0.01999889515677387"/>
        <Con from="2/26" weight="0.3345339050507806"/>
      </Neuron>
      <Neuron id="3/15" bias="-0.043154987020163155">
        <Con from="2/1" weight="0.7618399213300882"/>
        <Con from="2/2" weight="4.848055969233228E-156"/>
        <Con from="2/3" weight="-0.323142617494414"/>
        <Con from="2/4" weight="-0.7341326011706517"/>
        <Con from="2/5" weight="-0.12250047771565135"/>
        <Con from="2/6" weight="-0.6812409323504468"/>
        <Con from="2/7" weight="-0.1132976869007441"/>
        <Con from="2/8" weight="-0.9624649039969506"/>
        <Con from="2/9" weight="0.650198576754074"/>
        <Con from="2/10" weight="0.26429381507422367"/>
        <Con from="2/11" weight="-1.6007005502302354"/>
        <Con from="2/12" weight="6.623153097650163E-156"/>
        <Con from="2/13" weight="-2.067220614090893"/>
        <Con from="2/14" weight="0.10890867980860525"/>
        <Con from="2/15" weight="0.07761253380213488"/>
        <Con from="2/16" weight="0.29159049455365604"/>
        <Con from="2/17" weight="-0.6681707878433021"/>
        <Con from="2/18" weight="0.6545860171378601"/>
        <Con from="2/19" weight="6.645441820426013E-128"/>
        <Con from="2/20" weight="0.40393405723068876"/>
        <Con from="2/21" weight="0.6556253607811648"/>
        <Con from="2/22" weight="-1.1318045261206182"/>
        <Con from="2/23" weight="0.08431604407307045"/>
        <Con from="2/24" weight="-2.2748163883493557"/>
        <Con from="2/25" weight="-0.02625225565927662"/>
        <Con from="2/26" weight="0.1557860282220421"/>
      </Neuron>
      <Neuron id="3/16" bias="0.20260582898795984">
        <Con from="2/1" weight="-0.37073984579683467"/>
        <Con from="2/2" weight="1.5148023246539542E-118"/>
        <Con from="2/3" weight="0.011279611670800115"/>
        <Con from="2/4" weight="-0.4648320286904302"/>
        <Con from="2/5" weight="-0.4070975708856977"/>
        <Con from="2/6" weight="-1.6147324639660432"/>
        <Con from="2/7" weight="-0.17629136986923924"/>
        <Con from="2/8" weight="-0.2707571424732462"/>
        <Con from="2/9" weight="0.1663606941934248"/>
        <Con from="2/10" weight="-0.5699654773861942"/>
        <Con from="2/11" weight="-0.9974460480570696"/>
        <Con from="2/12" weight="-3.3857271405124153E-127"/>
        <Con from="2/13" weight="-1.552244305062569"/>
        <Con from="2/14" weight="-0.03545591910316394"/>
        <Con from="2/15" weight="0.16897467857540577"/>
        <Con from="2/16" weight="0.6848211263409223"/>
        <Con from="2/17" weight="-0.6216298108417678"/>
        <Con from="2/18" weight="0.6690454660814403"/>
        <Con from="2/19" weight="5.565301713012255E-151"/>
        <Con from="2/20" weight="0.08918147199162198"/>
        <Con from="2/21" weight="0.3542320583149527"/>
        <Con from="2/22" weight="-1.546454576578881"/>
        <Con from="2/23" weight="0.31180738050285645"/>
        <Con from="2/24" weight="-1.4503305133284632"/>
        <Con from="2/25" weight="4.853128804734118E-4"/>
        <Con from="2/26" weight="-0.1322973863283572"/>
      </Neuron>
      <Neuron id="3/17" bias="-0.3357327239342408">
        <Con from="2/1" weight="-0.720363952077106"/>
        <Con from="2/2" weight="2.7518393228384997E-154"/>
        <Con from="2/3" weight="-0.12042301512628881"/>
        <Con from="2/4" weight="0.053299512273504615"/>
        <Con from="2/5" weight="0.11034713243698448"/>
        <Con from="2/6" weight="-2.9453938966617006"/>
        <Con from="2/7" weight="-0.33705139778397086"/>
        <Con from="2/8" weight="-0.1451519265444764"/>
        <Con from="2/9" weight="0.3822459628176441"/>
        <Con from="2/10" weight="-0.9520895492827584"/>
        <Con from="2/11" weight="-0.4266487165211081"/>
        <Con from="2/12" weight="-4.912448489294677E-153"/>
        <Con from="2/13" weight="-0.8732266967292611"/>
        <Con from="2/14" weight="0.20824777804397976"/>
        <Con from="2/15" weight="-0.07360181219352077"/>
        <Con from="2/16" weight="0.5093233712370236"/>
        <Con from="2/17" weight="-0.7947913498899946"/>
        <Con from="2/18" weight="0.7070879803881476"/>
        <Con from="2/19" weight="3.5853840678578015E-152"/>
        <Con from="2/20" weight="-1.3755777361125268"/>
        <Con from="2/21" weight="0.06639302613541179"/>
        <Con from="2/22" weight="-0.9848188755321594"/>
        <Con from="2/23" weight="-0.19819183047491917"/>
        <Con from="2/24" weight="0.06296664022492425"/>
        <Con from="2/25" weight="0.008860772632577289"/>
        <Con from="2/26" weight="-0.05275164079642735"/>
      </Neuron>
      <Neuron id="3/18" bias="0.09019719213463422">
        <Con from="2/1" weight="-0.36041739207990653"/>
        <Con from="2/2" weight="2.461866329683842E-115"/>
        <Con from="2/3" weight="0.2267089262262446"/>
        <Con from="2/4" weight="0.6464136849151473"/>
        <Con from="2/5" weight="-0.08935462820162826"/>
        <Con from="2/6" weight="-2.1401347773009163"/>
        <Con from="2/7" weight="0.06128736809873087"/>
        <Con from="2/8" weight="-0.24672653479414625"/>
        <Con from="2/9" weight="-0.09391804046248863"/>
        <Con from="2/10" weight="-1.4181599110291991"/>
        <Con from="2/11" weight="-0.4465820752797721"/>
        <Con from="2/12" weight="6.356442760941432E-143"/>
        <Con from="2/13" weight="-0.336493420317935"/>
        <Con from="2/14" weight="0.043593648892408014"/>
        <Con from="2/15" weight="0.378700604065428"/>
        <Con from="2/16" weight="0.516449693714026"/>
        <Con from="2/17" weight="-0.6347814235335588"/>
        <Con from="2/18" weight="0.6877838273158318"/>
        <Con from="2/19" weight="-1.0367718130433345E-153"/>
        <Con from="2/20" weight="-0.4915377992025899"/>
        <Con from="2/21" weight="-0.5953711042777469"/>
        <Con from="2/22" weight="-0.9101216172313051"/>
        <Con from="2/23" weight="-1.073993308574907"/>
        <Con from="2/24" weight="-0.7527703854966283"/>
        <Con from="2/25" weight="-0.05128814538411773"/>
        <Con from="2/26" weight="-0.2672271495038748"/>
      </Neuron>
      <Neuron id="3/19" bias="0.1287296523677458">
        <Con from="2/1" weight="-0.857033120900514"/>
        <Con from="2/2" weight="-5.3654763532151936E-139"/>
        <Con from="2/3" weight="0.5683109553505268"/>
        <Con from="2/4" weight="1.2988010094632023"/>
        <Con from="2/5" weight="-0.12409202511385571"/>
        <Con from="2/6" weight="-1.0199539791833228"/>
        <Con from="2/7" weight="0.14870834112911696"/>
        <Con from="2/8" weight="0.20678954687642126"/>
        <Con from="2/9" weight="-0.5821126869100348"/>
        <Con from="2/10" weight="-1.6135614321487295"/>
        <Con from="2/11" weight="-0.4097122510469043"/>
        <Con from="2/12" weight="2.2621787510030916E-127"/>
        <Con from="2/13" weight="-0.3998449401244693"/>
        <Con from="2/14" weight="0.39769518176675533"/>
        <Con from="2/15" weight="0.05849709607404945"/>
        <Con from="2/16" weight="0.5395965476094373"/>
        <Con from="2/17" weight="-0.6617542213887956"/>
        <Con from="2/18" weight="0.36263092904232813"/>
        <Con from="2/19" weight="-1.652219192823164E-147"/>
        <Con from="2/20" weight="-0.312972838837356"/>
        <Con from="2/21" weight="-1.6935678591997725"/>
        <Con from="2/22" weight="-0.6696571995060153"/>
        <Con from="2/23" weight="-0.8292554292472123"/>
        <Con from="2/24" weight="-0.43060001457512326"/>
        <Con from="2/25" weight="0.004894977672338669"/>
        <Con from="2/26" weight="0.17457223364845514"/>
      </Neuron>
      <Neuron id="3/20" bias="0.24942254815149367">
        <Con from="2/1" weight="-1.4007382857224218"/>
        <Con from="2/2" weight="3.8141349024547583E-149"/>
        <Con from="2/3" weight="0.4372454043154139"/>
        <Con from="2/4" weight="1.2147701699882678"/>
        <Con from="2/5" weight="-0.004568065737832869"/>
        <Con from="2/6" weight="-0.2365152977391339"/>
        <Con from="2/7" weight="0.07721606723611955"/>
        <Con from="2/8" weight="-0.0161358991910349"/>
        <Con from="2/9" weight="-2.4615647345528235"/>
        <Con from="2/10" weight="-1.8566144012910533"/>
        <Con from="2/11" weight="0.2804386453252548"/>
        <Con from="2/12" weight="-4.3472038053874917E-154"/>
        <Con from="2/13" weight="0.07027314833727188"/>
        <Con from="2/14" weight="0.21553698165255264"/>
        <Con from="2/15" weight="0.5154120087138703"/>
        <Con from="2/16" weight="0.31175415196042083"/>
        <Con from="2/17" weight="-0.5893399455707279"/>
        <Con from="2/18" weight="0.4256393400433389"/>
        <Con from="2/19" weight="4.145582907671515E-152"/>
        <Con from="2/20" weight="0.055711688917310265"/>
        <Con from="2/21" weight="-1.25399895645415"/>
        <Con from="2/22" weight="-0.568733908900465"/>
        <Con from="2/23" weight="-0.30024498378633724"/>
        <Con from="2/24" weight="0.16277914299074314"/>
        <Con from="2/25" weight="0.03468046991398647"/>
        <Con from="2/26" weight="0.20399310743569254"/>
      </Neuron>
      <Neuron id="3/21" bias="-0.2919555072579049">
        <Con from="2/1" weight="-2.219884985977342"/>
        <Con from="2/2" weight="-6.283325254988205E-157"/>
        <Con from="2/3" weight="0.2770000789051974"/>
        <Con from="2/4" weight="-0.9774216548490748"/>
        <Con from="2/5" weight="0.2540194341342197"/>
        <Con from="2/6" weight="-0.3229187219806291"/>
        <Con from="2/7" weight="0.7775590398137674"/>
        <Con from="2/8" weight="0.16607821078905274"/>
        <Con from="2/9" weight="-2.305006221322668"/>
        <Con from="2/10" weight="-0.9453900755306881"/>
        <Con from="2/11" weight="0.007591647860140512"/>
        <Con from="2/12" weight="2.712101483568889E-152"/>
        <Con from="2/13" weight="0.5682130332671627"/>
        <Con from="2/14" weight="0.011431074234547775"/>
        <Con from="2/15" weight="0.4851774858131058"/>
        <Con from="2/16" weight="-0.4955291500555427"/>
        <Con from="2/17" weight="-0.24444088957268295"/>
        <Con from="2/18" weight="0.31359803590859686"/>
        <Con from="2/19" weight="-9.672732387155346E-154"/>
        <Con from="2/20" weight="0.11753838993184623"/>
        <Con from="2/21" weight="-0.35755361057983837"/>
        <Con from="2/22" weight="-0.7545463424983399"/>
        <Con from="2/23" weight="-0.5786674902695884"/>
        <Con from="2/24" weight="0.02656708630896866"/>
        <Con from="2/25" weight="-0.04695871442567294"/>
        <Con from="2/26" weight="0.22014333020121463"/>
      </Neuron>
      <Neuron id="3/22" bias="-0.43069201941278323">
        <Con from="2/1" weight="-0.6039714159218202"/>
        <Con from="2/2" weight="-6.588532652844917E-155"/>
        <Con from="2/3" weight="0.4545873079262148"/>
        <Con from="2/4" weight="-3.295728110231307E-4"/>
        <Con from="2/5" weight="0.4366338850952303"/>
        <Con from="2/6" weight="-0.30295283233097214"/>
        <Con from="2/7" weight="-0.6529305322178767"/>
        <Con from="2/8" weight="0.30180384884835426"/>
        <Con from="2/9" weight="-1.9261694008972752"/>
        <Con from="2/10" weight="-0.5124404812468396"/>
        <Con from="2/11" weight="-0.20999914218227336"/>
        <Con from="2/12" weight="-6.002377116729742E-156"/>
        <Con from="2/13" weight="0.3593759587950578"/>
        <Con from="2/14" weight="0.3050038512150982"/>
        <Con from="2/15" weight="0.14944400688990633"/>
        <Con from="2/16" weight="-0.5061598433989608"/>
        <Con from="2/17" weight="-0.6442182128151501"/>
        <Con from="2/18" weight="-0.17985592151809807"/>
        <Con from="2/19" weight="-1.624915284819251E-127"/>
        <Con from="2/20" weight="-0.13512175333764095"/>
        <Con from="2/21" weight="-0.36516172818774234"/>
        <Con from="2/22" weight="-0.6470274889065641"/>
        <Con from="2/23" weight="-0.5326391014382532"/>
        <Con from="2/24" weight="-0.04139797996959463"/>
        <Con from="2/25" weight="-0.007875035191799211"/>
        <Con from="2/26" weight="-0.05165360097623434"/>
      </Neuron>
      <Neuron id="3/23" bias="-0.03451550341068086">
        <Con from="2/1" weight="0.10946866172041889"/>
        <Con from="2/2" weight="7.283561192269099E-144"/>
        <Con from="2/3" weight="0.5275511377039748"/>
        <Con from="2/4" weight="-2.004131482995287E-8"/>
        <Con from="2/5" weight="0.2196051040923513"/>
        <Con from="2/6" weight="-0.04047575483801599"/>
        <Con from="2/7" weight="0.4662793707101111"/>
        <Con from="2/8" weight="0.6165486237167641"/>
        <Con from="2/9" weight="-1.0557631094427624"/>
        <Con from="2/10" weight="0.05516115349209681"/>
        <Con from="2/11" weight="-0.5930220802411117"/>
        <Con from="2/12" weight="-1.6295756705617549E-141"/>
        <Con from="2/13" weight="0.3556534800697813"/>
        <Con from="2/14" weight="0.39303502086614495"/>
        <Con from="2/15" weight="-0.05712370451933836"/>
        <Con from="2/16" weight="-0.7704233041075311"/>
        <Con from="2/17" weight="-0.6470436751812542"/>
        <Con from="2/18" weight="-0.8431885322792931"/>
        <Con from="2/19" weight="-1.8753529348345162E-146"/>
        <Con from="2/20" weight="-0.19546773916559423"/>
        <Con from="2/21" weight="-0.2641419130307972"/>
        <Con from="2/22" weight="-0.7579804906928609"/>
        <Con from="2/23" weight="-0.8579503404122211"/>
        <Con from="2/24" weight="-0.7986313305268917"/>
        <Con from="2/25" weight="0.038584885690899025"/>
        <Con from="2/26" weight="-0.11439263351424273"/>
      </Neuron>
      <Neuron id="3/24" bias="-0.017443110964585225">
        <Con from="2/1" weight="0.6079505544135094"/>
        <Con from="2/2" weight="-6.703098699621189E-145"/>
        <Con from="2/3" weight="0.33909272149000697"/>
        <Con from="2/4" weight="-4.862539058116476E-6"/>
        <Con from="2/5" weight="0.42222438499870996"/>
        <Con from="2/6" weight="-0.12531650092245783"/>
        <Con from="2/7" weight="0.9351224831459295"/>
        <Con from="2/8" weight="0.4301335458795204"/>
        <Con from="2/9" weight="-1.1132395357518905"/>
        <Con from="2/10" weight="0.8413742627185544"/>
        <Con from="2/11" weight="-0.1685942218871449"/>
        <Con from="2/12" weight="2.115116210620223E-140"/>
        <Con from="2/13" weight="0.2513007604102037"/>
        <Con from="2/14" weight="0.2072484031638364"/>
        <Con from="2/15" weight="-0.006969455050972024"/>
        <Con from="2/16" weight="-2.0460379035500966"/>
        <Con from="2/17" weight="-0.19225217566548183"/>
        <Con from="2/18" weight="-1.0215960432500617"/>
        <Con from="2/19" weight="-5.690127578223148E-139"/>
        <Con from="2/20" weight="0.30239307215020017"/>
        <Con from="2/21" weight="0.131510201155525"/>
        <Con from="2/22" weight="-0.9061443551119023"/>
        <Con from="2/23" weight="-0.8987963811037586"/>
        <Con from="2/24" weight="-0.13013181408279673"/>
        <Con from="2/25" weight="-0.04612699044788356"/>
        <Con from="2/26" weight="0.26239646305166897"/>
      </Neuron>
      <Neuron id="3/25" bias="-0.30564850447918424">
        <Con from="2/1" weight="1.2575070405761446"/>
        <Con from="2/2" weight="-1.0971655269586343E-154"/>
        <Con from="2/3" weight="0.32212629318107383"/>
        <Con from="2/4" weight="-6.204445609627173E-10"/>
        <Con from="2/5" weight="0.083315294618403"/>
        <Con from="2/6" weight="-0.3865583430085682"/>
        <Con from="2/7" weight="0.076803227745502"/>
        <Con from="2/8" weight="0.4290966483832638"/>
        <Con from="2/9" weight="-0.9777739253952596"/>
        <Con from="2/10" weight="1.4228773927653005"/>
        <Con from="2/11" weight="-1.2714356932404747"/>
        <Con from="2/12" weight="-6.788498334334594E-147"/>
        <Con from="2/13" weight="0.09217952480899085"/>
        <Con from="2/14" weight="0.2279799054450681"/>
        <Con from="2/15" weight="0.4210580589434535"/>
        <Con from="2/16" weight="-1.7756747005947335"/>
        <Con from="2/17" weight="-0.10524131475839348"/>
        <Con from="2/18" weight="-2.785307898318938"/>
        <Con from="2/19" weight="-4.799602522701139E-155"/>
        <Con from="2/20" weight="-0.5402099462388582"/>
        <Con from="2/21" weight="0.47449087727193917"/>
        <Con from="2/22" weight="-0.6024346039129788"/>
        <Con from="2/23" weight="-0.28582088228738883"/>
        <Con from="2/24" weight="-0.81344871514913"/>
        <Con from="2/25" weight="5.044424882870964E-4"/>
        <Con from="2/26" weight="-0.046679731168606936"/>
      </Neuron>
    </NeuralLayer>
    <NeuralOutputs>
      <NeuralOutput outputNeuron="3/1">
        <DerivedField optype="categorical" dataType="integer">
          <NormDiscrete field="t0_bin" value="1"/>
        </DerivedField>
      </NeuralOutput>
      <NeuralOutput outputNeuron="3/2">
        <DerivedField optype="categorical" dataType="integer">
          <NormDiscrete field="t0_bin" value="2"/>
        </DerivedField>
      </NeuralOutput>
      <NeuralOutput outputNeuron="3/3">
        <DerivedField optype="categorical" dataType="integer">
          <NormDiscrete field="t0_bin" value="3"/>
        </DerivedField>
      </NeuralOutput>
      <NeuralOutput outputNeuron="3/4">
        <DerivedField optype="categorical" dataType="integer">
          <NormDiscrete field="t0_bin" value="4"/>
        </DerivedField>
      </NeuralOutput>
      <NeuralOutput outputNeuron="3/5">
        <DerivedField optype="categorical" dataType="integer">
          <NormDiscrete field="t0_bin" value="5"/>
        </DerivedField>
      </NeuralOutput>
      <NeuralOutput outputNeuron="3/6">
        <DerivedField optype="categorical" dataType="integer">
          <NormDiscrete field="t0_bin" value="6"/>
        </DerivedField>
      </NeuralOutput>
      <NeuralOutput outputNeuron="3/7">
        <DerivedField optype="categorical" dataType="integer">
          <NormDiscrete field="t0_bin" value="7"/>
        </DerivedField>
      </NeuralOutput>
      <NeuralOutput outputNeuron="3/8">
        <DerivedField optype="categorical" dataType="integer">
          <NormDiscrete field="t0_bin" value="8"/>
        </DerivedField>
      </NeuralOutput>
      <NeuralOutput outputNeuron="3/9">
        <DerivedField optype="categorical" dataType="integer">
          <NormDiscrete field="t0_bin" value="9"/>
        </DerivedField>
      </NeuralOutput>
      <NeuralOutput outputNeuron="3/10">
